1174 128
7 -0.244205 0.0656437 0.00247821 0.208899 0.0902766 -0.229949 0.216905 -0.0900963 -0.0711232 0.0324116 -0.167386 -0.14049 -0.0369253 -0.0551142 0.208802 0.11846 -0.0357411 -0.239751 0.155002 -0.0603538 -0.00699542 0.0611485 0.0310465 0.0963783 0.34388 0.242796 -0.0694932 -0.445758 -0.0836588 0.100342 -0.351026 -0.00892839 -0.0702292 0.178317 -0.103853 0.0309999 -0.0163312 -0.132536 0.186799 0.135492 0.236544 0.159627 -0.166852 -0.057399 -0.0680516 -0.0921638 -0.512013 0.503654 -0.15768 0.021081 0.52212 -0.293457 -0.0630317 -0.104072 0.304796 -0.0973565 0.0981981 0.297871 -0.104176 0.189954 0.143783 0.110331 -0.0067406 -0.0673293 -0.620978 0.211576 -0.39311 0.252877 0.239031 0.751516 0.210407 -0.394012 -0.524512 0.180668 0.173448 -0.196419 -0.129573 -0.293604 0.125786 -0.0205144 -0.182499 -0.204418 0.140451 -0.70524 -0.205913 -0.00351093 0.230731 -0.287602 -0.333455 0.331516 0.128255 -0.013542 0.211622 0.142264 0.353754 -0.241535 -0.0330541 -0.391502 -0.327503 -0.00173557 -0.192778 -0.230791 0.19163 -0.168529 0.224094 -0.189934 -0.359614 -0.416066 0.843834 0.423358 -0.301501 0.311571 0.0245497 0.0912813 -0.657821 0.343221 0.35306 -0.447747 -0.258545 -0.0512035 -0.0524176 -0.289465 0.363118 0.786801 -0.61149 0.327046 0.224714 -0.102647
453 -0.186322 0.0363879 0.0711233 0.303952 -0.0637792 -0.0127363 0.16592 -0.213641 -0.0210746 -0.0513427 -0.142325 -0.0728302 0.00301482 -0.0302239 0.171767 0.000136887 -0.476143 -0.28623 0.0862938 -0.014602 -0.0696066 -0.0800349 0.170172 -0.162335 0.453154 0.407605 -0.0229207 -0.268543 -0.129343 0.0583841 -0.367924 0.185095 0.0412835 0.120426 -0.128125 -0.00821381 -0.241612 -0.04337 0.0426189 0.204366 0.221226 -0.0243424 -0.122199 -0.140694 -0.0329274 -0.0515861 -0.274897 0.413411 -0.0260442 0.123044 0.31143 -0.0509253 0.0968931 -0.168205 0.239353 0.0566315 0.200246 0.360062 -0.301439 0.309101 0.0985119 0.193207 -0.20064 -0.165565 -0.496398 0.109123 -0.480735 0.241197 0.079571 0.763679 0.175059 -0.378081 -0.731804 0.0998391 0.189082 -0.20459 -0.0363896 -0.274228 0.104248 0.018307 -0.120908 0.00582301 0.124254 -0.501565 -0.277649 -0.0234003 0.378365 -0.487908 -0.291993 0.393289 0.0121791 0.185483 0.161669 0.303912 0.267683 -0.276448 -0.330675 -0.446608 -0.242092 -0.137893 -0.0647809 0.0247004 0.209918 -0.246577 0.269213 -0.272014 -0.40594 -0.520589 0.790721 0.524929 -0.223404 0.533344 0.0455828 0.197463 -0.544759 0.457239 0.328924 -0.513548 -0.24243 0.0579817 -0.0140608 -0.532514 0.538976 0.735469 -0.598842 0.433106 0.36778 -0.254795
454 -0.131299 0.210746 -0.100085 0.156701 0.00173024 -0.0235931 0.101298 -0.0626471 -0.044801 -0.0423937 -0.217038 -0.00784069 -0.10029 -0.165793 0.109941 -6.84574e-06 -0.0432453 -0.0769562 -0.00295332 0.00150313 0.0394586 -0.177723 0.102379 -0.168476 0.232312 0.122256 -0.124849 -0.126358 -0.0183266 0.0287098 -0.34445 0.184476 -0.0186536 0.207462 -0.109636 0.0892312 -0.264084 -0.41197 0.0683852 0.177495 0.271207 -0.190263 0.0166993 -0.0415612 -0.14982 -0.209076 -0.381433 0.271551 0.30781 -0.160049 0.465138 0.0515436 0.0324625 -0.183051 0.120988 0.137673 -0.0329126 0.421182 -0.353082 0.0921021 0.215883 0.0892535 -0.272537 -0.123874 -0.389743 0.247572 -0.466264 0.165977 -0.0502995 0.644224 -0.0711246 -0.25643 -0.523671 -0.00647709 0.297443 -0.110194 0.0269732 -0.147457 0.303331 -0.00934274 -0.0785323 0.143306 0.0414716 -0.745183 -0.579226 -0.0583766 0.334952 -0.423131 -0.209927 0.493372 0.0379263 0.17966 0.257054 0.453614 0.489221 -0.1471 -0.313196 -0.342359 -0.375145 -0.0451581 0.0357997 -0.235004 0.291561 -0.149096 0.225941 -0.270567 -0.36776 -0.677508 0.686299 0.290808 -0.244038 0.321678 0.0233818 0.29144 -0.476665 0.402501 0.197379 -0.385038 -0.0212773 -0.0466224 -0.0639876 -0.432657 0.585316 0.537702 -0.397358 0.164144 0.357632 -0.356858
885 -0.186158 0.150779 -0.0849394 0.147265 -0.175993 0.000585976 0.155985 -0.157329 -0.106049 -0.0681394 -0.302418 -0.0819306 -0.0812112 -0.0539753 0.111525 0.130399 -0.118343 -0.295408 0.0557899 0.0111199 0.0725765 -0.0149727 0.0621468 -0.150049 0.241054 0.350113 -0.0146115 -0.00426479 -0.123752 -0.045043 -0.291046 0.218626 0.0433873 0.0855653 -0.157077 0.12819 -0.211491 -0.303843 0.017001 0.169462 0.198916 -0.18005 0.0379205 -0.163728 -0.00274249 -0.101831 -0.392073 0.256528 -0.0392314 0.144329 0.409103 0.0245337 0.137 -0.193794 0.191054 0.083774 0.0916189 0.427874 -0.154719 0.141347 0.166006 0.0235643 -0.247378 -0.0800013 -0.420642 0.214928 -0.384406 0.328367 0.0241033 0.875843 0.126516 -0.409415 -0.885044 0.11406 0.127361 -0.305506 0.010067 -0.307162 0.348137 0.00938825 -0.118866 0.0688601 -0.0134271 -0.591828 -0.403832 -0.0560237 0.337487 -0.403438 -0.15472 0.52111 -0.0443203 0.158835 0.177088 0.443572 0.43312 -0.28201 -0.379916 -0.635079 -0.34505 -0.0562478 0.00732598 -0.086441 0.151357 -0.18089 0.343084 -0.315934 -0.374295 -0.660034 0.750839 0.335025 -0.104375 0.316617 0.0751512 0.349616 -0.450217 0.40227 0.28059 -0.417679 -0.15625 -0.0347727 -0.109307 -0.460525 0.610232 0.649968 -0.631758 0.418791 0.436176 -0.383602
22 -0.267157 -0.0282326 -0.10809 0.128998 -0.0833024 0.0431386 0.0754417 0.0673382 -0.144913 -0.0751815 -0.303621 -0.153874 -0.165143 -0.0433398 0.156391 0.0798817 -0.168143 -0.272717 0.0675521 0.0996553 0.010826 -0.0836682 0.0652367 -0.307375 0.254932 0.474914 -0.116369 -0.0210442 -0.0601162 -0.0434608 -0.345834 0.161588 0.00164269 0.0858116 -0.184332 0.125755 -0.146975 -0.193798 -0.156283 0.038297 0.120986 -0.0425789 0.042487 -0.153895 0.0817663 -0.0961724 -0.528285 0.240527 0.0155319 0.0984348 0.551701 -0.117095 0.0823868 -0.169236 0.406878 -0.0676592 0.35756 0.458323 -0.17745 0.119258 0.317141 -0.0289844 -0.202167 -0.0701637 -0.451484 0.298079 -0.280407 0.36603 -0.0110281 0.749377 0.0772142 -0.409369 -0.740136 0.13353 0.0253194 -0.206535 -0.0303892 -0.24266 0.20421 -0.160526 -0.123188 -0.0311551 -0.0521859 -0.433347 -0.291782 -0.176489 0.239619 -0.321383 -0.19796 0.541788 0.0258961 0.0985798 0.089599 0.357325 0.465005 -0.321132 -0.206165 -0.663627 -0.339073 -0.0109457 0.111812 -0.0677977 0.147373 -0.312537 0.327217 -0.227174 -0.500509 -0.590274 0.762844 0.504943 -0.313787 0.30394 0.0371772 0.343549 -0.501168 0.306696 0.357694 -0.45156 -0.186214 -0.0801169 -0.175289 -0.475795 0.481982 0.58604 -0.603793 0.446257 0.379097 -0.262621
478 -0.0782266 0.213094 0.0360373 0.365013 -0.211234 -0.0597026 0.302711 -0.284357 -0.0494431 -0.135133 -0.0858527 -0.00476415 -0.0833509 -0.15215 0.282816 0.025332 -0.385302 -0.349159 0.0514365 0.103604 -0.147686 -0.14167 0.225897 -0.150963 0.278017 0.468676 -0.0312979 -0.331222 -0.256646 0.0531605 -0.470841 0.27977 0.00223566 0.140983 -0.232628 -0.114342 -0.089076 0.0670948 0.0465361 0.234682 0.18358 -0.067331 -0.0290774 -0.11764 0.0662855 -0.052976 -0.24506 0.310522 0.0518504 0.234282 0.302913 -0.0907286 0.211398 -0.166354 0.151612 0.0684776 0.261873 0.275045 -0.455305 0.346501 0.153113 0.271991 -0.229221 -0.145743 -0.484604 0.0791526 -0.497627 0.234774 0.0636538 0.783885 0.206332 -0.351403 -0.951158 0.115431 0.182121 -0.325477 -0.00839698 -0.394053 0.142574 0.0994432 -0.191009 0.0436154 0.0979594 -0.529377 -0.453927 -0.160186 0.544205 -0.70119 -0.345554 0.329917 -0.0193944 0.135474 0.229523 0.330932 0.419462 -0.286518 -0.367739 -0.56046 -0.214661 -0.116934 -0.176132 0.0505918 0.193794 -0.140654 0.300832 -0.31929 -0.412399 -0.577866 0.665376 0.54337 -0.184887 0.643761 0.129793 0.290596 -0.553213 0.525372 0.374734 -0.447162 -0.230852 0.106526 0.0635345 -0.521392 0.458134 0.740834 -0.668136 0.450772 0.477184 -0.305063
452 -0.0964515 0.0265937 0.0726858 0.231936 -0.0298518 0.0482709 0.251507 -0.18758 -0.033251 -0.103062 -0.248041 -0.0118748 -0.0231084 -0.0810642 0.244939 0.00757617 -0.462642 -0.477851 -0.0476319 -0.0371558 -0.161054 -0.0938634 0.140385 -0.0922259 0.500244 0.452603 -0.0839694 -0.217394 -0.250441 -0.0636061 -0.209332 0.254512 -0.0862973 -0.0279264 -0.128882 0.0756973 -0.0932336 -0.0452109 0.0286879 0.197738 0.209658 -0.0220275 -0.0100617 -0.121167 -0.0567689 0.0218204 -0.344986 0.382511 -0.163458 0.249522 0.0992123 -0.294855 0.180064 -0.190455 0.264047 0.0877289 0.0118972 0.361412 -0.37739 0.2075 0.156614 0.138126 -0.125473 -0.221003 -0.515271 0.192803 -0.409198 0.239025 0.0846896 0.916564 0.189246 -0.476881 -0.77243 -0.0464068 0.319558 -0.24917 -0.0386071 -0.387218 0.186923 0.041617 -0.0615366 -0.0220743 0.121355 -0.518693 -0.324629 -0.164983 0.362919 -0.514316 -0.32084 0.362368 -0.0687677 -0.00631427 0.240755 0.304992 0.333351 -0.298605 -0.242445 -0.51889 -0.16158 -0.271613 0.0256616 -0.0929506 0.315218 -0.250486 0.238656 -0.287365 -0.524829 -0.608459 0.605534 0.34334 -0.130317 0.475518 0.215545 0.256043 -0.546405 0.440608 0.311778 -0.42826 -0.169372 0.126547 -0.00953847 -0.676958 0.420872 0.808315 -0.585969 0.517173 0.307043 -0.355777
479 -0.0415241 0.214793 0.00800527 0.388265 -0.204298 0.0198447 0.270195 -0.235332 -0.0498122 -0.181073 -0.190949 0.0379857 -0.0474181 -0.177572 0.23344 0.0141087 -0.365657 -0.29988 0.046821 0.0772376 -0.150553 -0.0935551 0.265674 -0.116698 0.250393 0.384762 -0.112181 -0.330973 -0.228201 0.0206879 -0.532603 0.246693 0.00727771 0.0878938 -0.135918 -0.0620509 -0.0472409 0.118854 0.150833 0.12901 0.200259 0.0211125 -0.0138914 -0.074875 0.11526 -0.101027 -0.371089 0.325397 0.0414563 0.125685 0.247125 -0.151341 0.0751533 -0.0933898 0.187518 0.0073605 0.315816 0.23331 -0.280829 0.286298 0.13614 0.274323 -0.183509 -0.0606639 -0.426728 0.0747807 -0.492162 0.248841 0.0942999 0.794741 0.251977 -0.330372 -0.883817 0.172782 0.117272 -0.289711 -0.0390711 -0.4509 0.154884 0.0126451 -0.176679 -0.064055 0.164911 -0.57179 -0.357391 -0.160642 0.506994 -0.68184 -0.325648 0.317165 0.119235 0.0851518 0.216719 0.268719 0.345867 -0.41665 -0.285379 -0.62057 -0.131793 -0.160052 -0.190317 0.0461569 0.240611 -0.0787513 0.235981 -0.231085 -0.296367 -0.478145 0.588034 0.507767 -0.203506 0.601265 0.120624 0.190539 -0.473035 0.422628 0.35925 -0.427372 -0.281352 0.156316 0.0523622 -0.493842 0.443351 0.706588 -0.696024 0.510952 0.371903 -0.267677
620 -0.00140982 0.17812 0.0316541 0.344751 -0.0827425 0.00911544 0.1922 -0.15086 -0.143187 -0.178944 -0.0701994 0.0251757 -0.111619 -0.236495 0.197934 -0.00121355 -0.398529 -0.407924 0.180203 0.0555454 -0.18041 -0.0785422 0.0290604 -0.0661579 0.16521 0.589151 -0.0417866 -0.276119 -0.290047 0.0323932 -0.522122 0.180998 -0.153075 0.0402619 -0.135586 0.00838087 -0.0656256 0.225216 0.181873 0.16236 0.193986 -0.0130441 0.104056 -0.0176092 0.0866366 -0.127811 -0.315159 0.189644 0.0974563 0.00528577 0.281901 -0.288077 0.143199 -0.120224 0.243719 -0.119226 0.346143 0.161656 -0.248062 0.305933 0.164298 0.287308 -0.152275 0.0220852 -0.382695 -0.0317306 -0.404389 0.223746 0.190619 0.719636 0.201227 -0.220859 -0.909504 0.16819 0.179512 -0.245355 -0.1168 -0.515991 0.11968 -0.106486 -0.276493 -0.0978894 0.192396 -0.669449 -0.335271 -0.177517 0.470338 -0.712797 -0.241346 0.286502 0.128178 0.040528 0.268788 0.233651 0.564591 -0.462513 -0.304128 -0.766749 -0.277478 -0.0339941 -0.295736 0.0647454 0.259982 -0.0607808 0.26606 -0.299679 -0.50375 -0.333957 0.603237 0.626795 -0.277012 0.692655 0.0468677 0.224152 -0.399887 0.413803 0.468699 -0.359877 -0.360851 0.114991 0.02309 -0.537524 0.461664 0.751453 -0.758922 0.525764 0.424795 -0.249194
881 -0.217801 0.238291 -0.0558302 0.255806 -0.0122999 -0.0435006 0.0617154 -0.132288 -0.0477913 0.111128 -0.263402 -0.0113116 -0.253604 -0.11013 -0.0252805 0.0946833 0.190156 -0.187569 -0.0272452 0.0982904 -0.0301023 -0.395662 0.093433 -0.164606 0.28666 0.0515434 -0.10586 0.0531759 -0.0239899 0.0251865 -0.214433 0.227182 -0.0801784 0.225403 -0.303519 -0.13878 -0.0334129 -0.407365 0.131799 0.342075 0.114616 -0.0270105 -0.0219732 -0.0784266 0.0182264 -0.142286 -0.431698 0.22569 0.215954 -0.0525131 0.314289 -0.107007 0.0604496 -0.239154 0.163166 0.00874545 -0.00477809 0.260231 -0.356589 0.101151 0.345751 0.105364 -0.293454 -0.0164434 -0.39582 0.323789 -0.576071 0.116109 -0.120506 0.882177 -0.140982 -0.330859 -0.72535 0.0028519 0.396161 -0.153165 0.0286415 -0.295665 0.373584 -0.101184 -0.206173 0.0553797 -0.0526561 -0.818036 -0.474 -0.135555 0.43997 -0.394925 -0.310112 0.446486 0.0364216 0.134889 0.239328 0.312374 0.648565 -0.159267 -0.217776 -0.448294 -0.266923 -0.0375557 0.0732453 -0.28956 0.296841 -0.116487 0.218666 -0.289719 -0.256689 -0.583342 0.533097 0.345793 -0.400334 0.447529 0.0653701 0.44998 -0.434994 0.350472 0.229326 -0.296272 -0.0829243 0.00464857 0.0501242 -0.417994 0.437039 0.408204 -0.453874 0.241246 0.308383 -0.243101
39 -0.101885 0.231532 0.118743 0.134407 -0.0520354 -0.197731 -0.00731403 -0.108286 -0.191938 0.236916 -0.17309 -0.0131057 -0.0424252 -0.125582 -0.14061 -0.052277 -0.0180273 -0.12827 -0.0937039 0.151446 -0.113151 -0.26142 0.0704239 -0.0525706 0.00333911 -0.0892564 -0.193592 0.158376 0.0687518 0.0980612 -0.140614 -0.0596356 0.0276156 0.0289575 -0.203735 -0.201194 0.00305984 -0.211655 0.0506724 0.302533 0.0648171 -0.0799772 0.0176306 0.0510856 0.0114197 -0.143985 -0.610333 0.202211 0.432454 -0.088267 0.594173 -0.26199 -0.0707722 -0.272974 0.288021 -0.103234 0.137257 0.274219 -0.585187 0.101812 0.38326 0.141691 -0.163704 -0.0375946 -0.479889 0.294631 -0.500573 0.0301455 -0.0596218 0.518368 -0.162752 -0.184036 -0.687235 -0.00769401 0.33121 -0.0726936 -0.0710986 -0.277682 0.193118 -0.15934 -0.207018 0.0484151 0.0983238 -0.78088 -0.510879 -0.265959 0.421072 -0.484865 -0.312529 0.3463 0.15822 -0.0549548 0.244327 0.206616 0.552859 -0.217466 -0.23724 -0.630879 -0.428013 -0.0185845 0.0778256 -0.348801 0.368051 -0.0509998 0.258602 -0.312953 -0.474342 -0.644964 0.508376 0.460618 -0.545925 0.556726 0.043994 0.536796 -0.446504 0.421998 0.384628 -0.325326 -0.167649 0.0763088 0.0605963 -0.249704 0.282461 0.336412 -0.463595 0.275438 0.182954 -0.257239
40 -0.134837 0.0809384 0.0568739 0.142031 0.00397858 -0.085782 0.0410606 -0.0958147 -0.0952187 0.144972 -0.188532 -0.0362738 -0.202148 -0.0407415 -0.104852 0.0714021 0.204581 -0.0787047 -0.114711 0.0971732 -0.0445611 -0.449029 0.0380075 -0.107079 0.0767213 -0.183438 -0.168643 0.199681 0.0243943 0.00174135 -0.195918 0.0507476 0.0286513 0.13185 -0.340696 -0.271933 -0.00562758 -0.422174 -0.0346148 0.305492 0.0515945 -0.1209 -0.142402 -0.0443596 0.0321903 -0.0548989 -0.529542 0.194248 0.395308 -0.0306679 0.478297 -0.224601 -0.00587882 -0.294631 0.197318 0.0188016 0.0451691 0.268854 -0.492723 0.117117 0.435841 0.0904734 -0.271461 -0.0396748 -0.478418 0.399422 -0.66568 0.065538 -0.15841 0.85645 -0.108276 -0.351428 -0.799602 -0.0397741 0.442879 -0.127395 -0.07816 -0.33588 0.250634 -0.140317 -0.15942 0.0843005 -0.0215447 -0.804574 -0.54798 -0.231969 0.479557 -0.49251 -0.347578 0.39161 0.0562526 0.0761421 0.270295 0.286339 0.616701 -0.157942 -0.210813 -0.484273 -0.343542 -0.0160657 0.104888 -0.301877 0.299191 -0.1274 0.224892 -0.252921 -0.352743 -0.616869 0.472314 0.371709 -0.458932 0.500836 0.107579 0.487982 -0.504946 0.369267 0.244724 -0.334168 -0.036298 -0.0877987 0.0104172 -0.393266 0.399281 0.361811 -0.475024 0.246296 0.276325 -0.233657
880 -0.217722 0.117451 -0.0771991 0.22227 0.0545348 0.0187005 0.0373492 -0.202155 -0.0521082 0.0903714 -0.244659 -0.012312 -0.321353 -0.0480973 -0.0626741 -0.0441098 0.117861 -0.255963 -0.038414 -0.00751296 0.0177285 -0.290954 0.0212665 -0.0782751 0.491007 0.136928 -0.0859128 -0.0547857 -0.0145562 0.0657664 -0.250391 0.212817 -0.18832 0.167934 -0.227123 -0.0365419 -0.10812 -0.432894 0.158896 0.304617 0.184943 0.0650982 0.0020654 -0.0673549 -0.00807009 -0.228381 -0.652088 0.288033 0.228158 -0.0985328 0.545869 -0.245091 0.0151885 -0.325319 0.363886 0.0734398 0.0275314 0.38777 -0.374373 0.164662 0.313048 0.113052 -0.286656 -0.0256174 -0.490566 0.242648 -0.586739 0.227828 -0.0173823 0.917762 -0.0579473 -0.260007 -0.627137 -0.0665095 0.427678 -0.0864655 -0.0367461 -0.336285 0.312238 -0.175691 -0.291302 -0.124767 -0.071123 -0.886823 -0.299146 -0.176644 0.415739 -0.421539 -0.371016 0.465743 0.0335957 0.0639886 0.301906 0.200483 0.681946 -0.358235 -0.23004 -0.520464 -0.242212 -0.224177 0.114858 -0.190082 0.441275 -0.221847 0.174269 -0.352747 -0.355188 -0.535432 0.521475 0.399206 -0.419715 0.596076 0.0211969 0.32873 -0.425865 0.29698 0.22551 -0.118518 -0.130699 0.21283 0.0564304 -0.458111 0.361699 0.509854 -0.322172 0.263173 0.23439 -0.191068
875 -0.20562 0.169224 0.0612488 0.179438 0.0449563 -0.206163 -0.0090969 -0.104553 -0.237774 -0.00998051 -0.246861 0.0489998 0.0737964 -0.0133314 -0.0623578 0.0777242 0.088517 -0.0619488 -0.0278778 0.20962 -0.0238298 -0.432741 0.114724 -0.114619 -0.0175864 -0.0053571 -0.164892 0.185796 -0.0122381 -0.00967771 -0.201116 -0.0488574 0.116779 0.0085579 -0.144769 0.0191678 -0.188193 -0.243896 0.0988279 0.207552 0.144425 -0.208872 0.0627997 0.0760758 0.0244192 -0.155774 -0.339997 0.234866 0.310417 0.0345929 0.428952 -0.141489 0.11068 -0.260179 0.240392 -0.0843408 0.0960606 0.223752 -0.47628 0.0912903 0.436755 0.161004 -0.162181 -0.0745809 -0.447993 0.235474 -0.617453 0.120681 -0.124696 0.715503 -0.153929 -0.322392 -0.859741 0.0220377 0.434864 -0.0857568 -0.0179194 -0.353109 0.191481 -0.0750865 -0.279874 0.142634 0.114189 -0.830931 -0.614766 -0.124639 0.486854 -0.618867 -0.287766 0.412567 0.128277 0.135198 0.28594 0.282116 0.564861 -0.143996 -0.287583 -0.562009 -0.396232 -0.0357168 -0.0370008 -0.322734 0.281444 0.000386405 0.211268 -0.270244 -0.500258 -0.622318 0.465597 0.304264 -0.295866 0.285049 -0.00392937 0.384649 -0.494617 0.371396 0.313686 -0.441445 -0.0170491 -0.066856 -0.0119912 -0.354763 0.454412 0.375104 -0.527794 0.200935 0.306433 -0.358286
628 -0.0148696 -0.118039 -0.00832583 0.228193 -0.0567081 -0.0267165 0.0186327 -0.0222068 -0.132703 -0.0200986 -0.112797 -0.25318 -0.157086 -0.246817 -0.109519 0.0902613 0.142414 0.0641901 -0.155101 0.184998 -0.212587 -0.0764664 0.0163555 -0.144919 -0.139062 0.0206504 -0.175891 0.0303139 0.0473058 -0.156195 -0.365258 0.0709044 0.104618 -0.0213853 -0.0762777 -0.0908401 0.102072 -0.0391303 -0.103463 0.153535 0.133986 0.0626108 -0.0198695 0.0146193 0.268943 -0.00577591 -0.745995 0.15201 0.46183 0.0633637 0.590202 -0.257897 -0.0424406 -0.159223 0.421722 -0.174384 0.36911 0.208589 -0.203499 0.170575 0.378176 0.123807 -0.0947489 0.143289 -0.378145 0.226577 -0.428863 0.135056 -0.0379615 0.676668 0.0157029 -0.328913 -0.777694 0.0692681 0.0571947 -0.122938 -0.00138852 -0.339864 0.175821 -0.22023 -0.10179 -0.0430973 0.113918 -0.410308 -0.33317 -0.373993 0.575514 -0.51445 -0.493797 0.460927 -0.0644712 -0.0346029 0.106706 0.348225 0.429236 -0.347321 -0.215569 -0.660442 -0.244892 0.0393986 0.0192698 -0.3066 0.271343 -0.064836 0.403432 -0.127194 -0.41539 -0.450181 0.679016 0.569635 -0.453714 0.449089 0.061243 0.546002 -0.358442 0.531638 0.436605 -0.370305 -0.291475 0.0232485 0.00448503 -0.214 0.499001 0.346375 -0.668704 0.62312 0.325225 -0.35367
37 0.104412 0.0250546 0.143908 0.202659 0.0340961 0.0197588 0.00564851 -0.0909627 -0.124938 0.0710096 0.0479232 -0.148656 -0.110784 -0.222245 -0.174158 0.0543383 0.0298619 -0.0620997 -0.149892 0.099006 -0.27054 -0.0810723 -0.110174 -0.0692036 -0.184241 0.0649379 -0.212415 0.133124 0.199455 -0.139964 -0.239881 -0.116629 0.244641 -0.0576488 -0.171637 -0.198511 0.165536 -0.100776 -0.149645 0.0850456 0.0889374 -0.0575803 -0.029551 0.125538 0.203747 0.0494825 -0.843811 0.0569701 0.646459 -0.0233171 0.604599 -0.46476 -0.0313458 -0.20216 0.32888 -0.157558 0.265727 0.125903 -0.204745 0.0706194 0.516145 0.185147 -0.144416 0.0963672 -0.374853 0.264284 -0.594894 0.0905979 -0.0536526 0.703403 -0.0584599 -0.399848 -0.759159 0.00980641 0.22709 -0.0401594 0.00445266 -0.476477 0.0979383 -0.162655 -0.174386 -0.0165775 0.0337903 -0.535463 -0.329063 -0.398164 0.507664 -0.510552 -0.464985 0.32708 -0.0488671 -0.130098 0.110278 0.277074 0.51983 -0.34375 -0.189961 -0.658681 -0.162127 -0.000128209 -0.034127 -0.481873 0.430671 0.0523017 0.403609 -0.176818 -0.405142 -0.462889 0.422206 0.364761 -0.482983 0.438916 0.136276 0.516599 -0.300431 0.359312 0.309418 -0.274821 -0.147655 0.0349857 0.0505501 -0.302587 0.416946 0.179196 -0.695829 0.534653 0.219826 -0.276048
36 0.00473242 -0.196525 0.205313 0.167681 0.12352 0.00312816 -0.137559 0.0234702 -0.226575 0.218548 -0.106867 -0.0926017 -0.0584197 -0.217588 -0.303261 0.0191335 0.00766065 -0.0260958 -0.250383 0.0332105 -0.206251 -0.17974 -0.191635 -0.0835202 -0.116528 -0.0687127 -0.205229 0.161651 0.190335 -0.081688 -0.306506 -0.0561175 0.185418 -0.0200424 -0.126016 -0.314166 0.231703 -0.165679 -0.27709 0.0473969 -0.118987 -0.0889149 -0.200984 -0.0670507 0.182508 0.119565 -0.795183 0.0617009 0.590251 -0.103578 0.608192 -0.552145 0.00473476 -0.196438 0.469204 -0.285875 0.16661 0.196059 -0.203486 0.191307 0.60835 0.176455 -0.154468 0.0167571 -0.287084 0.368018 -0.718022 0.0250686 -0.0183157 0.714517 0.0802856 -0.297278 -0.665358 -0.0661189 0.234955 -0.0558293 -0.0311299 -0.534302 -0.0167198 -0.157898 -0.103599 0.0210527 0.0167715 -0.573817 -0.171084 -0.472203 0.602148 -0.610439 -0.487918 0.261342 0.0383244 -0.0818982 0.163246 0.416364 0.459317 -0.344822 -0.22577 -0.534444 -0.0717163 -0.11113 0.0361346 -0.497634 0.455461 0.0519931 0.431981 -0.125126 -0.494786 -0.517695 0.313682 0.309235 -0.550653 0.467509 0.220882 0.612245 -0.279489 0.452434 0.324225 -0.354875 -0.0330335 0.138772 0.0408794 -0.570983 0.535639 0.163979 -0.740357 0.55544 0.182099 -0.310126
631 -0.002255 -0.244021 0.170872 0.110234 0.132716 0.0202495 -0.15568 0.0609105 -0.200462 0.197096 -0.0794679 -0.0556177 -0.0723202 -0.191828 -0.315079 -0.0251312 0.0769088 0.0491925 -0.252608 0.0424041 -0.212534 -0.156685 -0.177811 -0.0948881 -0.110302 -0.0758184 -0.157754 0.191606 0.212204 -0.0699336 -0.270701 -0.040059 0.148956 -0.0526474 -0.159831 -0.310558 0.26897 -0.162604 -0.260976 0.0310588 -0.17137 -0.044641 -0.171551 -0.0687988 0.172577 0.103951 -0.762206 0.0357128 0.587833 -0.110831 0.550057 -0.508362 -0.0246722 -0.217652 0.433843 -0.309328 0.159101 0.163177 -0.147808 0.143603 0.595325 0.127846 -0.126948 0.0268664 -0.270054 0.359978 -0.657864 0.0349927 -0.0109801 0.649106 0.0728922 -0.28908 -0.624669 -0.0483777 0.221549 -0.0189568 -0.0514337 -0.53367 0.00275803 -0.160213 -0.0827862 0.00928185 -0.0208724 -0.487282 -0.0730521 -0.448174 0.506467 -0.486531 -0.41234 0.237077 0.0571957 -0.0978834 0.10412 0.338043 0.440882 -0.385056 -0.211987 -0.535736 -0.0478888 -0.133471 0.0381419 -0.478302 0.423697 0.0452693 0.395018 -0.0755635 -0.447675 -0.434308 0.301593 0.298262 -0.506774 0.387884 0.18671 0.531225 -0.245129 0.394839 0.262931 -0.317034 -0.0531695 0.131355 0.0639862 -0.530159 0.502073 0.100327 -0.725059 0.541872 0.158168 -0.273613
35 0.0927578 -0.173823 0.253768 0.0628858 0.199819 0.0127998 -0.148118 0.0902861 -0.26223 0.189262 -0.0745286 0.00598089 0.038418 -0.186993 -0.296995 -0.0661265 -0.0430849 -0.0909989 -0.189949 -0.0099831 -0.209931 -0.0965902 -0.255444 -0.0515631 -0.0749766 -0.0031321 -0.169328 0.136586 0.189208 -0.0536635 -0.352971 -0.105551 0.183858 -0.0762338 -0.173601 -0.337784 0.225545 -0.226927 -0.254599 -0.00997888 -0.190837 -0.125931 -0.272787 -0.122889 0.0320079 0.141136 -0.774834 0.0778426 0.601928 -0.201323 0.664189 -0.574333 -0.0933595 -0.2583 0.398243 -0.285463 0.140327 0.238822 -0.153853 0.139335 0.64501 0.164805 -0.141404 -0.0726296 -0.365621 0.412045 -0.762011 0.0621556 0.0593527 0.688394 0.212465 -0.347959 -0.733038 -0.0217592 0.258359 -0.038141 -0.106714 -0.611121 -0.0831862 -0.176488 -0.0593263 0.0328078 0.0419604 -0.566766 -0.119468 -0.431235 0.462475 -0.450352 -0.405613 0.182967 0.169991 -0.12197 0.133851 0.323523 0.460328 -0.36412 -0.176155 -0.477055 -0.0658869 -0.1511 -0.0750289 -0.550942 0.447356 0.0526809 0.442996 -0.0309343 -0.456216 -0.381502 0.366294 0.279112 -0.533119 0.443917 0.285927 0.493389 -0.291286 0.397207 0.239407 -0.401269 -0.0233716 0.0726768 0.00441421 -0.663043 0.531495 0.229373 -0.865233 0.513546 0.198616 -0.308314
38 -0.120995 -0.0367791 0.162298 0.145976 0.0913282 -0.146722 -0.0391046 -0.0841076 -0.230185 0.159426 -0.128594 -0.126701 -0.148109 -0.184803 -0.236854 0.110355 0.162222 -0.0910478 -0.140795 0.142472 -0.195611 -0.404678 -0.0727538 -0.0789144 -0.086889 -0.153611 -0.231603 0.233535 0.0911109 -0.0541444 -0.183924 -0.117981 0.146308 0.0714541 -0.190282 -0.194661 0.0540232 -0.247706 -0.0795505 0.20498 0.0929955 -0.104653 -0.0499644 0.0845536 0.0986318 0.00371613 -0.587491 0.0827982 0.536413 -0.0809437 0.522159 -0.378096 -0.0528541 -0.260648 0.292209 -0.112652 0.14265 0.162862 -0.425538 0.13503 0.568717 0.129915 -0.172795 0.0146847 -0.41248 0.313504 -0.670735 -0.00169505 -0.0937557 0.70298 -0.0665014 -0.286754 -0.693399 -0.0683255 0.350311 -0.0753987 -0.068107 -0.440029 0.102426 -0.168716 -0.188269 0.0524594 3.73474e-05 -0.679957 -0.451857 -0.389829 0.585613 -0.637847 -0.415162 0.340588 0.047779 -0.0343741 0.23994 0.324771 0.533393 -0.261728 -0.218166 -0.529645 -0.247046 -0.0468152 0.0230882 -0.420573 0.359087 -0.00210089 0.276083 -0.233003 -0.459145 -0.525517 0.362674 0.325783 -0.512629 0.48135 0.121404 0.567381 -0.385126 0.440829 0.34288 -0.317077 -0.0661934 0.00585973 0.0540355 -0.449537 0.42117 0.234888 -0.633944 0.414813 0.207291 -0.305265
412 -0.0587415 0.177362 0.10954 0.0129714 0.0644936 -0.264639 0.0970272 0.12001 -0.224623 -0.0208984 -0.169724 -0.166205 -0.0673828 -0.115576 0.0695034 -0.00337668 -0.0589941 -0.3402 0.0120396 0.298585 -0.21704 -0.4156 0.00799574 -0.0555936 0.0342411 -0.102172 -0.219366 0.0277062 -0.0236291 0.03423 -0.26382 -0.181326 -0.00550064 0.0266829 -0.410261 -0.314096 0.106219 -0.253471 0.00213874 0.256287 -0.0114926 -0.052134 -0.218552 -0.0315108 -0.0898982 0.0065401 -0.603512 0.2404 0.329301 -0.0693558 0.591646 -0.245685 -0.196528 -0.333619 0.10698 -0.0959161 0.217322 0.245191 -0.533969 0.0781253 0.410952 0.0723953 -0.112216 -0.124174 -0.674449 0.325926 -0.400101 0.00149484 -0.128531 0.76413 -0.0199792 -0.517368 -0.84988 0.106968 0.36426 -0.147229 -0.193092 -0.306824 0.064941 -0.191487 -0.259945 0.0902136 0.0932327 -0.58183 -0.453413 -0.284922 0.299166 -0.360886 -0.374171 0.288443 0.309483 -0.122542 0.18976 0.098983 0.449982 -0.2546 -0.143744 -0.543562 -0.418416 -0.0226819 -0.0598097 -0.318805 0.258945 -0.150294 0.225711 -0.137859 -0.481357 -0.547214 0.614273 0.550359 -0.533719 0.54214 0.147715 0.247873 -0.532941 0.420894 0.391727 -0.61129 -0.10892 -0.133459 -0.0118845 -0.493293 0.221453 0.496819 -0.53585 0.241233 0.224864 -0.340412
411 0.0235518 0.288387 0.0804849 0.0305324 0.08384 -0.223331 0.210492 0.101173 -0.0730022 -0.206919 -0.0304453 0.0226377 -0.0761676 -0.185876 0.220602 -0.0335036 -0.0805011 -0.316707 -0.0194572 0.157806 -0.034539 -0.16689 0.067955 -0.117057 0.142463 0.0817388 -0.072484 -0.190464 -0.138189 0.0774602 -0.32408 0.100931 -0.00154771 0.0507686 -0.262538 -0.23455 -0.144277 -0.269978 -0.0488535 0.10108 0.0735397 -0.103379 -0.231502 -0.00391064 -0.0996706 0.074443 -0.59576 0.14383 0.42632 -0.158876 0.730413 -0.152591 -0.202914 -0.310419 -0.012159 0.0425785 0.265392 0.495416 -0.144909 0.0199378 0.304078 0.00276514 -0.13806 -0.125924 -0.603358 0.331997 -0.311799 0.056337 -0.0582125 0.565814 0.118335 -0.467604 -0.647142 0.142316 0.125614 -0.110476 -0.0616317 -0.186355 -0.00481747 -0.115814 -0.0302281 0.0734076 0.014077 -0.533416 -0.500212 -0.105146 0.318771 -0.157316 -0.242134 0.304064 0.34097 0.00186975 0.0615916 0.170533 0.532596 -0.190679 -0.147246 -0.448769 -0.275444 -0.0240153 -0.0440686 -0.306105 0.216012 -0.156653 0.213884 0.0834731 -0.177193 -0.328686 0.610636 0.435197 -0.575954 0.414378 0.225217 0.277542 -0.650218 0.327158 0.319647 -0.70885 -0.166105 -0.231091 -0.160367 -0.530019 0.33212 0.554117 -0.624092 0.243578 0.279615 -0.22036
410 -0.122233 0.267136 -0.0100926 -0.0115266 -0.137621 -0.125582 0.126867 0.165359 -0.249293 -0.0429561 -0.266159 -0.153811 -0.0788624 -0.133865 0.142365 -0.0466403 -0.0577859 -0.283035 -0.0431102 0.247679 -0.0231208 -0.0800843 0.0399288 -0.235573 0.00514826 0.105854 -0.0757663 -0.0367661 0.0204571 -0.0134811 -0.440978 0.107659 0.0883562 -0.0126926 -0.34418 -0.155239 0.0392737 -0.248716 -0.21752 0.148307 -0.13627 -0.115404 -0.243281 -0.177325 -0.0224343 -0.0249353 -0.74853 0.26951 0.273613 0.0236809 0.822196 -0.110845 -0.094874 -0.279184 0.270798 -0.133506 0.389895 0.540803 -0.152286 0.053643 0.318309 -0.083266 -0.0810029 -0.12057 -0.58722 0.350196 -0.2554 0.268011 -0.0614236 0.644176 0.120442 -0.55774 -0.862524 0.220023 0.0164534 -0.197456 -0.0230402 -0.14112 0.0832398 -0.115722 -0.0912645 0.0542466 0.0405239 -0.436689 -0.339686 -0.0620834 0.175933 -0.123083 -0.273109 0.394765 0.295249 0.0429664 0.0119613 0.193838 0.50311 -0.266214 -0.185188 -0.642929 -0.408799 0.00201628 -0.00729285 -0.28796 0.220376 -0.224026 0.352971 -0.0311322 -0.47809 -0.569215 0.807146 0.588959 -0.487402 0.278837 0.117175 0.292652 -0.599651 0.318449 0.398739 -0.729341 -0.236462 -0.226713 -0.193984 -0.463074 0.413498 0.598325 -0.638215 0.340116 0.389306 -0.306762
409 -0.20518 -0.0124518 -0.0525218 0.0582636 -0.202784 0.0442141 0.0288311 0.0382608 -0.200138 -0.00359879 -0.347545 -0.136532 -0.0748368 -0.0520698 0.0771383 -0.00632697 -0.0838544 -0.282199 -0.0706459 0.202429 -0.0977751 -0.0700529 0.0546198 -0.245409 0.0888203 0.238738 -0.119492 0.0459156 0.0330441 -0.129456 -0.322633 0.192651 0.194392 -0.031139 -0.2272 -0.00993307 0.0366652 -0.186689 -0.30532 0.109185 0.011916 -0.0937282 -0.116677 -0.126114 0.142179 -0.0128936 -0.861454 0.287989 0.17352 0.188044 0.666714 -0.140327 -0.00236653 -0.21063 0.325772 -0.0768222 0.377955 0.530291 -0.141258 0.0975295 0.339962 -0.0860397 -0.121946 -0.045346 -0.453518 0.323982 -0.181164 0.24982 -0.136491 0.706887 0.125396 -0.457286 -0.742396 0.191938 -0.0784931 -0.208667 0.0645323 -0.204671 0.175705 -0.0964445 -0.0491167 0.00118071 -0.0480846 -0.307375 -0.208569 -0.164616 0.23244 -0.238152 -0.236181 0.447315 0.0847322 0.0639344 0.0383905 0.355864 0.493563 -0.357483 -0.274406 -0.71322 -0.318482 -0.0292078 0.127213 -0.234717 0.223111 -0.212981 0.348958 -0.134228 -0.479374 -0.684725 0.829178 0.653534 -0.436055 0.371003 0.114925 0.413279 -0.47725 0.368334 0.403526 -0.564426 -0.243939 -0.0873103 -0.109023 -0.418379 0.482366 0.532656 -0.59913 0.5563 0.327308 -0.358265
64 -0.0644231 0.433074 0.155601 0.0745557 0.0629781 -0.115717 0.187193 0.149527 -0.279657 -0.0732847 -0.105256 -0.171651 0.013528 -0.220846 0.165489 -0.0432621 -0.237481 -0.463498 0.0500889 0.0955418 -0.150361 -0.00802216 -0.111491 0.0198359 0.0267658 0.110057 -0.103064 -0.0337546 0.110786 0.00637164 -0.200714 -0.109896 0.206536 -0.0280798 -0.21179 -0.177336 0.0770739 -0.204521 -0.0810122 -0.0435348 0.00501936 -0.170358 -0.277065 0.0110408 -0.18705 0.0865173 -0.586831 0.110606 0.348851 -0.175741 0.636577 -0.25353 -0.243787 -0.334238 0.00529024 -0.0662973 0.155957 0.339575 -0.0596376 0.0436243 0.45118 0.0203169 -0.0962935 -0.217078 -0.525163 0.250323 -0.366835 0.109352 -0.00263481 0.560649 0.256798 -0.456521 -0.621598 0.163921 0.19005 -0.0528035 -0.119804 -0.364605 -0.0761216 -0.173796 -0.120584 0.106892 0.0306156 -0.513314 -0.335175 -0.229587 0.191212 -0.189067 -0.330589 0.233524 0.38828 -0.123425 0.161282 0.211391 0.55117 -0.335474 -0.135819 -0.386215 -0.223447 -0.0865197 -0.199737 -0.548223 0.395144 -0.0130363 0.295801 -0.028791 -0.31581 -0.378056 0.637941 0.398652 -0.536395 0.503389 0.284385 0.165963 -0.466522 0.33374 0.263228 -0.701199 -0.0563134 -0.17449 -0.0679734 -0.726354 0.363726 0.474892 -0.794493 0.355891 0.233763 -0.34555
842 0.190483 0.487148 0.207012 0.0679362 0.0698186 -0.105242 0.201032 0.00435728 -0.173269 -0.0905667 0.0414025 -0.213562 0.0452306 -0.172072 0.154141 0.0137689 -0.258958 -0.676403 0.163725 0.0928054 -0.193017 0.0886429 -0.224677 0.0312271 -0.0431976 0.213067 -0.135111 -0.15193 0.133455 -0.0545926 -0.127515 -0.226581 0.144331 -0.0154538 -0.25381 -0.16832 0.0338123 -0.205967 -0.131475 -0.103486 0.0531226 -0.217726 -0.264097 0.128698 -0.185552 -0.00789179 -0.351411 0.186199 0.367458 -0.0439865 0.57374 -0.349655 -0.114927 -0.405215 -0.124282 0.0432183 0.150543 0.27865 -0.181292 0.100279 0.592543 0.0912407 -0.0721464 -0.224019 -0.461145 0.137635 -0.382722 0.0864874 -0.0950893 0.596509 0.236317 -0.391682 -0.6093 0.205765 0.206382 0.0237612 -0.0581783 -0.348168 -0.167136 -0.10147 -0.124839 0.0635563 0.0245127 -0.603841 -0.576649 -0.17428 0.200519 -0.0969927 -0.287337 0.326767 0.246787 -0.12923 0.180593 0.178773 0.642472 -0.217724 -0.135548 -0.307239 -0.176281 -0.145918 -0.264459 -0.637616 0.558887 0.101626 0.254501 -0.0665309 -0.310203 -0.42374 0.611299 0.4117 -0.595081 0.63947 0.31246 0.154226 -0.414504 0.311851 0.218351 -0.763399 0.0408059 -0.337203 -0.0393402 -0.864002 0.399679 0.54067 -0.786685 0.324894 0.126509 -0.449877
1014 0.0368156 0.301206 -0.00382719 0.0228652 -0.0124805 -0.333662 0.0891891 0.0334338 -0.125385 -0.108498 -0.0743546 -0.194284 -0.029214 -0.11428 0.050321 -0.0700478 0.0166558 -0.25267 0.0866441 0.364516 -0.197314 -0.385773 0.102788 -0.048697 0.0270203 -0.150527 -0.204334 -0.0749871 0.0244191 0.103837 -0.140981 -0.281407 -0.0921514 -0.0351433 -0.357279 -0.230358 0.0764801 -0.1648 0.141444 0.293656 0.0680416 0.0652574 -0.0914001 0.0965117 -0.111373 -0.101634 -0.5977 0.286471 0.346451 -0.0271807 0.674803 -0.231946 -0.159419 -0.344425 0.115397 -0.120665 0.276392 0.265992 -0.681045 0.0115264 0.528968 0.0904373 -0.0481938 -0.18705 -0.681657 0.326913 -0.298142 -0.0153651 -0.193181 0.69114 -0.125589 -0.416612 -0.805661 0.0947065 0.421927 -0.0856196 -0.0912531 -0.248276 0.0256381 -0.159209 -0.286478 0.0839564 0.120941 -0.643088 -0.581516 -0.255105 0.307033 -0.210728 -0.322178 0.314537 0.376082 -0.209681 0.139611 -0.0428996 0.522836 -0.276928 -0.102202 -0.565532 -0.358413 -0.201166 -0.0176244 -0.428053 0.460965 -0.112579 0.122 -0.157155 -0.501078 -0.668314 0.611334 0.574752 -0.614227 0.65491 0.13142 0.17112 -0.518324 0.35867 0.420774 -0.725107 -0.0632047 -0.0754867 0.0305056 -0.54895 0.0347819 0.459229 -0.424911 0.158523 0.0350203 -0.376986
1015 0.0870465 0.273492 -0.0552856 0.0637277 0.023875 -0.231928 0.128929 -0.0843725 -0.0729417 -0.194762 0.00251667 -0.223094 -0.102461 -0.093326 0.0649125 -0.104649 0.0530903 -0.258125 0.090531 0.351626 -0.17301 -0.415429 0.0715869 -0.0318353 0.128191 -0.162736 -0.191268 -0.0571021 -0.0118703 0.0977379 -0.0896932 -0.304668 -0.156755 -0.107823 -0.373174 -0.185865 0.10132 -0.146158 0.166699 0.239421 0.0874084 0.0960295 -0.0174753 0.153645 -0.163841 -0.0883623 -0.471432 0.176831 0.285428 0.00698851 0.495367 -0.237823 -0.0451971 -0.312067 0.056757 -0.0389043 0.215488 0.147106 -0.651643 -0.021386 0.484519 0.112922 -0.0698578 -0.219073 -0.633978 0.15238 -0.243249 0.0222884 -0.209521 0.732974 -0.170481 -0.492846 -0.768267 0.0500245 0.506315 -0.0618703 -0.0629444 -0.264344 -0.00450344 -0.188694 -0.394128 0.0684396 0.0568373 -0.620173 -0.55371 -0.245202 0.314473 -0.191957 -0.362966 0.331945 0.311521 -0.250366 0.165201 -0.0640437 0.59662 -0.305689 -0.112569 -0.532682 -0.256301 -0.297482 -0.0180559 -0.454827 0.598625 -0.163583 0.10224 -0.222638 -0.478149 -0.704283 0.621548 0.59622 -0.633424 0.789561 0.170748 0.141225 -0.564182 0.31656 0.418481 -0.631265 -0.0414957 0.0188323 0.0295583 -0.627643 -0.0422381 0.489143 -0.378803 0.146113 0.0630768 -0.396565
414 0.0677781 0.19052 -0.0280841 0.11746 -0.095997 -0.0905435 0.0938298 -0.150297 -0.142488 -0.126577 0.0967699 -0.243373 -0.201505 -0.0849286 -0.0304129 -0.0861977 0.132685 -0.240532 0.0259861 0.309814 -0.160682 -0.258823 -0.00862696 -0.0210207 0.00677409 -0.195189 -0.0773156 0.0920716 0.166131 0.160678 -0.0720389 -0.287363 -0.0538565 -0.147249 -0.284274 -0.123642 0.148892 -0.177799 0.0130002 0.18424 -0.0121027 0.0386496 -0.0137613 0.247832 -0.0496707 -0.111829 -0.406298 0.122879 0.336795 0.0884388 0.453905 -0.217003 0.0073953 -0.248135 0.130068 0.0145414 0.145712 0.0665205 -0.622802 -0.0236978 0.498384 0.113741 -0.0495284 -0.164781 -0.49441 0.0929041 -0.313683 0.00477572 -0.276513 0.583601 -0.322024 -0.40351 -0.634583 -0.0283585 0.498815 0.00602478 -0.000868172 -0.273869 0.0666087 -0.213529 -0.475322 0.103827 -0.0227615 -0.65264 -0.566784 -0.205853 0.441579 -0.317609 -0.415617 0.414834 0.209714 -0.0946308 0.204929 0.0716203 0.678786 -0.231356 -0.150075 -0.494452 -0.275791 -0.223622 0.0316102 -0.583102 0.562533 -0.0767164 0.100657 -0.265793 -0.454256 -0.706354 0.54245 0.547114 -0.619292 0.645074 0.0800645 0.337129 -0.63105 0.37414 0.431786 -0.524033 -0.0207385 0.00953982 0.0139523 -0.499113 0.0790378 0.377883 -0.422049 0.177849 0.126146 -0.367609
220 -0.275963 0.078243 0.0592435 -0.240041 0.156578 -0.145072 -0.222528 -0.0542422 -0.187886 -0.392379 0.0610934 -0.29061 -0.0463637 0.0418804 -0.101059 -0.112601 0.102788 0.224448 -0.100954 -0.122372 -0.0752289 -0.0940839 -0.17709 -0.34732 -0.104555 -0.167682 0.356776 -0.289688 0.0115818 -0.187144 -0.189394 0.0951503 -0.394758 0.158428 -0.243218 0.177667 0.258911 0.0735191 -0.410081 0.148286 -0.37632 0.247266 -0.315003 -0.197627 0.00677962 0.00961084 -0.328552 -0.0888664 0.26425 0.0546524 0.367614 -0.0966128 0.289671 0.0362883 -0.019252 -0.221373 -0.180263 0.106882 -0.474358 0.345756 0.426102 0.0616181 0.00549841 0.126153 -0.267227 0.677544 -0.580663 0.291603 0.158708 0.848497 0.155579 -0.176679 -0.986414 -0.0495869 0.412378 -0.0834224 0.169886 -0.605337 0.073273 -0.109953 -0.0912466 -0.139185 -0.213744 -0.480122 -0.121495 -0.222153 0.427154 -0.185793 0.0299723 0.299736 0.133388 0.415783 0.202973 0.329803 0.489254 -0.312511 -0.506791 -0.0921053 -0.261807 -0.475036 -0.404299 0.0227482 0.584075 -0.494775 -0.0112531 -0.0834911 -0.771298 -0.747118 0.487312 0.601327 -0.366662 0.250914 0.0425681 0.215752 -0.275059 0.322583 0.0736603 -0.613883 0.000782109 -0.0697709 0.114886 -1.04033 0.223405 0.685898 -0.644985 0.16031 0.0977448 -0.310556
221 -0.287427 0.00753193 0.0353119 -0.21667 0.197618 -0.148812 -0.320251 0.0170261 -0.107012 -0.341305 0.114205 -0.231504 -0.033654 0.0844711 -0.121134 -0.0521299 0.0734681 0.242303 -0.0857201 -0.142607 -0.0177948 -0.117318 -0.215876 -0.345722 -0.134177 -0.12864 0.360092 -0.293335 -0.0314246 -0.10166 -0.178725 0.0695448 -0.350685 0.111804 -0.280446 0.110209 0.236378 0.0565876 -0.401074 0.179871 -0.411936 0.19133 -0.257144 -0.247118 -0.0257767 0.042808 -0.372141 -0.0154405 0.315622 0.0450043 0.364269 -0.138442 0.262347 0.0848767 0.0160672 -0.173959 -0.0996485 0.0838048 -0.523431 0.311459 0.578484 0.106195 -0.0360613 0.0360677 -0.239637 0.636318 -0.489478 0.326393 0.162925 0.844357 0.111345 -0.201865 -0.948136 -0.0272715 0.429313 -0.0798109 0.144955 -0.653826 0.0164966 -0.0805739 -0.116463 -0.112556 -0.185444 -0.520179 -0.110403 -0.195954 0.404718 -0.228827 -0.00776571 0.310716 0.0373654 0.389335 0.204575 0.364408 0.52573 -0.397084 -0.512188 -0.144532 -0.224055 -0.466536 -0.351032 0.00282966 0.615456 -0.535708 -0.0945016 -0.0931076 -0.811572 -0.900591 0.516104 0.62485 -0.387434 0.293064 -0.042298 0.185948 -0.393633 0.280493 0.0255392 -0.667554 0.0275221 -0.0944359 0.1261 -1.04548 0.341159 0.702827 -0.640468 0.214925 0.112991 -0.293238
219 -0.247682 0.0993535 0.0605273 -0.169003 0.0968444 -0.134577 -0.0651281 -0.00915485 -0.172637 -0.418652 0.0392518 -0.293805 -0.128461 0.00577269 -0.0826301 -0.147946 0.0648629 0.187685 -0.103512 -0.100793 -0.0635713 -0.137103 -0.135576 -0.361493 -0.0780791 -0.0906787 0.364548 -0.289552 -0.0493766 -0.287911 -0.189156 0.102564 -0.404451 0.166726 -0.230316 0.168132 0.206706 0.127475 -0.385374 0.188506 -0.34886 0.299824 -0.374775 -0.213271 0.0242939 -0.0361341 -0.291566 -0.0754576 0.23674 0.0391849 0.388174 -0.136758 0.37143 -0.00597059 0.0700383 -0.1505 -0.189918 0.181355 -0.481649 0.330556 0.354174 0.0266972 -0.0424122 0.118192 -0.262516 0.699559 -0.69582 0.308235 0.108979 0.946633 0.199024 -0.145641 -0.991757 -0.121973 0.416539 -0.151187 0.184027 -0.597411 0.110264 -0.119921 -0.0924323 -0.129939 -0.219468 -0.54515 -0.170573 -0.283667 0.430448 -0.173772 0.0255399 0.267467 0.222678 0.469468 0.266671 0.359667 0.423964 -0.239728 -0.542175 -0.0523913 -0.251602 -0.550159 -0.381071 0.0439894 0.521181 -0.499296 0.0404485 -0.116113 -0.709818 -0.61388 0.507049 0.685515 -0.371312 0.236844 0.134277 0.216998 -0.2264 0.301907 0.094622 -0.542177 0.0620839 -0.0680065 0.0491608 -0.993238 0.0953396 0.674716 -0.643112 0.0750009 0.038626 -0.258463
218 -0.214221 0.0631174 0.0752762 -0.165738 0.0364078 -0.141696 0.0153723 -0.0210002 -0.171203 -0.466926 -0.0310811 -0.323213 -0.131569 0.0300292 -0.0861405 -0.12922 0.0288455 0.168805 -0.183093 -0.120869 -0.0646913 -0.13005 -0.0617706 -0.373343 0.00818521 -0.0270216 0.353243 -0.273128 -0.0522558 -0.356586 -0.153367 0.160151 -0.385258 0.125887 -0.262145 0.184886 0.186566 0.14162 -0.331609 0.176997 -0.322896 0.350648 -0.40096 -0.189275 0.0308219 -0.0297894 -0.238409 -0.0401207 0.184607 0.0679581 0.416682 -0.197327 0.429322 -0.106882 0.0996177 -0.0962439 -0.284589 0.257688 -0.467328 0.269615 0.275751 0.0121882 -0.032887 0.143165 -0.285881 0.755582 -0.776388 0.279828 0.0787193 0.945581 0.241531 -0.140201 -0.9473 -0.215507 0.396314 -0.184578 0.169346 -0.614206 0.179245 -0.129773 -0.0756911 -0.143078 -0.22082 -0.531472 -0.179471 -0.327289 0.471904 -0.192832 -0.00472168 0.260355 0.294319 0.488234 0.281808 0.348109 0.363339 -0.202251 -0.508558 -0.0394109 -0.225963 -0.640273 -0.359086 0.050905 0.444527 -0.495072 0.0964908 -0.144889 -0.627383 -0.501631 0.474314 0.636863 -0.329256 0.176057 0.214431 0.25898 -0.219053 0.315408 0.133004 -0.568342 0.0918865 -0.00447615 -0.00287312 -0.960662 0.019874 0.654625 -0.677585 0.0367274 -0.0289344 -0.247981
217 -0.104682 0.0428107 0.0912717 -0.17227 -0.0324196 -0.122477 0.112004 -0.00453546 -0.160463 -0.439266 -0.0267713 -0.273349 -0.172431 0.0373239 -0.0566122 -0.131378 -0.0215853 0.0967175 -0.188604 -0.145524 -0.113377 -0.100734 -0.018625 -0.341597 0.0723255 0.0609066 0.33584 -0.222567 -0.0617038 -0.378261 -0.100588 0.175008 -0.319082 0.0466221 -0.249918 0.175527 0.207289 0.172999 -0.323813 0.241461 -0.310801 0.387701 -0.42282 -0.179673 -0.00939458 -0.0236611 -0.144914 -0.0279701 0.144668 0.0612776 0.441426 -0.256158 0.464448 -0.20604 0.138534 -0.0607353 -0.332433 0.307857 -0.413024 0.222731 0.25212 -0.0134374 -0.034076 0.145912 -0.327007 0.745152 -0.840592 0.202466 0.0163153 0.939489 0.225207 -0.111831 -0.91407 -0.299798 0.385269 -0.213435 0.171235 -0.644882 0.179822 -0.0911608 -0.0588583 -0.145644 -0.218424 -0.632654 -0.224204 -0.371438 0.579803 -0.252089 -0.0580463 0.245907 0.373984 0.496186 0.278743 0.375759 0.40484 -0.199168 -0.501134 -0.0516971 -0.24117 -0.763056 -0.391795 0.0553235 0.411612 -0.507567 0.173994 -0.185404 -0.55577 -0.405631 0.447954 0.602666 -0.361176 0.15505 0.283192 0.314954 -0.241435 0.330653 0.209586 -0.525711 0.0998578 -0.0120911 -0.0819735 -0.955165 -0.083144 0.67595 -0.687335 -0.000103701 -0.0751319 -0.16007
216 -0.10447 0.185007 0.0827992 -0.0590408 -0.0498349 -0.0555311 0.327447 -0.0368863 -0.218398 -0.486117 -0.0436826 -0.299602 -0.273314 -0.0459724 -0.0398155 -0.313075 -0.00745275 0.019389 -0.104038 -0.0718454 -0.094599 -0.117579 -0.00760728 -0.322528 0.00596983 0.0435825 0.35102 -0.246564 -0.0731514 -0.526108 -0.11788 0.15549 -0.447614 0.185199 -0.158678 0.192772 0.170486 0.1625 -0.263412 0.158738 -0.258644 0.338433 -0.506599 -0.137236 0.101325 -0.0823822 -0.151796 -0.0809606 0.108975 0.0836086 0.36614 -0.224445 0.487896 -0.189614 0.236443 -0.105545 -0.257883 0.378089 -0.382264 0.25688 0.104301 -0.0870058 -0.0289439 0.17955 -0.280005 0.780015 -0.967429 0.265874 -0.0110861 1.03686 0.305488 -0.0820408 -0.961823 -0.244692 0.400303 -0.251977 0.195707 -0.517951 0.221837 -0.162297 -0.100099 -0.088904 -0.21486 -0.632871 -0.299264 -0.40098 0.562567 -0.190493 0.0680906 0.214548 0.493434 0.576739 0.337173 0.375514 0.370074 -0.0914772 -0.542012 -0.0400694 -0.23619 -0.664994 -0.2893 0.0773117 0.378464 -0.383879 0.232814 -0.185743 -0.510144 -0.236529 0.500797 0.757374 -0.339084 0.175569 0.401236 0.304265 -0.0798979 0.309265 0.208072 -0.42457 0.146036 0.0055202 -0.0727358 -0.933463 -0.206063 0.63721 -0.691655 -0.0606156 -0.0403332 -0.251484
215 -0.0861688 0.217812 0.0475757 -0.0383296 -0.0798521 -0.0588485 0.318704 -0.0245036 -0.21904 -0.450011 -0.0332063 -0.290223 -0.245362 -0.0648776 -0.0637365 -0.314511 0.0413977 0.00934301 -0.0930447 -0.0113682 -0.0799568 -0.124373 -0.0148755 -0.295654 -0.0504473 0.0147185 0.330284 -0.235898 -0.0340903 -0.512443 -0.10774 0.126596 -0.395223 0.186009 -0.0801997 0.23325 0.124514 0.144955 -0.21754 0.0894866 -0.219526 0.34403 -0.491195 -0.105012 0.117858 -0.0921304 -0.113654 -0.122416 0.116744 0.0484984 0.335459 -0.185462 0.441311 -0.186765 0.238303 -0.11091 -0.248953 0.373081 -0.31801 0.232962 0.0541475 -0.0911949 0.00143143 0.220107 -0.243484 0.721096 -0.892486 0.228524 -0.0404433 0.961075 0.271455 -0.0389593 -0.888925 -0.226937 0.353594 -0.250736 0.20082 -0.465587 0.228138 -0.159776 -0.0951954 -0.069641 -0.229042 -0.631244 -0.288749 -0.397186 0.574421 -0.155324 0.0819085 0.209739 0.516641 0.593532 0.331387 0.371266 0.372076 -0.0694064 -0.537262 -0.032344 -0.23535 -0.661989 -0.269006 0.0702662 0.362658 -0.35959 0.244309 -0.170665 -0.470904 -0.202997 0.518726 0.779425 -0.346074 0.147013 0.395862 0.293631 -0.051519 0.306142 0.203855 -0.40158 0.130789 0.00656993 -0.0809949 -0.89107 -0.213996 0.617199 -0.681727 -0.0806175 -0.0371866 -0.254816
288 -0.145767 -0.0044697 0.134598 -0.13625 0.0622577 -0.0973582 0.145523 -0.0206312 -0.111965 -0.395429 -0.0354944 -0.191782 -0.241021 0.0478115 -0.0516637 -0.201059 -0.0266918 0.0416647 -0.10558 -0.19348 -0.0669447 -0.195023 -0.011064 -0.276792 0.0839617 0.109407 0.318704 -0.216814 -0.105723 -0.422571 -0.0626396 0.162141 -0.285326 0.0699848 -0.225596 0.130162 0.162871 0.154217 -0.298049 0.204461 -0.242976 0.33648 -0.450996 -0.198687 -0.00498196 -0.0429737 -0.168258 0.0511574 0.108744 0.121519 0.328997 -0.247878 0.427339 -0.151127 0.191937 -0.00990337 -0.338955 0.297687 -0.480281 0.188218 0.28974 -0.0796157 -0.127935 0.0664544 -0.315511 0.740362 -0.911852 0.274448 -0.0107686 0.968364 0.303565 -0.182711 -0.93496 -0.276081 0.416373 -0.243475 0.14458 -0.641567 0.176898 -0.0957701 -0.0582323 -0.152657 -0.207325 -0.54281 -0.208031 -0.341893 0.483129 -0.191353 -0.0215077 0.198931 0.310051 0.434147 0.302585 0.341016 0.335601 -0.159924 -0.450794 -0.0256359 -0.198021 -0.680416 -0.221979 0.0386611 0.340319 -0.450849 0.142726 -0.19757 -0.464867 -0.346281 0.418569 0.593924 -0.300152 0.204849 0.340034 0.30379 -0.272812 0.235568 0.170559 -0.463007 0.191085 -0.0208105 -0.0641456 -0.980101 -0.0762618 0.653141 -0.738591 0.03578 -0.027194 -0.203056
616 -0.0821914 0.0726938 0.0836633 -0.143572 -0.153645 -0.125379 0.196708 0.0498575 -0.150489 -0.539454 -0.0561655 -0.301589 -0.094074 -0.00654325 -0.10252 -0.162947 -0.0633442 0.131703 -0.296473 -0.0802458 -0.146709 -0.0246663 0.0880447 -0.384521 0.137002 0.0549157 0.250928 -0.19717 -0.0801119 -0.425451 -0.0531155 0.203649 -0.302906 0.0801767 -0.192011 0.190871 0.230928 0.223335 -0.27367 0.305656 -0.280618 0.422328 -0.362178 -0.0967279 -0.00176827 -0.0619532 -0.0102566 -0.0385109 0.121175 -0.0212204 0.52261 -0.269924 0.47562 -0.299025 0.125449 -0.0765511 -0.325021 0.322593 -0.329827 0.193186 0.186259 0.014658 0.00532634 0.148357 -0.349865 0.643365 -0.862294 0.0779308 -0.00556156 0.997276 0.223498 -0.032689 -0.883534 -0.346369 0.393608 -0.240959 0.15924 -0.623524 0.221865 -0.0803119 -0.0228021 -0.0883288 -0.178406 -0.63588 -0.234675 -0.401243 0.579848 -0.276191 -0.107301 0.182156 0.46455 0.469789 0.262807 0.367399 0.374086 -0.200924 -0.447774 -0.0524536 -0.151254 -0.760199 -0.457727 0.0536891 0.27508 -0.395455 0.243624 -0.20299 -0.458558 -0.293725 0.369866 0.482319 -0.326163 0.0766213 0.291034 0.286785 -0.194771 0.309366 0.240948 -0.551316 0.0507691 0.0131607 -0.0847956 -0.88492 -0.0403165 0.630584 -0.717627 -0.00275274 -0.103633 -0.136365
289 -0.0582977 0.0544259 0.172364 -0.0904891 -0.010076 -0.0404315 0.233643 0.00803205 -0.042255 -0.300313 -0.0141745 -0.152268 -0.291768 0.0274957 -0.0411461 -0.19495 -0.0687846 -0.00421814 -0.0671144 -0.250159 -0.100372 -0.227046 -0.00676517 -0.202487 0.123432 0.239075 0.236145 -0.152074 -0.149661 -0.421688 -0.0175934 0.171401 -0.218359 0.00428171 -0.264931 0.0890415 0.19448 0.172577 -0.24483 0.296913 -0.188966 0.310912 -0.484737 -0.249007 -0.0887121 -0.0719137 -0.0856701 0.112669 0.0351186 0.0930998 0.24445 -0.26768 0.434406 -0.167365 0.235829 0.0738437 -0.351216 0.320915 -0.53311 0.0929661 0.332793 -0.127888 -0.186297 0.0037702 -0.321929 0.757972 -0.975802 0.279975 -0.0274774 0.931636 0.301992 -0.221843 -0.926431 -0.317396 0.458985 -0.260646 0.139805 -0.662751 0.190611 -0.0698853 -0.0229945 -0.160769 -0.150715 -0.532949 -0.265262 -0.332939 0.485567 -0.189292 -0.0525375 0.184861 0.327648 0.364723 0.303353 0.378116 0.299387 -0.138251 -0.385142 -0.0325107 -0.146403 -0.735964 -0.123165 0.029236 0.331506 -0.427621 0.170284 -0.230739 -0.391611 -0.285261 0.386641 0.584886 -0.305104 0.207525 0.418597 0.315722 -0.341383 0.154022 0.185794 -0.420769 0.229067 -0.0604156 -0.147174 -1.00189 -0.123316 0.619854 -0.790595 0.0916204 -0.00440772 -0.168022
290 -0.0134876 0.0395054 0.188244 -0.102089 0.0150986 -0.0176837 0.209391 0.0488499 -0.0194114 -0.256537 -0.0266227 -0.104432 -0.252079 0.0603446 -0.00607954 -0.0897606 -0.12607 -0.040947 -0.0338268 -0.247961 -0.0289505 -0.219999 0.0176846 -0.117035 0.0869609 0.230142 0.162789 -0.0891866 -0.130439 -0.365134 0.0105504 0.153899 -0.159084 -0.0249565 -0.266994 0.0112191 0.183061 0.197308 -0.163748 0.258269 -0.16277 0.22912 -0.45924 -0.24455 -0.0956589 -0.0458168 -0.0493139 0.169212 -0.036969 0.128627 0.171577 -0.314016 0.405294 -0.172875 0.211158 0.132734 -0.351664 0.282586 -0.597354 0.0300637 0.361689 -0.11754 -0.182224 -0.0434903 -0.271597 0.662883 -0.893433 0.335382 -0.0354555 0.747139 0.267671 -0.296355 -0.844791 -0.3146 0.436659 -0.246391 0.0793445 -0.659891 0.166511 -0.0518314 -0.0247256 -0.222499 -0.115319 -0.435236 -0.254818 -0.263388 0.415001 -0.214514 -0.0978581 0.1981 0.230839 0.311245 0.295906 0.332618 0.256677 -0.165104 -0.325281 -0.0326117 -0.130905 -0.716896 -0.0111639 0.0403224 0.307045 -0.428632 0.133619 -0.253261 -0.360036 -0.247469 0.325806 0.490311 -0.244232 0.239264 0.401919 0.282113 -0.460105 0.0896971 0.184546 -0.447705 0.297666 -0.0506319 -0.162633 -0.953165 -0.105469 0.581741 -0.83015 0.121092 -0.00144757 -0.159183
277 -0.0414195 -0.0197541 0.161027 -0.0512824 0.00932732 0.0797381 0.150842 0.010215 -0.00754031 -0.0775057 0.072405 0.0136529 -0.160362 0.111913 0.00247377 0.00530543 -0.18804 0.0700677 0.0170048 -0.159386 0.0119956 -0.106692 -0.00141418 -0.0581 0.0954599 0.17122 0.0797406 0.00370504 -0.188983 -0.217471 -0.0218009 0.165212 -0.189584 -0.0893901 -0.286363 -0.116188 0.168073 0.171827 -0.108854 0.358259 -0.108533 0.132038 -0.376058 -0.365559 -0.0473131 0.0234861 -0.0961527 0.230535 -0.121986 0.219991 0.154211 -0.25158 0.381708 -0.112367 0.212069 0.190158 -0.216147 0.213158 -0.506879 0.00828832 0.318781 -0.0135108 -0.178038 -0.162486 -0.267293 0.675722 -0.871768 0.401316 0.0360361 0.621276 0.251124 -0.350761 -0.740341 -0.302238 0.382088 -0.196057 0.00827476 -0.622603 0.0937792 -0.0377337 -0.138624 -0.206033 -0.0647759 -0.387513 -0.163626 -0.194058 0.330919 -0.266416 -0.164201 0.129978 0.0811334 0.189805 0.272012 0.243467 0.292403 -0.235082 -0.309268 -0.105823 -0.103457 -0.702244 0.0889502 0.121766 0.227655 -0.432513 0.0920257 -0.362853 -0.373919 -0.382415 0.317234 0.344458 -0.152033 0.342013 0.277716 0.265009 -0.565773 0.0619153 0.163837 -0.548296 0.451357 0.11123 -0.129443 -0.90446 -0.0346526 0.558188 -0.785451 0.1368 0.0359586 -0.199935
278 -0.0313239 -0.150181 0.157966 -0.111998 -0.0157383 0.0356305 -0.0530655 -0.102396 -0.0360493 -0.0792319 -0.135668 -0.0344633 -0.0628775 0.146328 0.00294226 0.14711 -0.250496 -0.11475 -0.0967413 -0.333555 0.0742105 -0.202575 0.0132705 0.0100049 0.297208 0.385527 0.0556782 -0.0612925 -0.0821028 -0.12516 -0.0697072 0.206592 0.00847153 -0.0939322 -0.208279 -0.0486233 0.188907 0.0582947 -0.0111089 0.194823 -0.0403517 0.154769 -0.276548 -0.323183 -0.0447682 -0.00505554 -0.148897 0.218467 -0.150754 0.177077 0.158927 -0.294082 0.268863 -0.090139 0.287051 0.119854 -0.280312 0.16044 -0.565722 0.0528602 0.404124 0.0369581 -0.236765 -0.115115 -0.29391 0.614392 -0.705026 0.276384 0.0266058 0.563092 0.309627 -0.435746 -0.757456 -0.222324 0.394566 -0.261646 0.00775085 -0.749012 0.164603 0.072745 -0.0280368 -0.187728 -0.105163 -0.273942 -0.0582824 -0.15877 0.409966 -0.264639 -0.227051 0.116404 -0.0403427 0.119556 0.305181 0.266615 0.176624 -0.258401 -0.153462 -0.15362 -0.11928 -0.501159 0.0953414 0.0861385 0.240026 -0.347612 0.13928 -0.326133 -0.323069 -0.368916 0.287107 0.26924 -0.0962683 0.353595 0.398658 0.276167 -0.528437 0.166739 0.216614 -0.481873 0.300956 0.18972 -0.0972556 -1.111 0.0377055 0.684055 -0.803228 0.270192 0.204652 -0.219257
284 -0.0464446 -0.0534074 0.224588 -0.00897061 -0.0393833 0.0735234 0.124534 -0.00748584 0.114532 -0.129903 0.000606635 0.153257 -0.193181 -0.0405007 0.0894643 -0.230692 -0.270173 -0.320965 0.0145693 -0.165543 -0.0960016 -0.0585026 -0.00887984 0.0135538 0.222443 0.242872 0.0349257 -0.122248 -0.150136 -0.167207 0.0112945 0.155445 -0.247232 -0.150758 -0.21656 -0.0732966 0.294687 0.0922729 -0.157788 0.418346 -0.183092 -0.135728 -0.311866 -0.266336 -0.121389 0.118127 -0.0321186 0.170824 -0.211656 0.112941 -0.147117 -0.49915 0.3125 -0.0259299 0.219656 0.0365267 0.0733798 0.293004 -0.548825 -0.0259818 0.32631 -0.114563 -0.272108 -0.388214 -0.281412 0.493763 -0.708555 0.285664 0.0825411 0.542673 0.347244 -0.283615 -0.721637 -0.245867 0.608797 -0.275494 -0.0582076 -0.547682 0.0232198 -0.0175176 0.035132 -0.0450212 0.21322 -0.520166 -0.45133 -0.241005 0.394499 -0.500178 -0.114748 0.142925 0.125315 0.0661049 0.156682 0.517372 0.530635 -0.200774 -0.164476 -0.456903 0.0322957 -0.375886 0.249722 0.111874 0.296027 -0.31723 0.0875584 -0.220982 -0.350513 -0.342915 0.258956 0.477582 -0.380376 0.493475 0.488418 0.35919 -0.669804 0.0615137 0.211477 -0.197688 -0.0051337 -0.042264 -0.248939 -0.890813 0.0661063 0.659282 -0.469537 0.420802 0.262622 -0.0359508
296 -0.0512692 -0.177372 0.175298 0.00934794 0.165856 0.065552 0.128616 -0.00253749 0.170731 -0.0160062 0.051991 0.163826 -0.227842 -0.0293582 0.114703 -0.213201 -0.312673 -0.15085 -0.0315528 -0.206298 -0.110584 -0.121264 -0.00529686 0.0277729 0.253184 0.246685 0.0331185 -0.150983 -0.25824 -0.109748 0.0351411 0.202626 -0.234281 -0.150018 -0.336192 -0.172606 0.305458 0.0891783 -0.208845 0.529088 -0.176605 -0.0855087 -0.273461 -0.241567 -0.123217 0.0954949 -0.210715 0.342845 -0.0352986 0.08154 0.0196881 -0.334322 0.314262 -0.178936 0.232062 0.0346863 0.00645093 0.249563 -0.438 0.0406503 0.350354 -0.0458441 -0.288238 -0.284297 -0.333669 0.462559 -0.644074 0.203732 0.0292349 0.800948 0.290433 -0.304489 -0.727241 -0.178176 0.45724 -0.232667 0.000117644 -0.445103 0.0164443 -0.0522476 6.6385e-05 -0.0207195 0.105892 -0.504849 -0.333018 -0.170531 0.331324 -0.349022 -0.0837432 0.18229 0.109125 0.0357865 0.143104 0.395234 0.451634 -0.17691 -0.212305 -0.352077 0.00958496 -0.442175 0.194752 -0.00196324 0.336179 -0.274123 0.0622586 -0.198393 -0.319977 -0.415055 0.284234 0.429584 -0.301202 0.382532 0.254849 0.296861 -0.512062 0.114791 0.208964 -0.253028 0.0262569 -0.08542 -0.154107 -0.752504 0.198295 0.631838 -0.54468 0.393729 0.222565 -0.105568
310 -0.112421 -0.103684 0.0515586 0.161706 0.196985 -0.0923046 0.207583 0.0185222 0.205224 0.0878466 0.127027 0.259054 -0.230197 -0.051064 0.152177 -0.345477 -0.296421 -0.060234 -0.0212854 -0.171607 -0.0943454 -0.0170089 0.139947 -0.0213439 0.159306 0.0632091 -0.140853 -0.0624671 -0.265572 -0.370037 0.023414 0.0806752 -0.283902 0.022304 -0.104964 -0.283911 0.289849 0.159315 -0.320288 0.561609 -0.105063 -0.0911748 -0.306796 -0.199392 -0.1635 0.0307849 0.0306598 0.179954 0.0394714 0.127377 0.07028 -0.361358 0.369129 -0.0540085 0.277181 -0.140439 0.0909629 0.172638 -0.46577 -0.0747684 0.363592 0.0218955 -0.357705 -0.328424 -0.330014 0.493938 -0.789254 0.364849 -0.0398439 0.968384 0.373022 -0.346406 -0.717526 -0.125669 0.477903 -0.29368 -0.0954543 -0.34729 -0.0991683 -0.146658 0.00165189 -0.065156 0.190487 -0.578255 -0.415793 -0.351475 0.305626 -0.399052 -0.139128 -0.0240087 0.115336 -0.0697426 0.222098 0.529847 0.511169 -0.0593706 -0.103777 -0.442936 0.0385541 -0.367148 0.169552 0.0553717 0.264394 -0.261327 0.168534 -0.302953 -0.580323 -0.469045 0.272644 0.400014 -0.476717 0.63766 0.346582 0.32189 -0.638935 0.144542 0.304922 -0.32942 0.112856 0.00948272 -0.106847 -1.0223 0.193024 0.660354 -0.511389 0.322643 0.269417 -0.106167
848 0.0280216 -0.0537355 0.259617 0.0171017 0.132623 0.106413 0.0460949 0.0893391 0.200784 -0.184451 0.128769 0.132012 -0.188259 -0.12164 0.055605 -0.290726 -0.456028 -0.235065 -0.0537854 -0.259095 -0.0418205 -0.16654 -0.110749 -0.0123942 0.192109 0.121855 -0.0275182 -0.167944 -0.121441 -0.182013 -0.123702 0.158672 -0.369863 -0.0407324 -0.312867 -0.281565 0.479722 0.215633 -0.233549 0.754337 -0.363162 -0.174933 -0.493816 -0.298064 -0.0619029 0.0611788 -0.223449 0.237555 -0.048879 0.00204011 0.134831 -0.546439 0.33319 -0.162271 0.287001 -0.053636 0.118981 0.194191 -0.508019 0.0018484 0.284584 -0.0494214 -0.280161 -0.265178 -0.33868 0.453456 -0.640673 0.316815 0.0438327 0.802651 0.309642 -0.286557 -0.87326 -0.195692 0.569333 -0.2907 -0.0488526 -0.543088 0.0282638 -0.193174 0.102421 -0.0452485 0.208392 -0.480947 -0.374181 -0.206167 0.391334 -0.388918 -0.128619 0.179048 0.181042 0.142468 0.177796 0.408455 0.568229 -0.138818 -0.17027 -0.318876 0.00299296 -0.394522 0.152292 -0.0292591 0.405303 -0.31822 0.122916 -0.297953 -0.39991 -0.375722 0.271139 0.422568 -0.381653 0.459537 0.288743 0.312778 -0.612103 0.0701507 0.208304 -0.338027 -0.0083548 -0.0574193 -0.253632 -0.830279 0.239928 0.734718 -0.63593 0.365119 0.305822 -0.11793
285 0.0536652 0.0272287 0.185781 0.0557136 0.0698098 0.190546 0.110956 0.0539122 0.277808 -0.00904559 0.0618496 0.0775318 -0.216379 -0.105704 0.0649013 -0.0623049 -0.342993 -0.153009 -0.0327897 -0.322514 -0.0280911 -0.137961 -0.0971547 0.134991 0.297864 0.377166 -0.114588 -0.104705 -0.18 0.0180801 0.00486129 0.230633 -0.190668 -0.0812002 -0.380973 -0.229629 0.464229 0.0613646 -0.0549301 0.67168 -0.168805 -0.144074 -0.310165 -0.270776 -0.11758 0.0399662 -0.248327 0.325926 -0.0748604 0.00348409 -0.00110803 -0.413614 0.231694 -0.116587 0.319263 0.0392909 -0.0134017 0.269288 -0.549436 0.0102516 0.451118 0.0223697 -0.255904 -0.233029 -0.342821 0.567013 -0.637733 0.126769 0.0909368 0.846724 0.291729 -0.326192 -0.764652 -0.148059 0.507061 -0.211531 -0.0180878 -0.456924 0.0896742 0.00203447 0.0720261 -0.012278 0.226104 -0.536867 -0.306804 -0.0624234 0.433904 -0.441167 -0.126679 0.105501 0.165934 -0.0349706 0.20132 0.414845 0.459154 -0.297445 -0.110142 -0.348326 0.0729582 -0.551889 0.243365 0.0151443 0.432534 -0.260624 0.076066 -0.239004 -0.340585 -0.455251 0.153975 0.350832 -0.228569 0.345292 0.310648 0.289793 -0.560644 0.0603162 0.179356 -0.339727 -0.0150326 -0.0240584 -0.258775 -0.99349 0.204113 0.71313 -0.720936 0.483792 0.210562 -0.0729867
291 -0.0664353 0.0485583 0.153002 0.125633 0.00689133 0.127164 0.131442 -0.000358542 0.261909 0.0498482 0.0485057 0.15089 -0.150723 -0.0290103 0.054457 -0.224763 -0.300623 -0.175683 -0.0550125 -0.315099 -0.0324463 -0.113076 -0.00736794 0.031246 0.203804 0.137664 -0.216813 -0.0345076 -0.0963579 -0.284943 0.0439617 0.114128 -0.19412 -0.0441068 -0.115462 -0.166563 0.484844 0.0784571 -0.219486 0.541232 -0.152178 -0.0650811 -0.303053 -0.281788 -0.169637 0.0612822 0.0120859 0.0818703 -0.0854888 0.0318126 -0.0254854 -0.416562 0.273923 -0.0289711 0.261897 -0.16 0.0272041 0.253616 -0.510203 -0.119344 0.400095 0.0113086 -0.22103 -0.18777 -0.264026 0.582906 -0.743586 0.325755 0.0663448 0.721743 0.318461 -0.371819 -0.757767 -0.0797624 0.579366 -0.253939 -0.0285684 -0.35832 0.0927812 -0.0213543 0.0592019 -0.0309334 0.213694 -0.485147 -0.302945 -0.209595 0.321693 -0.261356 -0.0963593 0.0891625 0.0937746 0.00525456 0.0660045 0.403271 0.433974 -0.14206 -0.0299598 -0.406563 0.0950243 -0.467358 0.196512 -0.0339925 0.321821 -0.216126 0.187749 -0.211836 -0.552227 -0.402135 0.230469 0.334093 -0.360718 0.44137 0.327897 0.232925 -0.532689 0.0992344 0.216494 -0.382712 0.0651511 0.00883079 -0.169189 -0.939821 0.236654 0.637771 -0.573911 0.325267 0.199462 -0.118053
405 0.106582 0.0395626 0.262657 -0.00774733 0.188749 0.244159 0.30434 0.103131 0.0386605 -0.134368 0.0892525 0.123922 -0.171034 -0.136263 0.0746266 -0.195965 -0.466797 -0.069473 -0.0933631 -0.183945 -0.0217666 -0.113348 -0.076517 -0.0198906 0.226999 0.177681 0.0388396 -0.0976216 -0.120562 0.0122105 0.0315492 0.247253 -0.363728 -0.00507189 -0.266323 -0.268435 0.289161 0.15466 -0.133959 0.612643 -0.314228 -0.0651808 -0.464828 -0.319076 -0.000716584 0.0241771 -0.127285 0.266644 -0.131588 0.0569288 0.198041 -0.559829 0.364597 -0.218617 0.290125 0.00337535 0.0188624 0.279478 -0.572742 0.0423168 0.314236 -0.0553832 -0.205408 -0.220073 -0.281281 0.41711 -0.690874 0.227513 0.0200564 0.671152 0.178452 -0.381366 -0.81188 -0.195952 0.528968 -0.246264 -0.0183544 -0.547987 -0.0429689 -0.078014 -0.0501275 -0.124487 0.213852 -0.385502 -0.38641 -0.105315 0.287457 -0.551428 -0.1421 0.119492 0.135849 0.123 0.229309 0.449788 0.587583 -0.253469 -0.239746 -0.241185 -0.0628778 -0.215866 0.186686 0.0708992 0.34403 -0.246295 -0.00678756 -0.252473 -0.346598 -0.202524 0.249454 0.443966 -0.332772 0.453686 0.262405 0.392345 -0.615446 0.169943 0.267843 -0.385401 0.0426544 -0.00476844 -0.120217 -0.871223 0.0506963 0.644853 -0.627475 0.378727 0.374595 -0.138442
847 0.127077 -0.223056 0.233799 -9.92699e-05 0.217212 0.0647063 0.156259 -0.0447596 0.123323 0.0282976 0.079066 0.225467 -0.291275 -0.0539584 0.0607853 -0.20184 -0.276048 -0.390863 0.0307138 -0.166449 -0.124672 -0.0189004 0.0592952 0.128312 0.196078 0.16897 -0.023769 -0.126782 -0.102071 -0.114179 0.148337 0.115937 -0.0903429 -0.0697953 -0.22696 -0.302142 0.328669 0.0535683 -0.165711 0.517675 -0.226215 -0.241095 -0.296381 -0.15058 0.00441986 0.0491142 -0.190406 0.472013 -0.0468277 0.0833773 0.128905 -0.427682 0.184698 -0.290982 0.289298 -0.0708239 0.103794 0.111862 -0.521194 0.00915172 0.435961 -0.100945 -0.446081 -0.333103 -0.307399 0.380744 -0.645514 0.124255 -0.0590156 0.75181 0.339263 -0.278248 -0.807804 -0.198698 0.508741 -0.326406 -0.148787 -0.563281 -0.0835348 0.0921764 0.0469348 -0.0668874 0.0227981 -0.436718 -0.312153 -0.178105 0.354121 -0.420182 -0.0972946 0.0785836 -0.0624209 -0.0413043 0.123185 0.224155 0.450152 -0.206435 -0.0259558 -0.395784 0.0566859 -0.319741 0.194828 0.102074 0.123638 -0.270211 0.0293073 -0.301877 -0.084152 -0.19526 0.161759 0.248552 -0.293185 0.544221 0.317588 0.381733 -0.612708 0.0292217 0.327077 -0.212636 0.139156 -0.103664 -0.103341 -1.07464 0.271366 0.722103 -0.666656 0.467524 0.339494 -0.0562508
846 0.129663 -0.319916 0.225045 -0.0479901 0.217168 0.0722818 0.151357 -0.140176 0.00534183 0.104909 0.0353873 0.272516 -0.273756 0.0494421 0.0874304 -0.0721472 -0.298483 -0.367853 0.0665275 -0.156243 -0.0699632 0.00696445 0.106827 0.132172 0.253239 0.224263 0.0968362 -0.0624153 -0.102028 -0.0058852 0.141455 0.121517 -0.0240251 -0.00554289 -0.212894 -0.3239 0.18162 -0.00690103 -0.103931 0.340649 -0.169161 -0.167184 -0.242524 -0.15173 0.13957 0.0213768 -0.24858 0.527717 -0.0480211 0.151104 0.317127 -0.344277 0.202534 -0.320131 0.349147 -0.0484604 0.0908014 0.0702336 -0.539396 0.0638651 0.525887 -0.0814463 -0.434929 -0.288858 -0.272633 0.422284 -0.703073 0.0883005 -0.0940797 0.670255 0.324709 -0.271645 -0.732631 -0.162539 0.432341 -0.277501 -0.1308 -0.668601 -0.0992436 0.183468 -0.0673232 -0.0717926 -0.129241 -0.394134 -0.181735 -0.142841 0.35382 -0.416031 -0.127051 0.0292501 -0.134887 -0.0621287 0.159531 0.100038 0.43979 -0.341516 -0.0285074 -0.354637 0.0453202 -0.323333 0.193086 0.173486 0.0387485 -0.251431 -0.0459013 -0.365091 -0.0258947 -0.256988 0.163391 0.222396 -0.225262 0.574752 0.272197 0.396068 -0.61442 0.0505754 0.316704 -0.320567 0.285913 -0.00692514 -0.00862904 -1.16898 0.222029 0.671992 -0.743724 0.433541 0.398415 -0.10695
996 0.122525 -0.377505 0.179828 -0.0715629 0.203957 0.0277537 0.134844 -0.191025 0.0593857 0.0728846 -0.0338842 0.283997 -0.226957 0.0152437 0.0536051 -0.115287 -0.230082 -0.3973 -0.0158897 -0.129111 -0.106265 0.0527837 0.124961 0.0778302 0.339721 0.214487 0.188229 -0.168931 -0.131263 0.115913 0.131552 0.181032 -0.100645 0.017521 -0.181958 -0.267056 0.0641283 -0.0664723 -0.0742183 0.29301 -0.220274 -0.160855 -0.198912 -0.133248 0.171545 0.0958181 -0.338645 0.606742 -0.101829 0.239531 0.336849 -0.46156 0.223636 -0.32996 0.363943 -0.00621302 0.00666351 0.228609 -0.539849 0.0396642 0.503333 -0.0624386 -0.42996 -0.360467 -0.320818 0.435373 -0.656435 0.0311744 -0.116981 0.716576 0.346484 -0.208771 -0.651868 -0.207673 0.386953 -0.30724 -0.142696 -0.640847 -0.0627538 0.238074 -0.0160804 -0.058568 -0.121123 -0.513298 -0.250565 -0.206461 0.382093 -0.574009 -0.121511 0.0731158 -0.158803 -0.0491059 0.141434 0.139183 0.504772 -0.339846 -0.0416495 -0.404739 0.0684424 -0.296169 0.238319 0.147907 -0.0426624 -0.266175 -0.122655 -0.279348 0.0560777 -0.257099 0.180361 0.183375 -0.156118 0.527124 0.235527 0.465567 -0.602374 0.0630822 0.257025 -0.288178 0.208479 0.0342379 0.0466006 -1.11709 0.316387 0.761027 -0.662759 0.450346 0.451991 -0.121761
995 0.0429368 -0.343634 0.192417 -0.0459763 0.0809114 0.123931 0.188531 -0.291247 0.0494876 -0.0420478 -0.113949 0.24096 -0.188213 0.0335214 0.0699859 -0.110735 -0.350272 -0.388068 -0.082268 -0.155458 -0.0184008 0.0514873 0.0567646 0.0509411 0.357274 0.195488 0.168533 -0.172285 -0.082733 0.233303 0.026073 0.197622 -0.16181 -0.0209998 -0.114939 -0.175279 0.0621928 -0.0663443 -0.0779107 0.220968 -0.23585 -0.0756756 -0.24373 -0.212076 0.156978 0.0733145 -0.36669 0.513674 -0.175331 0.30496 0.429616 -0.477147 0.252668 -0.269531 0.317449 0.0538036 -0.099693 0.295711 -0.519746 0.0800343 0.43413 -0.00905347 -0.30718 -0.296212 -0.300952 0.448704 -0.553186 0.0616683 -0.0982151 0.610761 0.280215 -0.202999 -0.531952 -0.208135 0.276633 -0.29132 -0.0973607 -0.502884 0.0478326 0.259904 -0.0082091 -0.0758076 -0.155067 -0.578751 -0.184555 -0.217688 0.353438 -0.593333 -0.224645 0.141445 -0.182625 0.00287265 0.1825 0.181271 0.545759 -0.368912 -0.100828 -0.34847 0.0458966 -0.353818 0.189718 0.09882 -0.0266913 -0.237998 -0.117616 -0.271417 -0.0444184 -0.400692 0.214628 0.139047 -0.0992957 0.531526 0.221982 0.42932 -0.632713 0.175861 0.18168 -0.418322 0.234996 0.127056 0.0430646 -1.13265 0.32394 0.851596 -0.697262 0.366889 0.404895 -0.235909
254 -0.00463567 -0.112369 0.091372 0.0321205 -0.0359156 0.123812 0.0786525 -0.234586 0.0264602 -0.0611722 -0.142965 0.221539 0.0694093 0.0578789 0.130786 -0.0690179 -0.498579 -0.295661 -0.147571 -0.196034 -0.0453041 0.0763693 0.0817102 0.0986389 0.409979 0.20745 0.189818 -0.174966 -0.100528 0.223252 -0.13181 0.254755 -0.278104 0.0527374 -0.158435 -0.109123 0.0143354 0.00931724 -0.0348708 0.226888 -0.145246 -0.0156689 -0.126773 -0.217237 0.213456 0.225866 -0.461474 0.418951 -0.167132 0.407308 0.433365 -0.433432 0.315902 -0.237257 0.237167 0.127886 -0.174263 0.450814 -0.354532 0.0267536 0.287492 0.00773808 -0.170561 -0.308946 -0.338381 0.424192 -0.547604 0.0962079 -0.062963 0.634717 0.295473 -0.37002 -0.561388 -0.182894 0.265792 -0.275344 -0.0284746 -0.538186 0.0282111 0.236366 -0.106726 -0.0526512 -0.0245795 -0.644975 -0.167373 -0.184777 0.212461 -0.653128 -0.205635 0.150027 -0.079977 0.00602707 0.139629 0.232143 0.523614 -0.341156 -0.267436 -0.343905 -0.0220642 -0.410558 0.247909 0.0478388 -0.0326734 -0.291922 -0.10871 -0.286797 -0.205698 -0.489231 0.29984 0.132218 -0.0668611 0.494404 0.151282 0.51041 -0.674649 0.275281 0.213278 -0.463276 0.175988 0.246959 0.0605864 -0.868239 0.343799 0.899958 -0.606787 0.32238 0.507839 -0.366523
403 -0.142043 -0.137349 0.134636 0.159192 0.0215257 0.228334 0.0984647 -0.297328 -0.00697299 -0.0789362 -0.126929 0.0823545 -0.015843 0.087037 0.219525 -0.109217 -0.559247 -0.304752 -0.172036 -0.18002 0.0523551 -0.0988803 0.0615325 -0.0612307 0.421411 0.300148 0.0356663 -0.212758 -0.286687 0.0868633 -0.177188 0.279466 -0.255794 -0.141474 -0.12116 -0.0191552 0.128575 0.0386479 -0.170759 0.293312 -0.0720116 0.0351927 -0.109513 -0.345449 -0.0255187 0.194353 -0.242713 0.208878 -0.195576 0.200834 0.124846 -0.4501 0.289159 -0.110984 0.188924 0.100903 -0.0154549 0.291839 -0.428928 0.248346 0.202882 0.167366 -0.137188 -0.248999 -0.478239 0.518143 -0.716615 0.237772 0.114373 0.671532 0.279958 -0.435656 -0.763901 -0.118734 0.348403 -0.260116 0.0611275 -0.462221 0.116276 0.0212952 -0.09846 0.0177318 0.0797467 -0.593924 -0.189315 -0.189726 0.38481 -0.552058 -0.332769 0.257852 -0.0680328 0.0625345 0.198372 0.338011 0.480446 -0.234148 -0.24073 -0.373768 -0.176921 -0.369641 0.0488895 0.0177557 0.211997 -0.251895 0.130545 -0.237621 -0.468352 -0.471227 0.322236 0.320756 -0.149033 0.476204 0.252736 0.308536 -0.5665 0.421954 0.206133 -0.412834 0.0342399 0.258093 -0.0074302 -0.781471 0.256917 0.987083 -0.557702 0.331774 0.343549 -0.241421
1008 -0.22555 -0.177805 0.0720427 0.11635 -0.0587155 0.178074 -0.0982976 -0.289688 0.0478673 -0.00656502 -0.150433 0.00748108 -0.0252437 0.157362 0.188422 0.0507273 -0.454778 -0.226019 -0.180157 -0.264804 0.093202 -0.149459 0.0987984 0.0444872 0.410777 0.332896 -0.0555796 -0.169979 -0.210028 0.0187036 -0.184712 0.264956 -0.0941079 -0.176852 -0.0751739 -0.0222078 0.21949 0.0170653 -0.149857 0.224122 0.0361759 0.117301 -0.0512163 -0.333297 -0.0683732 0.231593 -0.278376 0.153223 -0.215632 0.231116 0.0337288 -0.425749 0.222577 -0.0169152 0.153363 0.1158 -0.0859019 0.233627 -0.450544 0.191133 0.285532 0.194013 -0.171474 -0.210056 -0.457273 0.595432 -0.709752 0.25571 0.0937534 0.571355 0.315945 -0.575482 -0.760427 -0.166705 0.396192 -0.275484 0.0286796 -0.558004 0.185353 0.0797723 -0.0482863 -0.058142 0.0648621 -0.489444 -0.06754 -0.198097 0.45415 -0.46067 -0.391121 0.195038 -0.122577 0.0387754 0.228945 0.38457 0.407285 -0.25797 -0.154481 -0.391202 -0.177061 -0.450868 0.122589 0.0139367 0.257622 -0.313444 0.19461 -0.250347 -0.556776 -0.541668 0.364185 0.306732 -0.156977 0.473066 0.36963 0.283919 -0.593691 0.429267 0.250471 -0.494466 0.0721082 0.3165 -0.0554233 -0.920966 0.216237 0.961183 -0.619373 0.393796 0.264714 -0.216923
279 -0.0624553 -0.0372922 0.0478575 0.00404271 -0.1505 0.0962882 -0.0316226 -0.214233 0.0705912 0.0288897 -0.161647 0.0270832 0.0266843 0.121449 0.109783 0.220379 -0.318193 -0.155087 -0.087372 -0.33576 0.113706 -0.179837 0.0285681 0.0714275 0.286777 0.350601 -0.0716299 -0.0842666 -0.212715 0.0410072 -0.201359 0.228954 -0.0305775 -0.0856154 -0.159117 -0.102927 0.267428 0.028803 0.0267109 0.259484 0.0628316 0.110654 -0.1997 -0.428139 -0.124332 0.0492962 -0.186939 0.125378 -0.245587 0.176052 0.0394839 -0.364121 0.20367 0.0752447 0.2317 0.172071 -0.198148 0.209212 -0.533522 0.051246 0.374931 0.12992 -0.176187 -0.145845 -0.334112 0.63805 -0.698828 0.313945 0.0971834 0.407258 0.291832 -0.510046 -0.647606 -0.155512 0.376299 -0.233035 -0.0152765 -0.639515 0.205865 0.0669138 -0.0217116 -0.14421 0.0602752 -0.391363 -0.108399 -0.212996 0.4336 -0.400256 -0.348452 0.0940865 -0.0740585 -0.0291977 0.309577 0.403915 0.281348 -0.26478 -0.105773 -0.281906 -0.146667 -0.440723 0.172927 0.0368567 0.322555 -0.304908 0.181473 -0.331731 -0.553293 -0.529585 0.330666 0.321353 -0.151596 0.515373 0.468617 0.270837 -0.604841 0.277678 0.188652 -0.510546 0.228409 0.272626 -0.154824 -1.07824 0.0193943 0.7369 -0.674796 0.318772 0.266244 -0.195178
545 0.264002 0.512515 -0.141982 0.180019 -0.302451 -0.0224264 0.26477 0.208607 -0.0252089 -0.125272 -0.198613 -0.170506 -0.393938 -0.0530617 0.23842 0.130119 -0.213341 -0.371876 0.27336 -0.13133 -0.189745 0.0864969 -0.0855723 -0.0480313 -0.0676038 0.290241 0.069348 -0.313429 -0.025203 0.0263018 -0.294466 -0.0426438 -0.212365 0.0447188 -0.533795 -0.430276 0.498557 -0.0186776 0.0245065 0.299676 -0.684207 0.240773 -0.0783446 -0.476697 0.0729372 -0.167004 -0.3048 0.461442 0.00311526 -0.128412 0.187535 -0.303017 -0.075128 -0.387414 0.227497 -0.681703 0.084444 0.105202 -0.550504 0.167923 0.443031 0.195068 -0.276356 -0.117249 0.216675 0.551794 -0.380867 -0.0305566 -0.0852576 0.368286 0.120404 -0.00485289 -0.738103 -0.0895561 0.435911 -0.385121 0.0345542 -0.217703 0.249299 0.0681839 -0.14976 0.128846 0.279104 -1.0086 -0.297618 0.0668071 0.609892 -0.262135 -0.165404 0.454355 0.123238 0.296675 0.0997839 0.393186 0.479232 -0.373891 0.0144818 -0.612429 -0.159149 -0.542529 -0.164969 0.0305961 0.505027 0.00893922 0.0458155 -0.0206952 -0.181985 -0.166124 0.522546 0.34951 -0.331155 0.282129 0.0694374 0.233623 -0.326822 0.258878 0.299544 -0.625613 0.134062 -0.187042 0.0389063 -1.03353 0.45727 0.387281 -0.847625 0.270726 -0.209872 0.0081743
544 0.248127 0.654363 -0.0941258 0.178057 -0.313007 0.0455489 0.272822 0.235888 -0.0612532 -0.178165 -0.306832 -0.178149 -0.436661 0.0455709 0.283825 0.179214 -0.121836 -0.287229 0.352285 -0.15355 -0.160599 -0.0959757 0.014802 -0.0481053 -0.130861 0.166068 0.0398147 -0.343809 -0.000144792 -0.0142087 -0.302304 -0.0171092 -0.185725 0.0826206 -0.605571 -0.470588 0.585886 0.0271052 -0.0257348 0.378527 -0.600668 0.270572 -0.0733152 -0.438256 0.109503 -0.0871894 -0.288028 0.425852 -0.0197104 -0.135602 0.184734 -0.418959 -0.0818756 -0.361162 0.115506 -0.571792 0.16648 0.128349 -0.586154 0.166103 0.451121 0.1539 -0.25178 -0.107919 0.170356 0.497646 -0.456297 -0.0473409 -0.0522494 0.322346 0.169554 -0.0940279 -0.694432 -0.0830539 0.469273 -0.370279 0.0237773 -0.299217 0.225378 0.118922 -0.104538 0.059912 0.266196 -1.04658 -0.353532 -0.0576767 0.521497 -0.329258 -0.203832 0.415473 0.0656425 0.289018 0.133032 0.39918 0.485663 -0.429565 0.065841 -0.563338 -0.125294 -0.486791 -0.144555 0.0331406 0.462308 0.00493037 0.0375313 -0.0086242 -0.243896 -0.162943 0.503088 0.317981 -0.351502 0.360536 0.138346 0.236457 -0.273117 0.265555 0.305721 -0.611795 0.0919146 -0.108528 0.0585532 -1.0076 0.389089 0.415922 -0.775849 0.286016 -0.187644 0.0252919
702 0.270582 0.637658 -0.111656 0.202241 -0.403715 0.087312 0.356787 0.234781 -0.0462138 -0.219058 -0.12286 -0.18356 -0.551584 -0.0726306 0.105846 0.110546 -0.189121 -0.311703 0.291941 -0.105641 -0.168276 -0.103425 -0.121957 -0.0413583 0.00398885 0.101569 0.240118 -0.33794 0.0270741 0.300552 -0.423553 -0.0016428 -0.223449 0.114182 -0.383158 -0.312289 0.564358 -0.0306543 -0.00975265 0.277858 -0.728025 0.240984 -0.0994275 -0.370186 0.140066 -0.0657316 -0.199224 0.344653 0.0200229 -0.107724 0.131395 -0.228682 -0.0927823 -0.245868 0.105462 -0.434846 0.140762 0.114741 -0.419849 0.166044 0.452549 0.167214 -0.168913 -0.1024 -0.016136 0.542163 -0.552412 -0.00365928 -0.138685 0.446751 0.153398 -0.0390963 -0.767745 -0.158509 0.459978 -0.395244 0.145928 -0.249133 0.0657281 -0.0427907 -0.114777 0.0104939 0.102792 -0.789662 -0.178848 -0.0350679 0.64861 -0.279571 -0.11312 0.38741 0.14937 0.277864 0.134106 0.389951 0.471058 -0.417957 -0.055191 -0.585377 -0.0730507 -0.566523 -0.114715 0.0775739 0.581608 -0.0623637 -0.015543 -0.0126808 -0.189568 -0.188067 0.593999 0.433874 -0.40668 0.391444 0.113466 0.157043 -0.404765 0.315819 0.356297 -0.682886 0.102372 -0.025979 0.0499543 -1.08322 0.298514 0.344707 -0.775924 0.367218 -0.130299 0.0256526
543 0.183619 0.550252 -0.0433179 0.230529 -0.16114 0.0105612 0.186058 0.238185 -0.0434391 -0.0728363 -0.330735 -0.205478 -0.38313 0.0819056 0.277666 0.155324 -0.0110382 -0.239354 0.349969 -0.153029 -0.247852 -0.0045509 0.11683 -0.131072 -0.103 0.240804 0.105663 -0.445944 0.0599697 -0.110739 -0.213585 0.0870029 -0.225249 0.0642866 -0.589654 -0.40146 0.652589 0.00266826 -0.0688364 0.489451 -0.610271 0.359093 -0.0295688 -0.521183 0.0649825 -0.0605854 -0.205795 0.330615 -0.0272225 -0.147115 0.183171 -0.387447 -0.0575728 -0.314219 0.0914599 -0.621181 0.102672 0.125974 -0.625449 0.185239 0.548981 0.181112 -0.304932 -0.095349 0.227006 0.621295 -0.461465 -0.0706428 -0.0151248 0.392973 0.161004 -0.18016 -0.676309 -0.0619256 0.494913 -0.380711 -0.0431963 -0.313883 0.255518 0.227075 -0.101241 0.107174 0.2579 -0.982477 -0.439364 -0.0820274 0.483979 -0.384895 -0.28535 0.326307 -0.0655232 0.223137 0.126651 0.356253 0.538737 -0.47903 0.120409 -0.448553 -0.0484118 -0.361709 -0.0664337 -0.0308122 0.387782 0.0601896 0.0409909 0.0581165 -0.364146 -0.169391 0.372641 0.286434 -0.289597 0.278362 0.167923 0.307887 -0.26988 0.243302 0.28728 -0.575465 0.106736 -0.0826698 0.120576 -1.0603 0.41327 0.427668 -0.70692 0.289715 -0.245776 0.0681572
190 0.259606 0.335573 -0.117699 0.235502 -0.0789418 0.0117727 0.097927 0.288773 -0.11157 -0.0956583 -0.402331 -0.224071 -0.244791 0.15954 0.224109 0.111315 0.0258477 -0.226582 0.211025 -0.109806 -0.0999573 -0.0418898 0.0677652 -0.00670844 -0.190161 0.0691528 0.0620356 -0.293443 0.0293619 -0.143651 -0.198642 0.11173 -0.205211 0.0164739 -0.651835 -0.424969 0.703918 -0.00179803 0.000945507 0.518596 -0.564071 0.352141 -0.000227987 -0.463614 0.00822584 -0.102445 -0.212042 0.31762 -0.0397873 -0.145289 0.145093 -0.360443 -0.0615068 -0.207878 0.23735 -0.629598 0.0565945 0.101589 -0.635472 0.138122 0.554079 0.204299 -0.254999 -0.0518399 0.269061 0.558254 -0.450898 -0.0736524 0.0726073 0.394125 0.0178251 -0.190825 -0.629513 -0.0745018 0.445465 -0.408677 -0.0432695 -0.3056 0.21464 0.212874 -0.0368957 0.146704 0.356759 -1.01652 -0.52877 -0.0513855 0.4793 -0.474113 -0.306776 0.359421 -0.0107432 0.301594 0.176252 0.382463 0.554068 -0.42538 0.159327 -0.461723 -0.153311 -0.351987 -0.0726219 -0.158472 0.425667 0.0155817 0.181136 0.0500235 -0.318209 -0.110588 0.282831 0.242519 -0.224927 0.22337 0.224863 0.3136 -0.39386 0.148813 0.240365 -0.541838 0.12412 -0.125238 0.0905708 -1.06771 0.475052 0.492793 -0.754926 0.241058 -0.26879 0.0360813
699 0.299446 0.636245 -0.16829 0.132111 -0.272038 -0.0263558 0.209886 0.27989 -0.0888473 -0.175543 -0.237986 -0.189299 -0.315363 0.0661692 0.196795 0.000773759 -0.0610057 -0.315104 0.152178 -0.157463 -0.105406 0.0892122 -0.0733518 -0.132942 -0.0387802 0.412404 0.148934 -0.292086 -0.073402 0.0665473 -0.37632 0.139791 -0.291006 -0.0113555 -0.462189 -0.271928 0.489133 -0.00595646 0.0744388 0.28408 -0.670598 0.246998 -0.077732 -0.486879 0.159324 -0.176613 -0.309855 0.392655 0.0504545 0.0496936 0.245115 -0.198674 0.0726942 -0.351361 0.388451 -0.547404 0.0552113 0.194935 -0.497492 0.0823443 0.541252 0.133351 -0.177841 -0.0725251 0.0779351 0.508903 -0.46914 0.111318 -0.0644745 0.580732 0.0523112 0.119896 -0.809525 0.011334 0.440685 -0.275475 0.0031507 -0.429919 0.221024 0.0211991 -0.0832477 0.130651 0.26084 -0.852569 -0.355685 0.0511284 0.502004 -0.141121 -0.0771278 0.378333 0.049988 0.333839 0.118873 0.362787 0.538159 -0.340469 -0.00453671 -0.596931 -0.103358 -0.512573 0.0152535 -0.0247025 0.432437 -0.00170144 0.0959863 -0.00180737 -0.202419 -0.247849 0.471681 0.336745 -0.222272 0.263099 -0.0451808 0.215184 -0.366905 0.169984 0.20808 -0.507414 0.0607699 -0.149137 -0.0627126 -0.827912 0.500621 0.390474 -0.755624 0.188736 -0.0401217 -0.0602187
700 0.219272 0.570821 -0.154062 0.0637211 -0.324318 -4.69834e-05 0.234775 0.204349 -0.114611 -0.242948 -0.189162 -0.194789 -0.377726 0.0765722 0.194106 0.0262654 -0.106575 -0.467827 0.165551 -0.159053 0.00308242 0.0509677 -0.153154 -0.117705 0.0292525 0.424723 0.16493 -0.224573 -0.127349 0.132591 -0.469874 0.163735 -0.35104 -0.00291183 -0.456585 -0.263679 0.519183 -0.0691906 0.0405817 0.282275 -0.761145 0.240379 -0.0840787 -0.455126 0.174423 -0.123641 -0.307061 0.288073 0.0444148 0.114464 0.192233 -0.177145 0.0999392 -0.366846 0.404349 -0.472151 0.0739671 0.260083 -0.430395 0.0799942 0.560615 0.0669827 -0.152975 -0.140419 -0.054439 0.516626 -0.601248 0.14299 -0.118998 0.673117 0.0756172 0.114449 -0.965388 -0.0283841 0.484545 -0.237677 0.0125516 -0.454542 0.170418 -0.0897473 -0.144177 0.126464 0.213124 -0.83667 -0.277535 0.0716775 0.520226 -0.116812 -0.117614 0.389089 0.0364947 0.354449 0.0868221 0.381441 0.555026 -0.300449 -0.0719271 -0.630301 -0.1535 -0.542682 0.0396281 -0.0252051 0.483355 -0.0593567 0.0873083 -0.00812173 -0.171942 -0.241595 0.488963 0.300831 -0.266774 0.326578 -0.0521383 0.233366 -0.429045 0.216777 0.282063 -0.490632 -0.00234469 -0.0787068 -0.165721 -0.799568 0.471277 0.387656 -0.712578 0.197136 -0.0119701 -0.052495
698 0.237101 0.495607 -0.0855944 0.0135366 -0.231661 -0.0521876 0.242451 0.164387 -0.0965225 -0.115355 -0.13579 -0.187798 -0.19396 -0.0153297 0.075338 0.012924 -0.143475 -0.483774 0.0277114 -0.197385 0.00349161 0.109331 -0.120779 -0.224858 0.0991534 0.466097 0.272125 -0.298671 -0.108657 0.270153 -0.481766 0.182037 -0.30684 -0.044518 -0.349692 -0.176571 0.414904 -0.0395398 0.038233 0.294362 -0.607663 0.269989 -0.0325563 -0.532217 0.160593 -0.101389 -0.198641 0.223965 0.0307811 0.0758151 0.155455 -0.0309025 0.158672 -0.237073 0.402973 -0.43223 0.0873881 0.307836 -0.355755 0.0209727 0.535058 0.0418283 -0.0312883 -0.10031 -0.0667373 0.687163 -0.569469 0.153615 -0.0931593 0.596512 0.00985178 0.229163 -0.895491 0.000759011 0.495953 -0.264958 0.0953522 -0.402497 0.134546 -0.167142 -0.169172 0.0806702 0.214556 -0.677724 -0.266242 0.101676 0.653768 -0.0318837 -0.00962192 0.408234 -0.00960961 0.546639 -0.0089685 0.433158 0.551813 -0.315188 -0.02343 -0.609101 -0.0929474 -0.577128 0.175443 0.0233243 0.53756 -0.0425448 0.0658383 0.108656 -0.0772639 -0.22015 0.679046 0.398967 -0.237 0.184118 -0.226998 0.157157 -0.391311 0.193199 0.202112 -0.546618 -0.0157973 -0.00625585 -0.140685 -0.785767 0.526537 0.354838 -0.661738 0.22636 0.132618 -0.0046715
697 0.212636 0.414273 -0.186122 -0.0348064 -0.272745 0.0780914 0.0102807 0.234721 -0.0836458 -0.1611 -0.149779 -0.270112 -0.347789 0.105241 0.163514 0.119852 0.0140735 -0.312293 0.177499 -0.0965902 0.287613 0.167234 -0.201092 -0.194238 0.29263 0.478542 0.265809 -0.159511 -0.236146 0.301311 -0.470556 0.222005 -0.230954 -0.125761 -0.262594 -0.11333 0.187136 -0.0575303 0.0704946 0.185302 -0.73868 0.292892 0.0143095 -0.361256 0.184165 -0.0594475 -0.180836 0.150342 -0.197955 0.139477 -0.00744406 -0.0953838 0.081739 -0.046315 0.536709 -0.421938 0.0149399 0.184505 -0.293 -0.0232242 0.466963 0.0885462 -0.000207364 -0.116631 -0.0569643 0.618429 -0.63252 0.217221 -0.098221 0.711428 -0.115001 0.214259 -0.894482 -0.0428958 0.283945 -0.174369 0.0144151 -0.535277 0.157319 -0.336351 -0.267287 0.149728 0.110051 -0.923791 -0.310622 0.149937 0.792113 -0.24365 -0.124605 0.40788 0.133528 0.556713 0.0972229 0.370023 0.550847 -0.323574 -0.129097 -0.586967 -0.160999 -0.49927 0.120435 0.0219767 0.494599 -0.118691 0.107089 0.0163003 -0.0833608 -0.306621 0.361037 0.438893 -0.0681255 0.112398 -0.219694 0.229139 -0.575099 0.0464453 0.192186 -0.56054 0.0570647 0.107368 -0.233409 -0.789775 0.54762 0.467547 -0.770166 0.0900656 0.176752 -0.000500525
499 0.309184 0.436424 -0.181341 0.2597 -0.193847 -0.076333 0.293626 0.127894 -0.0594123 -0.0602658 -0.00287933 -0.207529 -0.448013 -0.312886 0.271441 0.0530102 -0.175662 -0.412992 0.0437777 -0.114099 -0.186384 0.336246 -0.0923682 -0.205717 0.221787 0.255409 0.136984 -0.256224 0.00663538 0.138451 -0.124029 0.113702 -0.394182 -0.00848465 -0.215809 -0.203064 0.466714 -0.0277388 -0.0308698 0.128198 -0.498776 0.10701 -0.0898042 -0.522487 0.0329914 -0.253909 -0.287644 0.217114 -0.123988 0.133702 0.104499 -0.166751 0.35444 -0.213794 0.462793 -0.399177 -0.0135058 0.160633 -0.358909 0.0131897 0.541153 0.0252238 0.0503619 -0.189356 -0.0630082 0.768412 -0.630392 0.153865 -0.115228 0.705721 0.0831154 0.199266 -0.808321 0.23864 0.476486 0.0229748 0.0115131 -0.556577 0.201879 -0.165094 -0.277759 0.142191 0.059595 -0.674263 -0.350571 -0.108434 0.66144 -0.188373 0.0501559 0.316258 0.0417564 0.400131 0.0535038 0.291609 0.770577 -0.395079 -0.193628 -0.641046 0.170314 -0.606577 0.411568 -0.154326 0.351257 0.0742109 0.168965 0.0249859 -0.11976 -0.467603 0.608406 0.433612 -0.164498 0.103375 -0.124441 0.206957 -0.372266 0.0610631 0.0214145 -0.371784 0.125769 0.183549 0.121143 -0.684299 0.535866 0.320395 -0.421832 0.26646 0.360059 -0.136007
181 0.428304 0.310515 -0.0658452 0.0737891 -0.122347 0.0121607 0.390088 0.0925769 -0.154233 -0.0473457 0.0517264 -0.164586 -0.221877 -0.34129 0.162854 -0.0130049 -0.391795 -0.630076 -0.0576401 -0.0726328 -0.021699 0.366608 -0.137244 -0.253656 0.230956 0.474276 0.200643 -0.298362 -0.00915038 0.245891 -0.117024 0.0572005 -0.329156 -0.0747218 -0.171324 -0.278065 0.267116 0.00150365 0.07918 0.121683 -0.354398 0.0535198 -0.112177 -0.491674 0.114783 -0.109304 -0.1925 0.367343 -0.115378 0.106842 0.308395 -0.245014 0.431358 -0.360197 0.466822 -0.355929 -0.106993 0.198105 -0.435895 -0.14322 0.372403 0.0725483 0.0984965 -0.129086 -0.163088 0.74674 -0.605765 0.327639 -0.0891199 0.720561 0.0124759 0.0886104 -0.830389 0.203847 0.322562 -0.119458 0.0638903 -0.344965 0.0847414 -0.112172 -0.147739 0.143262 0.0430174 -0.850635 -0.541939 -0.199632 0.606608 -0.354747 0.0672402 0.39836 0.140932 0.201232 0.0898783 0.1562 0.483648 -0.263572 -0.293724 -0.423672 -0.0178196 -0.453622 0.265666 -0.284525 0.342076 0.0125622 0.143685 -0.136799 -0.0931794 -0.48183 0.501398 0.322356 -0.108289 0.181934 -0.0212837 0.217132 -0.522907 0.131007 0.0988844 -0.464802 0.270386 0.111977 0.0961101 -0.745781 0.560827 0.563963 -0.611929 0.266231 0.482966 -0.297683
1049 0.446307 0.580495 -0.0914954 0.112646 -0.139709 -0.0697026 0.443063 0.113515 -0.126301 0.036922 0.10945 -0.187956 -0.272853 -0.429626 0.196957 -0.0370804 -0.458724 -0.79367 -0.0613429 -0.0824039 0.0233338 0.323623 -0.085598 -0.311699 0.198719 0.33258 0.211223 -0.265402 -0.122528 0.208778 -0.0767457 0.0776016 -0.378834 -0.0153416 -0.167168 -0.331898 0.26051 0.0600867 0.0690801 0.214917 -0.188106 -0.032968 -0.185444 -0.257367 0.132016 -0.104935 -0.178541 0.299233 -0.0363403 0.0717701 0.225678 -0.18446 0.353567 -0.275972 0.39032 -0.289555 0.0796035 0.0704152 -0.352631 0.0136628 0.382292 0.0263136 0.0220687 -0.099963 -0.289799 0.673548 -0.668613 0.256697 -0.0150365 0.723433 0.117769 0.0758653 -0.942105 0.204198 0.307559 -0.104987 0.0202535 -0.429804 0.00659125 -0.22259 -0.101089 0.0949043 0.0340748 -0.825854 -0.609564 -0.351643 0.614306 -0.41923 0.0744288 0.332022 0.190427 0.213682 0.0881842 0.201246 0.542956 -0.251316 -0.350882 -0.404992 -0.115642 -0.34603 0.306446 -0.226016 0.36616 -0.0386949 0.178571 -0.276824 -0.191688 -0.642893 0.543928 0.428286 -0.180815 0.33589 0.0484797 0.194636 -0.385518 0.110485 0.0789621 -0.508409 0.254013 0.0641534 0.0801809 -0.730069 0.445346 0.570483 -0.77458 0.304767 0.611619 -0.492699
1050 0.438679 0.469761 -0.0602611 0.0741231 -0.0914156 -0.117904 0.496231 0.0902774 -0.172536 0.0166671 0.152641 -0.203627 -0.334445 -0.511297 0.245627 -0.046542 -0.459145 -0.828534 -0.054317 0.0757688 -0.0342322 0.329706 -0.0806583 -0.306777 0.154434 0.270182 0.178661 -0.334162 -0.140143 0.229347 -0.00792299 -0.0140072 -0.400978 0.022657 -0.209756 -0.447044 0.29116 0.0340448 0.0772205 0.224852 -0.236697 -0.150575 -0.259284 -0.205895 0.0989825 -0.146533 -0.208669 0.381047 -0.0432436 0.0428633 0.26657 -0.189652 0.358702 -0.360633 0.374423 -0.282805 0.152795 0.0317726 -0.404299 0.0216629 0.334328 0.0533626 0.0211978 -0.114181 -0.321966 0.631554 -0.656089 0.245606 -0.0578041 0.739776 0.129582 0.0290485 -0.938567 0.212396 0.237067 -0.119623 0.0213373 -0.391081 -0.0759628 -0.244058 -0.107616 0.0720351 -0.0161827 -0.924708 -0.641794 -0.399835 0.619928 -0.503581 0.0696372 0.407979 0.268682 0.154703 0.0843345 0.166308 0.453371 -0.23253 -0.382894 -0.363824 -0.129305 -0.297356 0.237862 -0.213368 0.323275 -0.0421258 0.210791 -0.275684 -0.138821 -0.617499 0.559926 0.471125 -0.218499 0.341643 0.0503686 0.171257 -0.360249 0.102785 0.119491 -0.517809 0.222948 0.0408609 0.123709 -0.688757 0.386887 0.544785 -0.738907 0.335399 0.622304 -0.527902
1051 0.493015 0.474425 -0.0467516 0.023798 -0.116424 -0.134657 0.526367 0.156608 -0.171059 -0.00819251 0.190423 -0.208725 -0.426504 -0.599909 0.263474 -0.038454 -0.462717 -0.789652 -0.00897178 0.145915 -0.0234631 0.347983 -0.136252 -0.292177 0.111393 0.259946 0.148382 -0.36444 -0.177555 0.300067 -0.0726217 -0.0889543 -0.379175 -0.0052904 -0.231298 -0.51258 0.283206 0.0294435 0.107535 0.218615 -0.3087 -0.189387 -0.285578 -0.214497 0.0723252 -0.167734 -0.182125 0.385117 -0.0813457 -0.0274485 0.266471 -0.138929 0.34065 -0.368935 0.384461 -0.300241 0.178773 0.00245265 -0.404838 -0.0266864 0.263064 0.0918327 0.0264706 -0.115449 -0.280593 0.643001 -0.604764 0.25246 -0.0922977 0.75452 0.150649 0.0598823 -0.911392 0.200627 0.162068 -0.165991 0.0175851 -0.338982 -0.142953 -0.311398 -0.114886 0.0389271 -0.0545583 -1.0426 -0.651475 -0.40438 0.660718 -0.524946 0.109912 0.45638 0.377298 0.13981 0.0609469 0.153381 0.343184 -0.216664 -0.403541 -0.337839 -0.153825 -0.304855 0.190904 -0.205745 0.309067 -0.0612294 0.211438 -0.249751 -0.0514529 -0.63112 0.57784 0.507326 -0.235492 0.331188 0.0189944 0.173388 -0.39111 0.096576 0.130481 -0.507506 0.212256 0.042623 0.0961474 -0.643317 0.361948 0.523022 -0.742779 0.335607 0.629404 -0.523513
235 0.492389 0.41627 -0.105436 0.0764239 -0.100694 -0.136235 0.428182 0.192174 -0.122517 0.0591111 0.0687032 -0.19182 -0.319181 -0.470904 0.245712 -0.0388197 -0.396676 -0.691372 -0.0430651 0.0657221 -0.0986722 0.432826 -0.111294 -0.274237 0.16448 0.386492 0.17469 -0.325265 -0.110734 0.197332 -0.0276366 0.0244185 -0.412479 0.000954684 -0.242063 -0.44872 0.359206 -0.0929669 0.114643 0.212324 -0.365372 -0.165832 -0.270525 -0.247687 0.0780411 -0.244441 -0.223489 0.390781 -0.06007 0.0482177 0.307679 -0.167743 0.306631 -0.263054 0.437244 -0.332296 0.0412303 0.0230227 -0.398472 0.0119901 0.34173 0.115731 -0.00142998 -0.0985402 -0.205506 0.588662 -0.531117 0.232009 -0.0606223 0.752385 0.123047 0.0700817 -0.854629 0.165036 0.2081 -0.118009 -0.0060491 -0.377472 3.18471e-05 -0.211218 -0.0766713 0.0960232 0.00610369 -0.927099 -0.604695 -0.291453 0.641436 -0.421237 0.0388647 0.356678 0.262066 0.120141 0.120234 0.168643 0.469693 -0.267649 -0.299167 -0.419696 -0.0892989 -0.371928 0.240181 -0.20945 0.375716 -0.0261937 0.246494 -0.253071 -0.193804 -0.700603 0.482204 0.458811 -0.107911 0.214342 0.0497153 0.209083 -0.380371 0.0366395 0.0565804 -0.474704 0.203212 0.026086 0.101935 -0.692872 0.43095 0.503638 -0.730751 0.284878 0.470117 -0.451187
236 0.369826 0.367655 -0.0268167 0.090438 -0.126409 0.0281365 0.308884 0.160947 -0.144747 -0.00883247 0.00675797 -0.0778764 -0.146421 -0.248911 0.104081 0.077455 -0.283969 -0.498359 0.0699954 0.00319187 -0.0915969 0.238979 -0.100557 -0.237712 0.108183 0.350858 0.122787 -0.395098 0.0178958 0.212647 -0.131193 -0.0646074 -0.311007 -0.00780696 -0.353011 -0.404301 0.433371 0.00123216 0.171216 0.256099 -0.440388 -0.0851408 -0.223762 -0.434378 0.11202 -0.273811 -0.32102 0.511447 -0.0973362 0.040938 0.295219 -0.19342 0.230842 -0.256392 0.335964 -0.272049 -0.149074 0.169525 -0.458205 -0.162045 0.184991 0.233435 0.0924694 -0.0732647 -0.0771059 0.660106 -0.38023 0.272844 -0.09997 0.757324 0.0497496 0.10102 -0.664307 0.332226 0.072898 -0.116195 0.0242343 -0.207666 0.0621907 -0.102495 0.035614 0.086576 0.122384 -0.898783 -0.681709 -0.197326 0.427417 -0.361486 0.15894 0.345408 0.319753 -0.0436392 0.209176 0.0570347 0.257348 -0.176311 -0.345158 -0.444445 0.0030996 -0.411036 0.187225 -0.395782 0.432134 0.145783 0.191395 -0.274258 -0.191102 -0.816436 0.502696 0.388956 0.0444382 0.147305 0.0869071 0.139132 -0.373551 -0.0172443 -0.0369673 -0.51594 0.32324 -0.000190055 0.136609 -0.665247 0.561214 0.483606 -0.700721 0.164619 0.456258 -0.590058
718 0.566946 0.433735 -0.0954496 0.169137 -0.216618 -0.0194705 0.470375 0.294342 -0.155852 -0.121442 -0.285352 -0.126352 -0.143463 -0.157675 0.352192 0.169835 -0.375819 -0.499587 0.146232 -0.0230385 -0.0949047 0.252022 -0.0790392 -0.0795879 0.00241601 0.32265 -0.0508792 -0.321313 -0.062647 0.0229315 -0.138931 -0.108188 -0.369446 0.024644 -0.50484 -0.498679 0.512399 -0.0771753 0.202345 0.265304 -0.471704 -0.0584858 -0.149786 -0.35178 0.0551428 -0.2519 -0.392267 0.475025 -0.111184 0.0058552 0.161837 -0.301468 0.0732673 -0.275581 0.241215 -0.285349 -0.111607 0.179311 -0.478608 -0.103604 0.203792 0.215835 -0.0733018 -0.157817 0.042354 0.560092 -0.341612 0.183891 -0.129093 0.731805 0.103109 -0.0947568 -0.729018 0.196321 0.147035 -0.212834 0.0346654 -0.30931 0.146176 -0.116102 -0.0680449 0.150495 0.338372 -1.05059 -0.678465 -0.0845531 0.389227 -0.487231 -0.115701 0.419087 0.266489 0.00423981 0.252334 0.216537 0.374827 -0.240433 -0.226869 -0.546428 -0.183856 -0.436121 0.058304 -0.39096 0.541389 0.0890625 0.225382 -0.302054 -0.315249 -0.660561 0.472281 0.316311 -0.10078 0.246773 0.185655 0.270269 -0.408481 0.0325547 0.107332 -0.554351 0.241632 -0.0798899 0.0766748 -0.755843 0.52357 0.519861 -0.697794 0.173668 0.15479 -0.348943
501 0.338526 0.336434 -0.0831539 0.0790208 -0.233769 0.060462 0.295408 0.158428 -0.0320839 -0.0943969 0.00533337 -0.0895853 -0.280486 -0.274253 0.253523 0.0193637 -0.250604 -0.60429 0.132297 -0.0190081 -0.0749362 0.472833 -0.290981 -0.184014 0.302635 0.654674 0.0731121 -0.322245 0.0524387 0.195534 -0.232822 0.0051306 -0.414264 -0.039789 -0.409353 -0.383352 0.521341 -0.162523 0.0975402 0.298546 -0.528931 -0.14977 -0.244459 -0.295049 0.0728061 -0.236397 -0.468755 0.404457 -0.0698996 0.0477222 0.447431 -0.219889 0.294144 -0.166532 0.515769 -0.279879 -0.0506091 0.211838 -0.384008 -0.0875182 0.357441 0.189531 0.0442153 -0.0952329 -0.0610678 0.548911 -0.380245 0.256415 -0.142846 0.825441 0.0277316 0.0645441 -0.662887 0.264054 0.105981 -0.0464967 -0.0156848 -0.394926 0.147808 -0.138102 -0.229858 0.142841 0.038065 -1.06574 -0.640774 -0.126154 0.587005 -0.466232 0.011786 0.411273 0.350026 0.0814192 0.204014 0.186341 0.573404 -0.344527 -0.324191 -0.579488 0.0200416 -0.433766 0.203452 -0.298786 0.474515 0.0766066 0.192043 -0.168035 -0.234681 -0.789124 0.504928 0.514771 -0.132579 0.190763 0.0351813 0.24903 -0.41707 -0.0425227 0.0388857 -0.461062 0.147783 0.0376447 -0.0306677 -0.625888 0.515139 0.429233 -0.607546 0.204397 0.352987 -0.386601
500 0.270529 0.291637 -0.0395662 -0.000122423 -0.245461 0.00287064 0.222703 0.0926213 0.00741837 -0.136139 0.0157241 -0.0982859 -0.311672 -0.235627 0.210684 0.0162057 -0.224678 -0.642436 0.157221 0.00620699 -0.0996331 0.472652 -0.305109 -0.272022 0.365631 0.681486 0.120608 -0.328371 -0.017608 0.198817 -0.278758 0.0328858 -0.474486 0.0296714 -0.360824 -0.340548 0.510363 -0.159935 0.0504788 0.250173 -0.645788 -0.128966 -0.234885 -0.376166 0.0730909 -0.224709 -0.448241 0.366994 -0.0582744 0.0944265 0.400299 -0.155134 0.311671 -0.219788 0.536716 -0.358543 0.0261097 0.254775 -0.445681 -0.0167338 0.444447 0.17066 0.0517706 -0.157168 -0.116039 0.56715 -0.48014 0.204383 -0.141664 0.782022 0.0344144 0.138942 -0.7962 0.212181 0.167122 -0.0387091 -0.0568507 -0.383384 0.109966 -0.11772 -0.228862 0.139741 0.0370469 -1.03071 -0.526624 -0.0989099 0.631778 -0.390365 0.0135205 0.406156 0.264526 0.13974 0.169408 0.216933 0.594279 -0.362708 -0.315741 -0.619379 0.0708381 -0.428261 0.186338 -0.133623 0.426241 0.0468888 0.179678 -0.0248174 -0.209866 -0.64946 0.519016 0.471411 -0.156031 0.179027 -0.0352787 0.254378 -0.413119 0.00241277 0.0674667 -0.521786 0.100152 0.100793 -0.0129105 -0.72319 0.508776 0.397847 -0.592563 0.249494 0.336636 -0.347354
186 0.50096 0.359226 -0.182736 0.233279 -0.246198 -0.036192 0.492921 0.395204 -0.205505 -0.121593 -0.362765 -0.189053 -0.247704 -0.0806271 0.355564 0.100734 -0.339031 -0.480845 0.174826 -0.0480067 -0.105871 0.14458 -0.0422427 -0.00963492 -0.0872906 0.223223 0.00329872 -0.336046 -0.0778116 0.0612272 -0.218844 -0.0383035 -0.319129 0.00551937 -0.512329 -0.43618 0.600446 -0.0459389 0.162113 0.291548 -0.513978 0.0793393 -0.0421633 -0.315146 0.100272 -0.194716 -0.340575 0.405833 -0.095179 0.0144253 0.0306561 -0.27799 -0.0287422 -0.246524 0.220319 -0.340365 -0.0907944 0.128447 -0.502326 -0.0079683 0.325701 0.254747 -0.154809 -0.139144 0.116789 0.590449 -0.392392 0.110046 -0.119424 0.686649 0.0468709 -0.0931635 -0.833038 0.0686333 0.233741 -0.342105 0.0784109 -0.271985 0.189233 -0.114622 -0.0636621 0.201911 0.389488 -1.10525 -0.572724 -0.030185 0.471676 -0.432822 -0.162161 0.46541 0.21854 0.13599 0.209037 0.276943 0.398371 -0.292765 -0.141914 -0.548014 -0.269744 -0.475683 0.0289566 -0.337381 0.602363 0.0732354 0.203099 -0.236159 -0.272105 -0.469617 0.444935 0.297371 -0.113611 0.255811 0.195515 0.257712 -0.456344 0.10302 0.236465 -0.593095 0.247163 -0.0982976 0.0513516 -0.785757 0.475756 0.495063 -0.816746 0.178765 -0.0675964 -0.218985
188 0.31967 0.289607 -0.19675 0.0805721 -0.206913 -0.0670791 0.191989 0.267073 -0.162375 -0.130778 -0.290552 -0.141083 -0.228616 0.0141824 0.253097 0.0588093 -0.123897 -0.352037 0.197694 -0.0811092 -0.10146 0.150324 -0.181361 -0.0791215 -0.0865765 0.302468 0.0746431 -0.246447 -0.0921226 0.0763509 -0.367944 -0.000107882 -0.249498 -0.106477 -0.542178 -0.414545 0.533501 -0.0517163 0.100955 0.245047 -0.720973 0.158108 -0.0722622 -0.451604 0.154294 -0.244744 -0.342883 0.41194 -0.054245 0.0706494 0.121117 -0.213855 0.0272423 -0.39742 0.299346 -0.504331 -0.0647777 0.129452 -0.45108 0.0401931 0.352832 0.196164 -0.239371 -0.102574 0.183281 0.472457 -0.252857 0.0905928 -0.147657 0.574142 0.0395451 0.0280907 -0.80412 0.019848 0.282524 -0.376682 0.0828734 -0.251573 0.273775 -0.0844246 -0.0765498 0.232403 0.398349 -1.10274 -0.35133 0.0604415 0.42375 -0.17846 -0.145001 0.481225 0.15427 0.136758 0.14607 0.324421 0.363179 -0.214739 -0.0560846 -0.583567 -0.290037 -0.54375 -0.0352808 -0.206742 0.543285 0.0565138 0.159724 -0.168589 -0.187152 -0.384912 0.461802 0.261382 -0.169381 0.345902 0.0914084 0.258283 -0.366342 0.231854 0.284245 -0.430549 0.193627 -0.192323 -0.0213246 -0.649633 0.41821 0.402135 -0.974545 0.198222 -0.155673 -0.193363
187 0.480751 0.649771 -0.244789 0.22032 -0.366847 -0.0433752 0.431976 0.340297 -0.196573 -0.292638 -0.417938 -0.199944 -0.248667 0.0730277 0.34479 0.162453 -0.242558 -0.415088 0.269054 -0.143624 -0.0613445 0.0510733 -0.116148 0.0310329 -0.223492 0.23706 -0.0312873 -0.226629 -0.17657 0.0986883 -0.389141 -0.0713814 -0.176447 -0.0205585 -0.560599 -0.36044 0.51385 -0.0439105 0.142593 0.184291 -0.571053 0.186222 0.0318795 -0.293365 0.101863 -0.23259 -0.304326 0.347083 -0.00935906 0.0868875 0.0639783 -0.244139 -0.0772512 -0.320073 0.237894 -0.390462 -0.058822 0.223884 -0.480587 -0.0189759 0.378129 0.236768 -0.173448 -0.142236 0.135102 0.493057 -0.313495 0.102025 -0.183543 0.691058 0.0220711 -0.0708667 -0.776521 0.0427964 0.226144 -0.338031 0.135156 -0.28645 0.23613 -0.108556 -0.105575 0.14635 0.403912 -1.10324 -0.490957 0.014048 0.534414 -0.405566 -0.202301 0.48774 0.25497 0.166195 0.276419 0.352729 0.373281 -0.269981 -0.0931635 -0.632889 -0.265041 -0.599332 -0.0690907 -0.341294 0.676534 -0.000132925 0.132516 -0.288089 -0.341828 -0.536084 0.48182 0.285659 -0.242032 0.311069 0.177509 0.2285 -0.473496 0.157781 0.264664 -0.611715 0.165437 -0.132736 -0.00783624 -0.783668 0.398782 0.428673 -0.980794 0.149072 -0.0939383 -0.288059
185 0.603585 0.544658 -0.177875 0.192096 -0.143605 -0.109687 0.505392 0.345699 -0.319777 -0.158645 -0.384622 -0.334335 -0.217871 -0.0728614 0.439554 0.089494 -0.467366 -0.818876 0.0734459 -0.107958 0.00853362 0.11863 -0.0298449 -0.0965201 -0.213413 0.194989 0.0758984 -0.226717 -0.147498 0.0458481 -0.221132 0.00899447 -0.320429 -0.0532252 -0.424445 -0.474363 0.459325 -0.0191272 0.129333 0.220091 -0.385935 0.105132 -0.107458 -0.274091 0.0773785 -0.139287 -0.192075 0.350878 -0.0827033 0.0539246 0.0221654 -0.248288 0.0151233 -0.405604 0.270839 -0.378766 -0.00764879 0.0185952 -0.497135 0.0824606 0.325997 0.12933 -0.238624 -0.151387 0.0144586 0.444868 -0.478723 0.15331 -0.0397644 0.603225 0.0811156 -0.184443 -0.921073 0.0374339 0.357983 -0.343793 0.067247 -0.309298 0.132515 -0.0836568 -0.0617104 0.153605 0.355048 -1.10363 -0.622231 -0.0911989 0.462288 -0.424725 -0.266307 0.489481 0.122573 0.192433 0.203279 0.344134 0.50105 -0.330935 -0.145903 -0.595879 -0.372724 -0.459587 0.0602753 -0.346457 0.594283 -0.0135985 0.255427 -0.339825 -0.305425 -0.46983 0.457268 0.257809 -0.23084 0.437435 0.228986 0.299682 -0.442665 0.143089 0.252253 -0.534659 0.250809 -0.182061 0.0424885 -0.800926 0.477833 0.549985 -0.912131 0.262875 0.0681114 -0.310227
