39 128
33 0.0227966 -0.0264942 -0.00197845 0.214673 0.015059 -0.120561 0.153408 0.0402406 0.00127516 0.0294117 0.0124119 0.0385597 0.0300963 -0.0818235 -0.0218055 0.135625 -0.331865 0.284653 -0.132101 -0.00528157 -0.330335 0.091231 0.132028 -0.00685386 -0.187106 -0.0820241 0.0908646 0.028974 -0.0231637 0.009883 0.196275 -0.120027 0.164309 0.128699 0.0284159 -0.0633987 -4.30219e-05 0.00280344 -0.00140038 0.0459068 0.0835039 0.0484977 0.0122752 0.0168032 -0.0092684 -0.0446699 0.0484871 0.313913 0.056389 0.0536289 -0.0545053 -0.135724 -0.0217369 0.171324 -0.159409 -0.169735 0.103051 0.0249472 0.0284317 -0.252283 -0.0760605 0.21231 -0.331624 0.144919 -0.0720581 -0.121004 -0.0453717 0.0206137 0.179861 -0.308158 0.201089 -0.0505564 0.181543 0.138498 0.464243 0.126615 0.10164 -0.420151 0.234155 0.293159 0.364028 -0.182333 -0.311996 0.182535 0.242471 0.263494 0.00589579 0.099304 -0.143907 0.163846 0.560193 -0.113536 -0.519046 0.00101655 -0.427736 0.118254 -0.235084 -0.416846 -0.199486 0.448789 0.472362 0.0530191 0.0604371 0.0993536 -0.165489 -0.417576 -0.477642 0.248001 0.414569 -0.106244 0.328257 -0.161514 0.337134 -0.0307988 -0.205781 -0.147273 -0.371828 -0.273531 0.179141 -0.284715 -0.460651 -0.0552025 0.305166 -0.232158 0.239351 -0.838277 -0.520717 0.106124
36 0.0589618 0.00284578 -0.0565056 0.15831 0.00606618 0.0345375 0.0308744 0.0176836 -0.0318702 0.013295 0.000821043 0.108377 -0.000762403 -0.0462126 -0.0104796 0.129903 -0.0750034 0.03847 -0.0158089 -0.0283054 -0.0612558 0.0346913 0.00884641 -0.0119981 -0.0442236 -0.00809504 0.0403225 -4.81401e-05 0.0177184 0.0640416 -0.0730371 0.0648479 -0.142614 -0.116224 0.00768191 -0.0135658 0.000393408 0.0319279 0.00912739 0.0263863 -0.126752 -0.0681232 0.00943936 0.000747061 -0.0151787 0.0641913 0.0185904 0.13757 0.0343013 0.0794578 -0.0133431 -0.0463031 -0.0277585 0.156283 -0.0950188 -0.101956 0.0723296 0.0213212 0.0172916 -0.0568778 -0.0231606 0.0704214 -0.0744964 0.0738858 -0.0576557 -0.0793498 -0.0566006 -0.0104396 0.158335 -0.231919 0.0654051 -0.0193398 0.0955058 0.0782714 0.291742 0.111462 0.121587 -0.297344 0.176151 0.208511 0.247322 -0.133883 -0.378448 0.219777 0.241341 0.304022 0.0611077 0.032055 -0.100906 0.130668 0.473547 -0.107054 -0.43828 -0.0268064 -0.269051 0.0997883 -0.172037 -0.33865 -0.09582 0.270036 0.334523 0.0353276 0.0404078 0.0563027 -0.215321 -0.448356 -0.419433 0.247392 0.381314 -0.0822688 0.454801 -0.187248 0.387826 -0.0390542 -0.230655 -0.214502 -0.408156 -0.276306 0.151985 -0.36277 -0.56666 -0.0636376 0.358587 -0.323175 0.27343 -0.859785 -0.597709 0.136142
11 0.0387923 0.0353603 0.0366731 -0.0285077 0.043838 -0.399893 0.0916391 0.04832 -0.0796665 0.0765365 -0.0330158 -0.0807163 0.0640018 -0.0330665 0.00477292 0.159238 -0.164099 0.0799385 -0.0964046 0.0441682 0.148617 -0.0523604 0.016039 -0.0025645 -0.0594689 -0.0376559 -0.018529 0.0273873 0.0316492 -0.0323802 0.0699537 0.00614478 0.0656988 0.0446068 -0.0397193 0.0527326 -0.0608313 0.00814089 -0.0583539 0.011639 0.0132477 0.0300897 -0.0468828 -0.0501773 -0.0360379 -0.0306156 0.0354823 0.21012 0.089332 0.132749 -0.0249458 -0.116906 0.0621368 0.180382 -0.115437 0.0148519 0.0220962 -0.0642519 0.0330448 -0.140466 -0.056728 0.0588657 -0.0914589 0.0119286 0.0849241 0.0404844 0.0163889 -0.0123931 0.162216 -0.239793 0.0633271 0.0166858 0.137987 0.155314 0.429189 0.204625 0.125614 -0.261316 0.0914966 0.181864 0.288877 -0.0664128 -0.42112 0.315498 0.188997 0.188008 -0.109515 -0.00214464 -0.204054 0.236635 0.486698 -0.22081 -0.517775 -0.00438749 -0.293444 0.152748 -0.207655 -0.342308 -0.168511 0.474732 0.435416 0.0044411 0.0538347 0.129422 -0.191317 -0.577191 -0.464656 0.302103 0.370706 -0.0395259 0.288965 -0.136109 0.307791 0.096329 -0.162344 -0.162251 -0.276452 -0.328102 0.171347 -0.321772 -0.45189 -0.0555363 0.306142 -0.388001 0.147656 -0.910904 -0.551919 0.0693116
7 -0.296883 -0.0269624 -0.0269291 -0.174041 0.0680547 -0.214385 0.118877 0.0775989 -0.106842 0.085264 0.0058044 0.0747307 0.0518722 0.0717028 0.0441785 0.285387 -0.0324055 -0.0442252 -0.0259729 0.0124357 0.201669 -0.0365397 -0.0502807 -0.0126594 0.0239086 0.00937044 -0.111074 0.00665697 0.0713993 -0.0493744 0.0601262 0.0139579 -0.00911997 -0.101711 -0.00738013 0.0215446 -0.0375802 0.0715548 -0.118206 -0.0752748 -0.0261405 -0.00865356 0.0439551 -0.0553066 -0.0372946 0.0112846 -0.0128202 0.220526 0.0609668 0.0794569 0.0277924 -0.0819523 0.0724295 0.0605933 -0.0524022 -0.0163894 0.00200776 -0.0277204 0.0258925 -0.20592 -0.0787046 0.00229245 -0.287472 0.0882275 -0.134399 -0.187069 -0.103456 0.0327985 0.114103 -0.183961 0.142414 -0.0657494 0.211038 0.211628 0.336743 0.144607 0.115849 -0.280394 0.331682 0.38799 0.377596 -0.142762 -0.319471 0.215153 0.235321 0.238682 -0.0233676 0.0407959 -0.190998 0.251169 0.567229 -0.191109 -0.455046 0.0220208 -0.483894 0.168739 -0.202299 -0.328097 -0.125865 0.249316 0.335617 0.0302098 0.0811164 0.0465454 -0.14063 -0.486705 -0.400103 0.26888 0.372593 -0.0659137 0.451723 -0.172614 0.380405 0.0620203 -0.207677 -0.197337 -0.41864 -0.407148 0.232723 -0.34234 -0.534585 -0.111252 0.268959 -0.313779 0.132895 -0.920004 -0.635905 0.0912182
30 -0.0605788 -0.0476443 -0.00648759 -0.103952 -0.0102236 0.211705 -0.125428 -0.0688578 0.0890704 -0.116213 -0.0156129 -0.242449 -0.00678726 0.0111159 0.0133321 -0.0916507 -0.186893 0.135793 -0.187515 0.0476209 -0.392826 0.174637 0.0640231 -0.0748036 -0.274972 -0.0657405 0.191447 0.0485465 0.00387743 0.0804626 -0.0646476 0.0501945 0.0726369 0.0512277 0.0052695 0.0357422 -0.0551696 -0.0494081 -0.0700638 0.0165092 0.0174053 0.136051 -0.0559626 -0.0145215 0.048284 0.0861816 0.0627223 0.387944 0.116614 0.14186 -0.0358227 -0.0546829 0.0698516 0.118828 -0.106359 -0.0360149 0.067208 -0.00439923 0.0696506 -0.0598931 -0.143849 0.142885 -0.201204 0.181561 -0.142427 -0.156456 -0.159462 -0.0631595 0.322339 -0.417955 0.31803 -0.138783 0.257373 0.191207 0.591422 0.275092 0.25782 -0.467437 0.242473 0.308614 0.208994 -0.11469 -0.461035 0.336324 0.226731 0.287936 0.0349877 0.0333605 -0.198924 0.17101 0.495025 -0.183983 -0.538755 -0.0374546 -0.31551 0.115878 -0.201539 -0.31482 -0.124039 0.447207 0.323657 0.0110449 0.0665453 0.153621 -0.238098 -0.564182 -0.369113 0.245561 0.358428 0.0256397 0.277286 -0.108796 0.456084 -0.00955592 -0.214886 -0.229083 -0.393427 -0.324183 0.0721801 -0.349318 -0.513054 -0.058077 0.300016 -0.30971 0.254929 -0.755426 -0.551181 0.0960682
38 -0.0583933 -0.020366 -0.0471272 0.089257 0.0139366 -0.0406074 0.054713 0.0236731 -0.00393424 -0.030757 0.0215841 0.204972 0.0068077 -0.143606 0.025008 0.259297 -0.124909 0.132739 -0.0488198 -0.0183789 -0.265734 0.127364 0.0493091 0.0208216 -0.116651 -0.0432373 0.0668952 0.0395706 0.011284 0.0635058 -0.0356257 -0.0218171 0.0203184 -0.0182456 0.0198947 0.0956864 -0.00728083 -0.010746 -0.0154113 -0.0287133 -0.0565101 -0.0880605 0.0325064 -0.00733428 -0.0227291 0.126608 0.0311584 0.140797 0.110108 0.124283 0.000974477 -0.122281 -0.018003 0.115076 -0.0361023 -0.0832819 0.0747733 0.026651 0.0262709 -0.15325 -0.0661451 0.120038 -0.225034 0.120098 -0.160763 -0.204256 -0.121268 -0.0068515 0.128552 -0.244969 0.181343 -0.0802866 0.153441 0.111568 0.219095 0.0980606 0.120721 -0.279663 0.298495 0.285597 0.32374 -0.224118 -0.310372 0.187867 0.26301 0.276894 0.055953 0.0558693 -0.128196 0.137709 0.640491 -0.133641 -0.567319 -0.0160128 -0.44074 0.125247 -0.264109 -0.557274 -0.153486 0.289829 0.375439 0.080491 0.0173029 0.081695 -0.211438 -0.433431 -0.438524 0.221356 0.364576 -0.0802819 0.399055 -0.127941 0.385141 -0.0331305 -0.234688 -0.214611 -0.449682 -0.322054 0.161129 -0.328667 -0.555571 -0.129388 0.302832 -0.279135 0.266426 -0.832874 -0.580474 0.120357
29 0.0315396 0.0296423 0.0680108 -0.126012 -0.0318883 -0.118213 0.0673666 -0.00855954 -0.042637 0.0564259 0.00188052 0.0399431 -0.0103351 -0.0352456 -0.0134978 -0.144552 0.0901393 -0.0318792 -0.0168837 -0.00712086 -0.122264 0.0169134 0.0940546 -0.0418378 -0.0508031 -0.0822522 0.0920864 0.0254946 -0.00281073 0.0773754 -0.0803339 -0.000772767 -0.0176317 0.0596928 -0.00238251 -0.00887065 0.0392289 -0.00813805 0.0907072 0.0200116 0.0501057 -0.0383496 -0.0074979 0.0104574 -0.0159852 0.0548517 0.132289 0.340815 -0.0114487 0.0148252 -0.0516939 -0.0648746 -0.0812024 0.168356 -0.148284 -0.151194 0.110013 0.0606465 -0.0471641 -0.0297179 -0.0110124 0.157892 -0.157354 0.17664 -0.0833217 -0.13696 -0.0513264 -0.00112778 0.299818 -0.352796 0.251347 -0.0673811 0.115095 0.0915659 0.441561 0.0975951 0.0764135 -0.27355 0.205071 0.192204 0.102702 -0.143675 -0.293537 0.0892164 0.142596 0.230728 0.0828308 0.0713746 -0.167659 0.15744 0.455104 -0.0555647 -0.382494 -0.0281252 -0.299187 0.0859077 -0.170318 -0.397286 -0.142669 0.421609 0.418451 0.0688825 -0.0545841 0.136905 -0.29437 -0.539725 -0.565104 0.322135 0.4283 -0.0841746 0.535436 -0.20135 0.428735 -0.0605845 -0.391338 -0.293738 -0.400468 -0.274993 0.0645011 -0.343213 -0.58524 -0.0584848 0.362916 -0.279182 0.262478 -0.738233 -0.400233 0.119562
14 0.182325 0.00897765 0.0121996 0.0297866 -0.0161925 0.219846 -0.0706404 -0.0269051 0.0515971 -0.0330804 0.0102646 0.0887761 -0.0722786 0.00363604 -0.0908752 -0.0450665 0.0281037 0.0419181 0.011002 -0.0587094 -0.180622 0.032713 0.0665192 0.001419 -0.0608425 -0.0164359 0.143449 0.0289896 -0.0165357 0.109887 -0.116123 0.0823123 -0.212357 -0.130922 0.0549433 0.125065 0.0354849 -0.0136372 0.0498022 0.0518828 0.117572 0.0665068 -0.0229549 0.0823284 0.0287238 0.0887126 0.139369 0.3867 -0.0532205 -0.039942 -0.0216221 0.0285654 -0.0702993 0.0449134 -0.0621083 -0.0855505 0.0449376 0.0668111 -0.00559048 0.0175145 -0.00775731 0.0720722 -0.0796955 0.149624 -0.102515 -0.118876 -0.0993227 -0.0251743 0.314774 -0.375579 0.32857 -0.111179 0.148802 0.0832026 0.391905 0.0585192 0.110717 -0.32456 0.224575 0.230748 0.197252 -0.214012 -0.389099 0.166719 0.242914 0.3442 0.144885 0.0678637 -0.183625 0.137935 0.547415 -0.0767722 -0.416555 -0.0223827 -0.406576 0.116772 -0.219912 -0.505308 -0.116746 0.441951 0.416569 0.037529 -0.0510015 0.0666215 -0.329582 -0.564165 -0.585202 0.298587 0.374114 -0.0687649 0.485338 -0.169172 0.515355 -0.0792928 -0.371217 -0.317161 -0.401977 -0.233827 0.0735618 -0.358801 -0.586544 -0.0349103 0.320218 -0.289445 0.300995 -0.628013 -0.377438 0.0614591
28 0.0372638 -0.111843 0.13046 -0.310624 -0.0318475 -0.0191232 0.0951826 -0.0191276 0.0352104 -0.0151959 0.0221497 0.133421 -0.0588232 -0.12415 -0.108121 -0.125998 -0.0112886 0.110436 0.0934266 -0.0770207 -0.388551 0.0529236 0.111818 0.0647438 -0.125944 -0.0627249 0.204204 0.00570484 -0.0967695 0.102713 0.0288857 -0.0760396 0.066455 0.107267 0.0481618 -0.0679245 0.103165 -0.0267144 0.162743 0.0764949 -0.102033 -0.154843 -0.00583515 0.115318 -0.0142386 0.107313 0.114533 0.147684 -0.00391223 0.0233593 -0.055368 -0.0542838 -0.141157 0.155826 -0.0348837 -0.126562 0.0805941 0.0920051 -0.0325228 -0.0235317 -0.0310154 0.171396 -0.213219 0.238061 -0.144001 -0.174784 -0.0747442 -0.00569691 0.267205 -0.284215 0.239087 -0.0712808 0.0487761 0.0279569 0.193539 -0.0192067 0.0452352 -0.232532 0.274303 0.227535 0.157729 -0.232611 -0.283772 0.0969692 0.231335 0.293362 0.135901 0.0676249 -0.116393 0.0844511 0.531679 0.0012687 -0.492743 -0.00229524 -0.374414 0.118933 -0.239437 -0.577381 -0.162807 0.408963 0.432809 0.0814784 -0.065799 0.0994679 -0.355347 -0.576847 -0.68695 0.333199 0.445313 -0.125055 0.523863 -0.211356 0.495523 -0.0780892 -0.383945 -0.292231 -0.434946 -0.234702 0.0838381 -0.280716 -0.463543 -0.038647 0.344504 -0.200286 0.318489 -0.805008 -0.476557 0.114483
4 -0.0452583 -0.0259264 0.0530606 -0.312669 0.0371114 -0.156841 -0.074598 -0.0347666 -0.0170423 0.031356 -0.0365654 0.0221363 -0.00780541 -0.0163074 0.00214815 0.0413507 -0.0290892 0.0627779 -0.00892087 0.00477579 -0.026858 -0.00995055 0.0266237 0.0192644 -0.0185243 0.0344987 0.0648464 0.0182941 -0.0159949 0.0493773 -0.0832833 0.0330254 -0.0653296 -0.00228748 0.0109671 0.140994 -0.0253981 -0.0613755 -0.0403525 -0.00146689 0.0585932 0.0480192 -0.0488254 0.0273883 0.022158 0.00201464 0.0662243 0.272765 0.0592681 0.0464694 -0.0209828 -0.0236334 0.0397925 0.112213 -0.155756 -0.0212658 0.0322293 -0.0133078 0.0503382 -0.0949337 -0.0882104 0.0855859 -0.245604 0.174031 -0.132861 -0.177137 -0.10361 -0.0191853 0.247147 -0.259534 0.317975 -0.156057 0.223994 0.203425 0.493636 0.170271 0.126743 -0.27254 0.335232 0.339784 0.246819 -0.131461 -0.300433 0.2005 0.180774 0.188194 -0.00480067 0.0773777 -0.368186 0.336933 0.543636 -0.146887 -0.398693 0.00490364 -0.534693 0.184075 -0.261198 -0.460295 -0.15619 0.487264 0.416323 0.0340516 -0.0313103 0.164084 -0.306275 -0.706402 -0.613066 0.376863 0.444533 -0.00971486 0.490155 -0.213361 0.453055 0.0584482 -0.280168 -0.233122 -0.316069 -0.320917 0.0986844 -0.263376 -0.374299 -0.0404436 0.247253 -0.250868 0.144953 -0.635685 -0.404036 0.0365652
37 -0.308663 -0.216916 0.0433919 -0.585777 0.115478 -0.259036 0.0235893 -0.0469929 -0.105441 0.119312 -0.0646424 0.00593111 0.0260862 0.0291609 0.0317502 0.176346 -0.363164 0.208763 -0.110841 0.0241399 -0.00337663 0.0115553 0.0323311 -0.0216318 -0.0738372 0.127646 0.0645814 -0.0456134 0.0131229 0.0301704 0.0348432 0.0607881 -0.154955 -0.12939 0.0129367 -0.0454178 -0.0328425 -0.0554114 -0.124253 0.0167659 -0.261575 -0.00987476 -0.0320341 0.0547456 0.0255271 0.0379956 -0.0917224 0.112428 0.130689 0.115993 -0.0474779 0.00544429 0.176986 0.177709 -0.114312 0.122315 -0.0539987 -0.105551 0.149973 -0.154305 -0.193445 0.0426758 -0.372897 0.174387 -0.166332 -0.156208 -0.161981 -0.00992262 0.213525 -0.162681 0.19969 -0.190659 0.273269 0.316647 0.526454 0.252294 0.161083 -0.352613 0.468108 0.514326 0.371796 -0.0433905 -0.250159 0.305739 0.207697 0.157855 -0.0837031 0.0731229 -0.436556 0.407544 0.33305 -0.146284 -0.369854 0.0723015 -0.552241 0.237658 -0.28443 -0.324704 -0.165234 0.445871 0.44855 0.0123026 0.0543696 0.169944 -0.257013 -0.746136 -0.656722 0.447768 0.583081 0.0130171 0.550379 -0.335691 0.457751 0.156293 -0.0830979 -0.115128 -0.280812 -0.370475 0.184505 -0.137142 -0.1834 0.0184684 0.222233 -0.179842 0.0829232 -0.913094 -0.667812 0.0725549
35 -0.115149 -0.0141324 0.06498 -0.283904 0.0239711 -0.309301 0.0690416 0.0186314 -0.0282782 0.0227658 0.00403172 -0.0375312 0.055403 0.0348664 0.0470431 0.125952 -0.0936172 0.0264215 -0.0912625 0.057947 0.18119 -0.0380207 -0.0248232 -0.0337021 0.00913867 0.02821 -0.0692838 0.0299503 0.0424679 -0.111896 0.100907 -0.0317626 0.0542655 0.0183515 0.00193942 0.0442719 -0.0289252 -0.00856092 -0.0996554 -0.0400295 0.144184 0.160645 -0.0168205 -0.0034296 -0.0050357 0.0265362 0.0196226 0.25847 0.0629742 0.0530024 0.000508196 -0.0216926 0.116873 -0.0386807 0.0662094 0.126342 -0.0661323 -0.0507836 0.0528029 -0.0733466 -0.0880311 0.0063379 -0.287797 0.127934 -0.0941196 -0.0843242 -0.095002 -0.00299666 0.190552 -0.252861 0.186744 -0.0666142 0.200419 0.180218 0.39453 0.17465 0.111201 -0.296749 0.35343 0.418853 0.299078 -0.150122 -0.267976 0.238008 0.163341 0.144358 -0.0583141 0.0300956 -0.205602 0.184723 0.405519 -0.171387 -0.47667 0.0598341 -0.460461 0.161258 -0.184131 -0.289848 -0.182864 0.38382 0.413528 0.0325525 0.0174787 0.100438 -0.125186 -0.463826 -0.45334 0.29171 0.359954 -0.0116912 0.46855 -0.184368 0.385046 0.0786551 -0.181261 -0.193065 -0.309671 -0.361389 0.168817 -0.25091 -0.434367 -0.0657107 0.265573 -0.26833 0.173979 -1.02892 -0.685378 0.105456
6 -0.110193 0.00194239 0.00425148 -0.188232 0.0505201 -0.198664 0.00485102 -0.0317978 -0.103626 0.137586 -0.0706442 0.0652018 0.0284265 0.0103876 0.0877455 0.103816 -0.0456008 -0.0186112 -0.033048 0.0580828 0.314717 -0.10445 -0.00840243 -0.0438409 0.121498 0.102377 -0.124162 -0.0308373 0.0300917 -0.0420235 0.00235356 0.0282994 -0.119091 -0.0563338 -0.0342749 0.0492905 0.00173489 -0.0573112 -0.0462321 -0.00455632 0.094382 0.133845 0.00185111 0.0146272 0.00820066 0.0305984 0.0507732 0.271118 0.0612241 0.0016821 -0.014318 0.0109927 0.0881291 0.0227499 -0.147429 0.030472 -0.0148235 -0.058483 0.0521174 -0.0419232 -0.0344055 0.0442627 -0.207165 0.0901509 0.00221631 -0.0300135 -0.0218999 -0.011902 0.0864268 -0.1149 0.149429 -0.0888985 0.140463 0.144679 0.335983 0.129637 0.0702097 -0.190586 0.299619 0.331005 0.216331 -0.0545569 -0.24187 0.219854 0.200297 0.187186 -0.0777902 0.0978554 -0.439225 0.418096 0.545279 -0.192513 -0.365605 0.0138563 -0.601571 0.200219 -0.269933 -0.432798 -0.221005 0.604179 0.638282 0.0531799 -0.0408815 0.180817 -0.253167 -0.70149 -0.671008 0.441952 0.522099 -0.0223559 0.520076 -0.275557 0.363192 0.100145 -0.18699 -0.156304 -0.215326 -0.278907 0.12318 -0.19257 -0.305342 -0.0269147 0.225697 -0.217182 0.117946 -0.63135 -0.413808 0.0660813
2 -0.0908064 0.0269571 -0.00969471 -0.00273678 -0.0310957 -0.127836 -0.00661829 -0.0410789 -0.0313709 0.0244519 0.00272467 0.126064 0.0622834 -0.0978344 0.167641 0.112804 -0.0693447 0.068226 -0.117655 0.0789547 0.0189894 0.0584812 -0.00873243 -0.0726316 0.0420889 0.0315222 -0.124913 0.0122369 0.0137556 -0.0917314 0.00471326 -0.0807621 0.115782 0.128743 -0.0483331 -0.0500549 -0.00133788 -0.0835047 -0.0519207 -0.0578456 0.205001 0.199357 0.0395318 -0.0175839 0.0166024 0.105357 0.0250594 0.228364 0.128887 0.0528265 -0.025735 -0.0612322 0.0808732 0.0309336 -0.0871877 -0.0241829 0.0594087 -0.00689686 0.0591654 -0.0632597 -0.0774712 0.170111 -0.319563 0.155045 -0.147363 -0.176553 -0.106747 -0.0118367 0.164005 -0.315155 0.207797 -0.105003 0.200039 0.141208 0.377709 0.17759 0.101533 -0.320031 0.38617 0.385049 0.143677 -0.122599 -0.174295 0.149806 0.165367 0.160933 -0.0263225 0.124908 -0.270613 0.22843 0.442917 -0.127896 -0.360395 -0.00966585 -0.408675 0.0504525 -0.195428 -0.33413 -0.209326 0.409074 0.457227 0.10624 -0.0529312 0.189983 -0.124468 -0.398153 -0.432972 0.291389 0.406605 -0.00888832 0.498428 -0.200468 0.31167 0.0227331 -0.175505 -0.122787 -0.2965 -0.327898 0.106418 -0.190558 -0.404681 -0.126347 0.239901 -0.156527 0.2114 -0.822472 -0.636875 0.180978
23 -0.144398 0.0513033 -0.0218341 -0.0674643 0.0687185 -0.0623726 0.0696997 0.0647093 -0.0663803 0.0833484 -0.0203822 -0.214118 0.0177818 0.165833 -0.0108477 -0.0253753 0.0371757 -0.0912279 -0.0130947 0.0102751 0.0681308 -0.0355028 0.0588264 -0.0426576 -0.0587356 -0.0776272 0.0184345 0.0232151 0.0767233 0.0310317 0.102183 -0.00691747 -0.0244956 -0.0837022 -0.0134383 0.0839434 -0.0347863 0.0752091 -0.0514402 -0.087282 -0.0931065 -0.090537 0.0407909 -0.0707982 -0.0742405 -0.00446422 0.0343239 0.305295 0.0175119 0.043744 0.00663668 -0.0730778 0.0442819 0.0907453 -0.0578521 0.00177922 0.00268777 -0.0385133 -0.023561 -0.177061 -0.0342255 -0.0185248 -0.197198 0.0580338 -0.0459189 -0.113137 -0.0301096 0.0244808 0.128293 -0.130244 0.154983 -0.0657027 0.177148 0.215005 0.353776 0.149774 0.0922537 -0.190364 0.176912 0.217966 0.305132 -0.0775396 -0.377027 0.235705 0.184674 0.204743 -0.0383882 0.019489 -0.253727 0.331812 0.488769 -0.185481 -0.429273 -0.013079 -0.468863 0.19926 -0.201444 -0.326784 -0.13561 0.331623 0.335951 0.0350718 0.0953477 0.0716056 -0.180444 -0.573938 -0.445071 0.307566 0.410711 -0.0789977 0.377904 -0.150559 0.44094 0.0665126 -0.271942 -0.217644 -0.458069 -0.425929 0.222593 -0.417995 -0.600713 -0.117927 0.289119 -0.34007 0.1011 -0.880771 -0.454168 0.0510576
18 0.302821 0.0863178 -0.0633401 0.36878 0.0198528 -0.103509 -0.0781204 0.00315338 0.0376459 -0.0388792 0.00429617 0.11368 -0.00965164 -0.0549351 -0.052836 0.191266 -0.145137 0.114327 -0.0947534 -0.0119872 -0.178502 0.0823334 0.098278 -0.0246018 -0.120393 -0.0375507 0.11991 0.0395364 0.0309429 0.0983583 -0.0978018 0.0916035 -0.153453 -0.124444 0.0168074 0.126362 -0.0200515 0.00500519 -0.0143678 0.0246186 -0.00684642 0.00474932 -0.0229626 0.0252823 -0.01083 0.141373 0.111004 0.399975 0.0318493 0.0664193 -0.00899946 -0.049001 -0.00544928 0.0618244 -0.041135 -0.00183394 0.0123742 -0.00299869 0.0149363 0.00707177 -0.0197188 0.00988017 -0.0392777 0.0729436 -0.0510691 -0.0825369 -0.0863317 -0.0390841 0.304242 -0.407347 0.290111 -0.0820126 0.20235 0.134566 0.474376 0.140906 0.160788 -0.340422 0.195038 0.225983 0.260201 -0.190876 -0.425817 0.246347 0.192638 0.26 0.0588914 0.0133913 -0.143118 0.12243 0.466671 -0.128552 -0.416858 -0.0218428 -0.199845 0.0835018 -0.157642 -0.359249 -0.112 0.383423 0.369412 0.00999507 -0.00761686 0.077454 -0.246425 -0.490901 -0.484773 0.264474 0.30209 -0.0459339 0.382261 -0.129808 0.441545 -0.0241014 -0.295234 -0.303479 -0.375343 -0.27684 0.103773 -0.363004 -0.564938 -0.0421764 0.325398 -0.387761 0.262335 -0.733685 -0.427941 0.0560146
32 -0.0267196 -0.0149772 -0.0452792 0.138577 0.0273825 0.0521909 0.0513823 -0.0288001 -0.00319465 0.0022372 0.0400615 0.069749 -0.0175463 -0.0164459 -0.0103953 0.015462 -0.166015 0.151516 0.00385555 -0.0217202 -0.388881 0.100024 0.0733067 -0.0538716 -0.0764013 0.0118919 0.131391 0.00713195 -0.0282205 0.0245762 0.135077 -0.0446434 -0.158967 -0.0763899 0.0518011 -0.00673674 0.0170969 -0.0133676 0.0322172 0.00168346 -0.0144814 0.0978399 0.0274116 0.0523063 -0.0191591 0.100368 0.0617862 0.332042 -0.0421452 -0.0719752 -0.0690855 0.0578673 -0.0196466 0.0641824 -0.105064 -0.144151 0.0851133 0.0745774 0.042208 -0.0173346 -0.0490091 0.140238 -0.320948 0.258865 -0.209601 -0.196295 -0.0813314 -0.0154049 0.154331 -0.19646 0.225162 -0.105012 0.180069 0.12705 0.271768 0.0778821 0.0759003 -0.36971 0.356382 0.391453 0.284737 -0.16165 -0.432276 0.31641 0.291419 0.360932 0.100595 0.143943 -0.280867 0.255596 0.476506 -0.0764393 -0.470166 -0.00694828 -0.646974 0.168807 -0.199523 -0.319947 -0.14209 0.287041 0.25628 0.083014 0.0182992 0.0332299 -0.0623044 -0.265956 -0.269824 0.196268 0.31514 -0.0432319 0.439016 -0.187295 0.433522 -0.0321363 -0.175996 -0.108738 -0.36669 -0.282312 0.151498 -0.267861 -0.468052 -0.0716855 0.27853 -0.132086 0.254383 -0.866812 -0.572183 0.146797
25 0.171559 -0.0251418 0.139522 -0.224262 -0.0518205 -0.0914285 0.0830268 -0.0140236 -0.00968669 0.0269179 0.0287523 0.132045 -0.0496488 -0.0991084 -0.11245 -0.188852 0.0590903 0.0792038 0.0304074 -0.0748221 -0.352954 0.0357481 0.136889 0.00740961 -0.12485 -0.095276 0.236378 0.0498719 -0.0646865 0.12452 -0.0637752 -0.00749672 -0.0606926 0.0625964 0.0413989 0.0106284 0.0622573 -0.0215608 0.14497 0.0845486 0.100131 -0.0158203 -0.0448789 0.0756981 0.0156694 0.0143518 0.17983 0.356332 -0.0750156 -0.0370705 -0.0816602 -0.030972 -0.156223 0.207434 -0.202246 -0.253957 0.160687 0.126162 -0.0459588 0.00200927 -0.00343891 0.190395 -0.136024 0.23429 -0.103478 -0.152558 -0.0534772 -0.0143931 0.351955 -0.396858 0.301573 -0.0647814 0.103275 0.0511606 0.42622 0.046984 0.0672742 -0.319726 0.187349 0.169007 0.0992045 -0.200869 -0.366755 0.102043 0.190945 0.308335 0.155896 0.093136 -0.149984 0.115278 0.532105 -0.0211191 -0.421768 -0.0264076 -0.367625 0.0963754 -0.222289 -0.522158 -0.139149 0.473581 0.403891 0.0587597 -0.0856689 0.125493 -0.359366 -0.595591 -0.617759 0.32572 0.403957 -0.0973548 0.512472 -0.19259 0.483641 -0.0960505 -0.439792 -0.319946 -0.403164 -0.230678 0.0433668 -0.354268 -0.566598 -0.0259634 0.381512 -0.253151 0.315245 -0.66201 -0.332615 0.103953
20 -0.0322215 0.0609137 0.00488885 -9.55432e-05 0.00873335 0.0344517 0.101703 0.031367 -0.0423208 0.068844 -0.00227113 0.0174228 -0.0139978 0.0496532 0.0120291 -0.0522605 0.142858 -0.0677874 0.00893792 -0.00246465 -0.0787206 0.00900971 0.0948222 -0.0107887 -0.000504869 -0.0925412 -0.00682609 0.0362907 0.037752 0.0538204 0.00653734 -0.0419581 0.0509636 0.0281874 0.0077792 0.123555 0.0233097 0.0169843 0.0364947 -0.0623794 0.203611 -0.00850556 0.074818 -0.0132392 -0.0361923 0.0485494 0.148492 0.548731 0.0281039 -0.00555974 -0.00314298 -0.121359 -0.0191201 0.0330535 -0.128815 -0.149918 0.0796739 0.054339 -0.0552275 -0.268167 -0.0364293 0.158842 -0.345852 0.139927 -0.121367 -0.228602 -0.0806428 0.0463408 0.187912 -0.273525 0.338186 -0.13904 0.199307 0.191379 0.446773 0.108618 0.06131 -0.235744 0.295605 0.265377 0.270639 -0.175578 -0.197735 0.0328473 0.181201 0.213143 0.0253492 0.0959405 -0.24184 0.281392 0.646744 -0.127852 -0.376629 -0.0128403 -0.533762 0.142475 -0.226488 -0.486036 -0.182528 0.384261 0.500026 0.0969535 -0.00317909 0.0944434 -0.221707 -0.498425 -0.534797 0.293421 0.421335 -0.105551 0.48402 -0.163504 0.383963 -0.00417064 -0.329876 -0.225736 -0.430755 -0.345398 0.163992 -0.35144 -0.628299 -0.153614 0.248765 -0.236467 0.157457 -0.66413 -0.439011 0.0894472
8 -0.187014 0.0427165 0.0144132 -0.129402 -0.00361207 0.0670243 0.0875163 0.0113626 -0.0344702 0.0497441 -0.032354 -0.21885 0.0410249 0.0893721 0.123518 -0.104154 0.080173 -0.0975739 -0.0695729 0.0775133 0.109667 -0.0167333 0.0315284 -0.0648601 -0.00196419 -0.0574403 -0.0751039 0.0267676 0.0569384 -0.0447413 0.13677 -0.10166 0.107557 0.0685637 -0.0298581 0.0518774 0.00157845 -0.012727 -0.0288237 -0.0836072 0.186262 0.118758 0.049002 -0.0499679 -0.0467259 0.0566953 0.101772 0.428325 0.090416 0.0419775 -0.0167366 -0.0883513 0.0658052 0.0340769 -0.024033 0.00509721 0.020911 -0.0052729 -0.0175949 -0.143006 -0.0462311 0.122379 -0.30111 0.114396 -0.0372008 -0.0812702 -0.028161 0.0096056 0.0997063 -0.17935 0.131089 -0.0576771 0.124503 0.139527 0.247984 0.134936 0.050571 -0.150747 0.250911 0.254458 0.21119 -0.100406 -0.225937 0.163334 0.198396 0.191874 -0.0666392 0.0656426 -0.274631 0.295654 0.508245 -0.177726 -0.410828 -0.00777153 -0.490564 0.147312 -0.231995 -0.408928 -0.204464 0.431115 0.508272 0.100289 0.00649537 0.129893 -0.137072 -0.466228 -0.485032 0.3165 0.439154 -0.0645738 0.454164 -0.18535 0.335192 0.0575805 -0.222209 -0.142341 -0.390201 -0.386879 0.175858 -0.321972 -0.560541 -0.159866 0.270146 -0.24662 0.184262 -0.978274 -0.643784 0.142719
39 -0.0414142 -0.00581077 -0.0155275 -0.00803109 -0.0093091 -0.127729 0.0114576 -0.0212672 -0.0207424 0.0109614 -0.00813427 0.151858 0.0101504 -0.104865 0.0500085 0.064597 0.0123009 -0.00160931 0.0092401 0.00692964 -0.0559824 0.045206 0.014117 -0.00591322 -0.00481147 -0.00609054 -0.0258627 -0.018505 0.00160379 0.0358417 -0.104287 0.0154127 0.0344537 0.0401928 -0.021235 -0.023424 0.0134053 -0.026911 0.0279493 0.00533291 -0.0937639 -0.0903231 0.0149462 -0.00485557 -0.00976172 0.0717207 0.0187583 0.0647666 0.0785106 0.094243 -0.01538 -0.0826081 -0.0157718 0.11485 -0.0705075 -0.0588512 0.0502784 0.0015496 0.00546457 -0.0585619 -0.0469958 0.11827 -0.192638 0.126432 -0.0954591 -0.136852 -0.0730492 -0.00154934 0.1659 -0.235471 0.132944 -0.0627019 0.0959179 0.0885153 0.298355 0.11142 0.110742 -0.268256 0.298256 0.283516 0.188194 -0.14014 -0.250478 0.145649 0.185366 0.21141 0.034677 0.0506888 -0.153577 0.160138 0.435568 -0.0794783 -0.397113 -0.017441 -0.360238 0.11628 -0.193506 -0.398952 -0.145097 0.3347 0.42302 0.0672598 -0.0172438 0.136945 -0.255286 -0.527431 -0.524068 0.304741 0.431507 -0.0693458 0.529449 -0.22078 0.375769 -0.00735055 -0.248577 -0.219411 -0.39793 -0.308101 0.122022 -0.280336 -0.480699 -0.077483 0.321321 -0.264281 0.234629 -0.835729 -0.609927 0.152285
17 0.239582 0.0296888 0.10944 -0.172094 -0.0193507 -0.210636 -0.084037 -0.0140647 0.0288182 0.00148627 0.00465762 0.103072 -0.0317156 -0.116137 -0.0993184 -0.0200393 0.0310306 0.113171 0.0642585 -0.0597772 -0.140689 -0.028423 0.0407257 0.0955117 -0.0561257 -0.029366 0.174117 0.0578916 -0.0773655 0.0828675 -0.136723 0.0254493 -0.0610864 0.0766151 0.0253493 0.192221 -0.0257795 -0.0655888 0.0476278 0.0665736 0.177535 0.051268 -0.112305 0.0525858 0.0371968 -0.0723908 0.143583 0.243066 -0.0152725 0.0215377 -0.0485219 -0.0452344 -0.104632 0.258192 -0.263738 -0.191531 0.146187 0.0652421 0.00458011 -0.0586801 -0.0355302 0.170921 -0.0695732 0.176896 -0.0852563 -0.14955 -0.0573359 -0.0392992 0.385269 -0.438231 0.346529 -0.085027 0.195006 0.128837 0.574894 0.134059 0.118366 -0.339831 0.165069 0.174693 0.167936 -0.194156 -0.447678 0.203634 0.202364 0.263224 0.0589572 0.0719743 -0.252626 0.203065 0.593661 -0.104969 -0.458581 -0.0372511 -0.32502 0.0965312 -0.229027 -0.531287 -0.130378 0.505133 0.323679 0.0190491 -0.0926624 0.156062 -0.367126 -0.693831 -0.62822 0.349308 0.375734 -0.0318875 0.43673 -0.152512 0.471229 -0.0124691 -0.406941 -0.304105 -0.344908 -0.282656 0.0543694 -0.372426 -0.509019 -0.0318128 0.361696 -0.358908 0.252872 -0.670523 -0.359105 0.0381806
26 0.117725 -0.00914266 0.0702711 -0.144436 -0.0432066 -0.152923 0.0342692 0.0112088 -0.0562761 0.0250371 0.0590625 0.141252 -0.00687301 -0.0273871 -0.0785028 -0.0515961 0.0224645 0.0372468 0.0398929 -0.0686045 -0.0864834 -0.019157 -0.0112727 -0.0265677 0.0213824 0.0223533 0.136548 0.044972 -0.0409319 -0.0107389 -0.0102531 0.0190707 -0.194209 -0.0516835 0.0340918 -0.0403154 0.0133933 0.0181923 0.0666405 0.0737067 0.0813226 0.111695 -0.0631129 0.0639195 0.0281932 0.0121929 0.104707 0.281733 -0.113768 -0.064243 -0.0817903 0.0739254 -0.0909376 0.215518 -0.282945 -0.294065 0.191503 0.125288 0.0401171 0.0486734 -0.0269041 0.14651 -0.143154 0.268958 -0.190554 -0.17661 -0.0958737 -0.0381028 0.283631 -0.344661 0.227072 -0.0310308 0.160699 0.0697169 0.451943 0.119332 0.0919013 -0.406766 0.182933 0.24338 0.155199 -0.158207 -0.471133 0.258778 0.252629 0.371857 0.160526 0.120946 -0.171061 0.148111 0.58292 -0.0927657 -0.498636 -0.00831744 -0.440556 0.0949105 -0.164456 -0.342003 -0.101817 0.344909 0.207331 0.0355098 -0.053172 0.0691825 -0.213699 -0.447396 -0.379801 0.255612 0.305503 -0.0426195 0.476763 -0.170715 0.441475 -0.0892401 -0.321149 -0.252304 -0.364505 -0.258634 0.089065 -0.390889 -0.563861 -0.0143845 0.408842 -0.262916 0.318976 -0.803416 -0.460884 0.146375
12 0.162131 0.00634292 0.0099082 0.133913 0.0885625 -0.457956 0.111142 0.0312218 -0.0798062 0.0991165 -0.0327392 0.0569007 0.0210683 -0.0277657 -0.0662098 0.176745 -0.172424 0.0916681 -0.0174319 0.00696899 0.0266994 -0.0440985 0.0697826 0.0283709 -0.0521033 -0.0310822 0.00816792 -0.0274287 0.0101523 0.0251573 0.0477417 0.0578941 -0.00216603 -0.00811345 -0.00992534 0.0197397 -0.0232439 0.0307823 0.00469069 0.0423733 -0.148652 -0.109363 -0.0179617 0.00678159 -0.0642931 0.0544679 0.0735539 0.367667 0.0743052 0.12973 -0.0555042 -0.152594 0.0294153 0.217531 -0.143658 -0.0316248 0.0211847 -0.0469482 0.0103841 -0.173162 -0.0650186 0.089057 -0.158653 0.0444057 0.0720788 0.00916864 0.0265562 0.0152169 0.173856 -0.219509 0.0870282 -0.0175335 0.12709 0.162669 0.384889 0.132469 0.10981 -0.273448 0.158855 0.216205 0.334888 -0.0723417 -0.419971 0.290631 0.19332 0.216809 -0.0894103 -0.00233104 -0.180316 0.230585 0.341884 -0.13695 -0.377656 -0.00218627 -0.312326 0.18232 -0.205391 -0.336034 -0.143824 0.421273 0.41652 0.00118132 0.0512353 0.0870424 -0.17683 -0.515389 -0.462726 0.291689 0.378354 -0.0607349 0.368926 -0.188039 0.331067 0.110557 -0.147585 -0.149991 -0.28524 -0.309849 0.18979 -0.302222 -0.459204 -0.0364772 0.288429 -0.361108 0.134025 -0.882759 -0.580813 0.0683142
9 -0.0956957 0.0168473 -0.00122532 -0.126664 0.0466706 -0.0148387 -0.0735595 -0.00193081 -0.0392622 0.0704623 -0.0362714 0.0724189 0.00832132 0.0386904 0.0746494 0.109901 0.121931 -0.0775397 0.00575452 0.0244617 0.204352 -0.0450089 -0.0529572 0.0343742 0.0918288 0.0455251 -0.116457 -0.00389217 0.0311284 0.00543448 -0.10958 0.0483821 -0.0882073 -0.0751172 -0.0309471 0.144129 -0.0296494 -0.0198603 -0.0905618 -0.0820772 0.0911506 0.0127495 0.0393526 -0.0350982 -0.0151456 0.0669517 0.0575009 0.3662 0.138178 0.114463 -0.011249 -0.147908 0.0427157 0.188244 -0.18122 -0.0464646 0.0574114 -0.0216219 0.0185793 -0.212293 -0.0745863 0.101485 -0.222766 0.059113 -0.0789896 -0.188507 -0.0849719 0.0277853 0.199828 -0.279563 0.238165 -0.141505 0.2563 0.255063 0.455283 0.174961 0.102603 -0.196973 0.325034 0.305453 0.244832 -0.105391 -0.246274 0.124879 0.190735 0.189603 -0.0607106 0.081604 -0.333158 0.340728 0.432048 -0.140044 -0.260795 -0.0340675 -0.398726 0.0987971 -0.30733 -0.550958 -0.144306 0.39091 0.413389 0.0583936 -0.015634 0.151287 -0.228201 -0.615126 -0.576647 0.376693 0.497997 -0.0447965 0.566603 -0.221117 0.365614 0.0927161 -0.256083 -0.173781 -0.351915 -0.407965 0.154225 -0.287057 -0.496859 -0.148455 0.231219 -0.309497 0.122745 -0.731945 -0.534584 0.0700067
5 -0.0545707 -0.0140379 -0.0520878 -0.0510688 0.0584966 -0.00870969 -0.0904374 -0.0435794 -0.0548149 0.0930564 -0.0633941 0.0613809 -0.00145886 0.0581267 0.047574 0.107091 -0.0867725 0.0307244 -0.00351992 0.0133225 0.196839 -0.0700086 -0.0174174 -0.0198157 0.103455 0.132273 -0.0678102 -0.0458737 0.0169533 -0.00440809 -0.0113332 0.0542936 -0.211663 -0.144252 -0.0130522 0.030915 0.00733458 -0.0351352 -0.0585684 -0.0100634 -0.0603601 0.0568447 0.020365 0.0450233 0.0063191 0.0717593 0.0284152 0.322199 0.0631664 0.0144806 -0.0258499 0.0118934 0.0825875 0.100967 -0.218957 -0.021223 0.0163606 -0.0455154 0.075325 -0.0885852 -0.0572742 0.0427196 -0.211719 0.116803 -0.0810635 -0.118074 -0.0699113 -0.0109239 0.131375 -0.131044 0.214393 -0.140206 0.214246 0.205819 0.440223 0.156103 0.0942122 -0.236102 0.325773 0.352471 0.280918 -0.0658164 -0.301132 0.248245 0.240587 0.237686 -0.0469871 0.114041 -0.489089 0.467379 0.530147 -0.17446 -0.330805 -0.0012655 -0.591119 0.19385 -0.284411 -0.443143 -0.182702 0.545487 0.559763 0.0406147 -0.0178432 0.167476 -0.273175 -0.734975 -0.678787 0.456446 0.542529 -0.0235141 0.521109 -0.282911 0.406436 0.092123 -0.187642 -0.160268 -0.249589 -0.296457 0.135777 -0.208384 -0.298089 -0.020505 0.219148 -0.207697 0.099765 -0.572013 -0.356667 0.0357047
19 -0.00683337 0.0260537 0.00550152 -0.0791018 -0.05643 -0.137039 0.145131 0.0782577 -0.140727 0.0450722 0.0817631 0.146942 0.0570532 -0.0138487 0.0232543 0.137042 -0.0488318 0.0226112 -0.136336 -0.0417362 0.0369793 0.0369795 -0.0369267 -0.11746 0.0271316 0.000285975 0.0731818 0.114537 0.065637 -0.0509428 -0.0252442 0.0315696 -0.244378 -0.171736 0.0310394 -0.0308993 -0.0136761 0.0737129 -0.0292735 0.0151452 0.123982 0.154644 -0.0180637 -0.0184527 0.0170613 0.0353217 0.0360262 0.292852 -0.0673171 -0.00816581 -0.0463005 0.0513559 0.013974 0.163252 -0.217082 -0.256222 0.168825 0.096502 0.0826764 -0.0358783 -0.0438572 0.070076 -0.130566 0.156402 -0.200325 -0.150491 -0.145947 -0.0333398 0.142928 -0.259353 0.0891638 0.0127158 0.180257 0.0954336 0.462435 0.21535 0.0828183 -0.359622 0.15462 0.250854 0.250338 -0.162483 -0.397457 0.225135 0.241015 0.344802 0.158191 0.116294 -0.0963352 0.115189 0.752504 -0.201339 -0.665411 0.030925 -0.450853 0.0824748 -0.155931 -0.29685 -0.10751 0.226694 0.24414 0.0466451 0.0280131 0.028348 -0.111872 -0.283498 -0.228562 0.166861 0.237919 -0.0482569 0.386242 -0.104803 0.291516 -0.116223 -0.206237 -0.206125 -0.366516 -0.263997 0.153993 -0.415218 -0.632414 -0.0589698 0.396656 -0.278749 0.293826 -0.863099 -0.519586 0.198758
1 -0.186576 -0.116362 0.00652218 -0.200994 0.0351707 -0.111258 0.0910566 0.00283583 -0.0761635 0.0662827 -0.0148866 0.0625308 0.0690174 -0.00967489 0.0842235 0.268149 -0.369631 0.201242 -0.182697 0.0526649 0.119064 0.00341269 -0.0209566 -0.0801379 -0.0117763 0.127376 -0.0735377 -0.0118731 0.0351758 -0.104093 0.1982 -0.0437955 -0.0668437 -0.0968529 -0.00465023 -0.149617 0.0133425 -0.0134446 -0.108863 0.0120235 -0.0575282 0.160965 0.0262638 0.0489453 0.00543053 0.129362 -0.0299417 0.224012 0.107042 0.0728165 -0.0347244 0.0121097 0.134244 0.0562171 -0.0315163 0.0710478 -0.0210383 -0.0506115 0.133898 -0.0484624 -0.10298 0.0527858 -0.290282 0.129391 -0.108192 -0.0742108 -0.107868 -0.0287201 0.10282 -0.205424 0.0814934 -0.0549542 0.201031 0.165694 0.336257 0.182879 0.115024 -0.365892 0.369281 0.449879 0.314058 -0.105934 -0.255128 0.291572 0.259787 0.242606 -0.0311126 0.0870807 -0.260764 0.229389 0.454626 -0.172497 -0.503534 0.0589702 -0.491326 0.145884 -0.266294 -0.377995 -0.22317 0.491232 0.552928 0.0560326 0.0237097 0.122187 -0.147416 -0.503471 -0.542021 0.351407 0.468899 -0.0372 0.471972 -0.251065 0.377461 0.0458806 -0.0945687 -0.120336 -0.309179 -0.315288 0.19685 -0.214768 -0.352228 -0.0295382 0.288963 -0.204677 0.239913 -0.98289 -0.677271 0.145885
34 -0.333903 -0.212302 0.0368566 -0.565446 0.124767 -0.289764 0.104887 -0.0222862 -0.130468 0.111913 -0.0526992 -0.049527 0.0242588 0.0664725 0.00873129 0.16742 -0.364356 0.186381 -0.128716 0.027493 -0.0354397 0.0292256 0.0412571 -0.0479609 -0.0953722 0.0883805 0.0739634 -0.0313018 0.0337487 0.014724 0.0923304 0.0613246 -0.0997095 -0.122995 0.0199064 -0.0579995 -0.0326852 -0.0138764 -0.122213 0.0118069 -0.281468 -0.0263633 -0.0189868 0.0365645 -0.000340944 0.0690509 -0.0847136 0.227002 0.123771 0.133026 -0.0478329 -0.0176875 0.202633 0.147962 -0.100197 0.109884 -0.0667958 -0.107308 0.14375 -0.205884 -0.198917 0.0246991 -0.435278 0.167238 -0.15788 -0.140949 -0.159106 0.00602393 0.168894 -0.122224 0.194985 -0.179574 0.278484 0.326865 0.52614 0.262694 0.15857 -0.363417 0.463098 0.540178 0.431134 -0.0391884 -0.30806 0.346552 0.228364 0.19774 -0.0825541 0.074366 -0.430322 0.438169 0.462288 -0.206117 -0.515549 0.0781551 -0.701693 0.303542 -0.304676 -0.345565 -0.192764 0.471115 0.511122 0.0139823 0.109245 0.142669 -0.21873 -0.726252 -0.602964 0.425039 0.569802 0.00174343 0.497094 -0.301671 0.452803 0.162275 -0.0563059 -0.111489 -0.311995 -0.395871 0.229033 -0.196241 -0.280905 0.000628398 0.233709 -0.207762 0.0703295 -0.992655 -0.682105 0.0822375
22 -0.119987 -0.06796 0.00159058 -0.231519 0.0245141 -0.0806222 0.116706 0.015525 -0.10913 0.0455865 -0.0196644 -0.0407019 -0.00524323 0.00662394 -0.0235064 -0.0198378 -0.0532991 0.00642337 -0.124319 -0.0168597 -0.263659 0.131685 0.119411 -0.0854125 -0.206428 -0.133039 0.201576 0.0449626 0.0805442 0.189054 -0.194012 0.139269 -0.128962 -0.121055 0.0183214 0.0712885 -0.0395226 0.0393243 -0.00472561 0.0104365 -0.175126 -0.139849 -0.0218666 -0.0558347 -0.00409389 0.0329029 0.0123688 0.201178 0.0451263 0.135896 -0.035845 -0.0895242 0.0167996 0.212305 -0.127368 -0.11871 0.0783021 0.0142225 0.00890874 -0.145452 -0.0973021 0.0936787 -0.142808 0.100392 -0.0963362 -0.115882 -0.119785 -0.00415281 0.194129 -0.212691 0.155653 -0.0871946 0.132249 0.15625 0.414096 0.19477 0.149854 -0.26463 0.168753 0.191335 0.219428 -0.067284 -0.355094 0.185224 0.195324 0.282118 0.086818 0.0190658 -0.12831 0.204524 0.563615 -0.157895 -0.540882 -0.0170559 -0.407043 0.193422 -0.228321 -0.411385 -0.0889487 0.28554 0.342505 0.028843 0.103226 0.0849437 -0.285208 -0.556237 -0.378137 0.236825 0.382746 -0.0640566 0.352116 -0.142041 0.355576 -0.0293198 -0.210124 -0.231343 -0.463103 -0.307134 0.139791 -0.414002 -0.644229 -0.070125 0.341697 -0.309449 0.18997 -0.718999 -0.463409 0.131654
13 -0.0728347 -0.0686229 0.0625195 -0.274974 0.0594669 -0.319531 0.190403 0.0189267 -0.127305 0.113857 -0.0441117 -0.136103 0.0434029 0.0785787 -0.000323821 0.00231224 -0.18081 0.018993 -0.143106 0.0587048 0.135698 -0.0358641 0.0890717 -0.103806 -0.0539196 -0.0138055 0.00278231 -0.0148007 0.0807231 -0.016546 0.126973 0.0382276 -0.0523636 -0.0774279 -0.0128863 -0.0532484 0.00832419 0.0246903 -0.0240179 0.0123048 -0.138391 9.82892e-05 -0.001337 0.0136077 -0.0545285 0.13513 0.0574747 0.409425 0.057005 0.0847164 -0.0525715 -0.0381294 0.12226 0.0532362 0.0302082 0.131325 -0.0781361 -0.0664656 0.0349111 -0.0544302 -0.0762338 0.0095073 -0.190159 0.0582927 0.0489578 0.0667957 -0.0151992 0.00163385 0.142986 -0.155362 0.0550494 -0.0240856 0.0983005 0.157427 0.29645 0.150681 0.0790292 -0.209278 0.210804 0.272167 0.260186 -0.0404224 -0.29774 0.268206 0.157519 0.174998 -0.0645464 -0.000720263 -0.207059 0.241126 0.329355 -0.167133 -0.45171 0.0515743 -0.416733 0.221121 -0.205359 -0.296302 -0.180215 0.455241 0.529373 0.0291782 0.0551287 0.0922215 -0.161587 -0.498926 -0.467707 0.305741 0.395859 -0.0474397 0.406694 -0.214138 0.36735 0.0999579 -0.137195 -0.170582 -0.314338 -0.321317 0.194361 -0.289445 -0.469957 -0.0252862 0.29035 -0.27946 0.149334 -1.00132 -0.595325 0.113104
15 0.181794 0.0151682 0.0168498 0.0697332 0.013805 0.0526689 -0.113303 -0.0452626 0.0921908 -0.0612908 0.00720212 0.0890096 -0.0593892 -0.0735538 -0.0814947 0.0128392 0.00928627 0.0972249 0.0767669 -0.0434557 -0.298522 0.0488742 0.0545728 0.0805407 -0.0776207 -0.00648631 0.160893 0.0278723 -0.0638694 0.0995517 -0.0658015 0.0239259 -0.107784 -0.0230304 0.0487125 0.197388 -0.0017849 -0.0564436 0.0392565 0.030365 0.100003 0.0301522 -0.0440582 0.0648464 0.0156903 0.0596453 0.130731 0.315266 0.0105212 0.00869988 -0.0273106 -0.0286537 -0.0645751 0.104623 -0.117595 -0.101012 0.0775753 0.0568812 0.00761318 -0.0397011 -0.0415416 0.12535 -0.149894 0.184026 -0.11755 -0.166246 -0.068508 -0.0350689 0.244015 -0.278407 0.306114 -0.112986 0.170249 0.111317 0.324536 0.064875 0.106145 -0.242657 0.23866 0.227381 0.215579 -0.186295 -0.397658 0.228972 0.247106 0.301673 0.063676 0.0667615 -0.271421 0.212557 0.535637 -0.100241 -0.449726 -0.0308039 -0.455997 0.138341 -0.259161 -0.543784 -0.136906 0.432013 0.337655 0.0430691 -0.0525276 0.0998227 -0.268163 -0.549322 -0.548526 0.296776 0.372454 -0.0390314 0.422683 -0.142255 0.476714 -0.00348106 -0.310507 -0.244636 -0.350517 -0.2805 0.0806295 -0.307176 -0.476768 -0.0725548 0.272373 -0.285297 0.256544 -0.694913 -0.432811 0.0425858
3 0.154054 0.0219179 0.122007 -0.221013 -0.0369045 -0.244721 -0.013451 0.00255087 0.00580424 0.00923496 0.0239659 0.171152 -0.019983 -0.184125 -0.0869183 0.0063349 0.0208412 0.128671 0.0693944 -0.0743884 -0.20057 -0.0104975 0.0375074 0.087602 -0.0656203 -0.045468 0.193323 0.0679321 -0.101123 0.0681697 -0.128612 -0.010296 -0.0559198 0.106292 0.0200307 0.136195 -0.00765101 -0.0614505 0.0832191 0.0815564 0.190972 0.0556096 -0.110868 0.0495772 0.0361313 -0.086636 0.132765 0.128685 -0.0440008 0.00249696 -0.0477665 -0.0176686 -0.149093 0.250178 -0.215382 -0.205929 0.163079 0.0910304 -0.0151141 0.0453468 0.0130325 0.155726 -0.00884292 0.188013 -0.0774721 -0.119497 -0.0382601 -0.0429913 0.377602 -0.436362 0.286351 -0.0320121 0.130608 0.0456237 0.470051 0.0821981 0.0975726 -0.329198 0.142683 0.159966 0.128131 -0.227982 -0.503479 0.216589 0.216762 0.302378 0.112186 0.0755987 -0.186443 0.125149 0.616485 -0.0691803 -0.517832 -0.0493861 -0.251931 0.0479889 -0.200232 -0.517613 -0.115915 0.45258 0.269574 0.0308198 -0.1132 0.134819 -0.351842 -0.603051 -0.585116 0.310891 0.330057 -0.0455194 0.441269 -0.140707 0.477992 -0.0733074 -0.446231 -0.323867 -0.350319 -0.24457 0.0291032 -0.36387 -0.517152 -0.0265478 0.399043 -0.346836 0.323026 -0.728862 -0.38445 0.0678743
10 -0.121659 0.0226102 0.00286511 -0.198675 0.0665549 -0.126129 -0.0593116 -0.0187766 -0.0761804 0.111582 -0.0365554 0.209393 -0.0191717 -0.00343979 0.0700487 0.149201 0.221079 -0.131233 0.127985 0.0127301 0.261208 -0.0954002 -0.0820786 0.0743682 0.180057 0.0768563 -0.173386 -0.0386143 -0.00624789 0.000515648 -0.150236 0.0593284 -0.0334865 -0.0280646 -0.0411902 0.0769841 0.00581979 -0.0277452 -0.0325573 -0.0875296 0.0548828 -0.0469942 0.0714592 -0.0115489 -0.0385291 0.154993 0.0640029 0.313119 0.130313 0.0942851 0.00906701 -0.133403 0.0150932 0.138975 -0.189519 -0.077131 0.0636344 -0.0047759 -0.00252318 -0.193527 -0.0551362 0.122317 -0.251696 0.0828351 -0.102622 -0.225141 -0.0839962 0.0388652 0.191537 -0.255671 0.25515 -0.161572 0.237403 0.240628 0.408999 0.133471 0.108066 -0.218704 0.387992 0.341631 0.220879 -0.114731 -0.254419 0.12278 0.199403 0.200962 -0.0553163 0.0883077 -0.371657 0.374585 0.442977 -0.114103 -0.222734 -0.0436215 -0.40765 0.0915267 -0.257644 -0.471797 -0.137346 0.349276 0.404984 0.0791207 -0.0434868 0.147307 -0.241822 -0.623162 -0.610691 0.397383 0.516637 -0.040087 0.652572 -0.246898 0.418483 0.0809769 -0.284221 -0.183104 -0.356045 -0.397291 0.148779 -0.273908 -0.540971 -0.169751 0.240768 -0.293308 0.147659 -0.76138 -0.624367 0.0846033
21 -0.114744 0.017685 -0.03024 0.109276 0.00312771 -0.0581177 0.295038 0.0885495 -0.12773 0.0965719 0.0102122 0.0495129 0.0264948 -0.0193431 0.0654911 0.0532493 -0.0594777 0.0552749 -0.187529 -0.00308696 -0.334583 0.164035 0.201053 -0.095778 -0.16275 -0.203553 0.076879 0.0828017 0.103785 0.124105 0.000712736 -0.0559888 0.039581 -6.111e-05 0.0244822 0.0930724 -0.00712806 0.0517135 0.0197938 -0.0478192 0.116262 -0.0912355 0.0805717 -0.0732235 -0.0433319 -0.00326994 0.0945238 0.471743 0.03838 0.0417849 -0.0296913 -0.191362 -0.0241526 0.147602 -0.163625 -0.249713 0.140916 0.0667575 -0.0487095 -0.380895 -0.060182 0.206109 -0.390287 0.113631 -0.103838 -0.192117 -0.0851658 0.0622152 0.0944497 -0.227054 0.214678 -0.0940841 0.160915 0.169519 0.40307 0.127754 0.0303673 -0.207147 0.215244 0.186316 0.291865 -0.146767 -0.0411759 -0.0902065 0.144145 0.173683 0.0554159 0.106771 -0.0984447 0.19911 0.654146 -0.118316 -0.442279 -0.0106705 -0.522919 0.14547 -0.258374 -0.538729 -0.177912 0.31792 0.541939 0.119772 0.0668317 0.0777434 -0.186946 -0.359595 -0.415598 0.203845 0.415353 -0.154777 0.426456 -0.145173 0.262669 -0.0733476 -0.287416 -0.194146 -0.504179 -0.330658 0.19818 -0.403713 -0.706834 -0.166718 0.290882 -0.223097 0.185144 -0.685571 -0.421429 0.149591
27 0.111188 -0.0739919 0.0921035 -0.142789 -0.0009045 -0.0208904 0.0404718 -0.00275828 0.0319522 -0.0185294 0.0487114 0.1992 -0.0594856 -0.138245 -0.119286 0.0595913 -0.0611542 0.1772 0.135104 -0.0938555 -0.309684 0.00648253 0.000509199 0.119464 -0.0378599 0.0171389 0.150917 0.0190919 -0.136646 0.014168 0.0442633 -0.0508265 -0.0250138 0.0500175 0.0629653 -0.0249012 0.0552625 -0.0269664 0.100066 0.0807557 0.0323862 0.0124646 -0.0250944 0.125025 -0.0124255 0.110761 0.110518 0.236363 -0.00576961 0.00892292 -0.0577682 -0.0145811 -0.118883 0.185888 -0.144213 -0.200614 0.132733 0.106341 0.0252197 -0.0415499 -0.0257355 0.183104 -0.173192 0.219625 -0.132985 -0.146523 -0.0645841 -0.0189209 0.26791 -0.333068 0.223182 -0.0537369 0.12193 0.050233 0.279198 0.0188138 0.0800602 -0.371345 0.270043 0.291028 0.254426 -0.253364 -0.451882 0.247787 0.314762 0.38961 0.127323 0.112257 -0.1874 0.130744 0.600782 -0.0444626 -0.546503 -0.0203877 -0.420569 0.0891528 -0.215186 -0.483269 -0.119812 0.341307 0.251172 0.0568554 -0.0611719 0.0370644 -0.220333 -0.396718 -0.491012 0.24347 0.343409 -0.0716103 0.477102 -0.167377 0.468348 -0.0770563 -0.308271 -0.201944 -0.347925 -0.219894 0.0942625 -0.287694 -0.487548 -0.0532947 0.339598 -0.248849 0.353795 -0.856183 -0.600997 0.0981964
16 0.183801 0.130386 -0.0388104 0.372925 -0.000476953 -0.377221 -0.0306051 0.0541357 0.000243795 -0.00290562 0.0203607 0.0743885 0.0663322 -0.0803779 -0.0126237 0.20226 -0.132029 0.131554 -0.0893675 -0.000807364 -0.0702855 0.0265895 0.0242581 0.00426597 -0.0814274 -0.0583452 0.041578 0.0603362 -0.000674668 -0.0101679 -0.0281783 -0.00928037 0.0532583 0.094075 -0.0172768 0.125071 -0.106744 0.0108567 -0.0677708 0.0254219 0.171481 0.10517 -0.084459 -0.0704014 0.02786 -0.193683 0.0406372 0.205452 0.0152658 0.0643521 -0.0245278 -0.104499 -0.0265143 0.237619 -0.333007 -0.2463 0.168479 0.0126083 0.0351476 -0.154723 -0.0549751 0.139036 -0.156184 0.133154 -0.0807022 -0.168927 -0.0526565 -0.0197911 0.263608 -0.402299 0.267791 -0.030353 0.26644 0.170736 0.692042 0.232195 0.164881 -0.432167 0.130093 0.229661 0.298735 -0.146436 -0.485392 0.269475 0.195632 0.237295 -0.00298087 0.0746706 -0.173771 0.204888 0.616672 -0.189148 -0.510109 -0.0414799 -0.34837 0.0962461 -0.194489 -0.362822 -0.137902 0.425148 0.281113 -0.00822352 0.0376452 0.141527 -0.194295 -0.535509 -0.393418 0.268107 0.328131 -0.034335 0.293994 -0.110258 0.336613 0.00854726 -0.269125 -0.233696 -0.332829 -0.338766 0.141164 -0.387995 -0.478346 -0.0443952 0.34352 -0.388938 0.170974 -0.707649 -0.377912 0.061237
24 -0.102551 0.0584247 0.0654056 -0.0941753 0.00399985 -0.216026 0.137909 0.0502727 -0.0511221 0.0434684 0.017385 0.0915356 0.0282213 -0.0600709 0.0742299 0.0839181 0.161051 -0.0484702 -0.0481856 0.0482853 -0.0707261 0.0518564 0.0487636 0.0175581 -0.0297532 -0.148962 -0.100478 0.058384 0.0353671 -0.00502277 -0.0272547 -0.0772346 0.31947 0.210307 -0.0347066 0.0851765 -0.0183952 -0.000154003 -0.0160157 -0.11111 0.274635 -0.0134138 0.0728805 -0.0800344 -0.0610166 0.105026 0.146185 0.537876 0.151614 0.141993 -0.00947293 -0.272927 -0.00939275 0.136796 -0.108309 -0.137467 0.108492 0.0465025 -0.0637768 -0.335664 -0.0744056 0.232532 -0.37249 0.0977941 -0.103475 -0.250483 -0.0934385 0.0639663 0.268029 -0.458594 0.328715 -0.124703 0.251295 0.227631 0.505165 0.16483 0.110273 -0.304465 0.318676 0.27748 0.246076 -0.199339 -0.212104 0.0266227 0.140937 0.160302 -0.036822 0.0662115 -0.121888 0.161136 0.499909 -0.116603 -0.372901 -0.0429064 -0.318892 0.0472675 -0.236805 -0.5203 -0.161872 0.299721 0.3793 0.103055 -0.00594404 0.119491 -0.151413 -0.377585 -0.396931 0.211516 0.343714 -0.0770108 0.4666 -0.100405 0.33472 0.012749 -0.3379 -0.217263 -0.470367 -0.439967 0.159447 -0.366951 -0.729904 -0.238813 0.258825 -0.320867 0.196811 -0.854714 -0.639389 0.128201
31 -0.0394953 -0.118589 0.0142911 0.0242871 0.0224158 0.0483593 0.160952 0.00558803 -0.00361939 0.0127125 0.0131967 -0.0362326 -0.00669526 0.0216811 -0.0470559 -0.0361078 -0.333684 0.23795 -0.168937 -0.0121744 -0.392213 0.128026 0.167117 -0.0815064 -0.181629 -0.0435848 0.158903 0.0159316 0.0166733 0.0432517 0.225644 -0.0831973 -0.00949106 -0.0243086 0.0667613 -0.0796979 0.0500534 0.0150269 0.0289604 0.0548875 -0.0916053 -0.00206301 0.0315465 0.0729678 -0.00831097 0.0782405 0.0666741 0.462197 0.00931365 0.00173278 -0.0834209 -0.0493635 0.012232 0.103005 -0.0770793 -0.0982395 0.0489649 0.0327556 0.04884 -0.166971 -0.0920018 0.14224 -0.371952 0.200919 -0.126365 -0.117807 -0.0849566 0.011 0.139062 -0.187038 0.228095 -0.100388 0.170017 0.148557 0.351736 0.0976827 0.0510532 -0.308126 0.308101 0.349224 0.356389 -0.166771 -0.285881 0.191451 0.254696 0.300304 0.0843446 0.130457 -0.227679 0.233837 0.612176 -0.122931 -0.587531 0.045501 -0.679819 0.221036 -0.322582 -0.553138 -0.224545 0.506795 0.570958 0.0759923 0.0607679 0.0740336 -0.181398 -0.443917 -0.510703 0.274813 0.448546 -0.106661 0.387202 -0.202285 0.406924 -0.0367567 -0.212936 -0.187464 -0.400052 -0.270256 0.186217 -0.278743 -0.431515 -0.014748 0.275356 -0.13465 0.226786 -0.77057 -0.380354 0.10401
